FANN_FLO_2.1
num_layers=3
learning_rate=0.700000
connection_rate=1.000000
network_type=0
learning_momentum=0.000000
training_algorithm=2
train_error_function=1
train_stop_function=0
cascade_output_change_fraction=0.010000
quickprop_decay=-0.000100
quickprop_mu=1.750000
rprop_increase_factor=1.200000
rprop_decrease_factor=0.500000
rprop_delta_min=0.000000
rprop_delta_max=50.000000
rprop_delta_zero=0.100000
cascade_output_stagnation_epochs=12
cascade_candidate_change_fraction=0.010000
cascade_candidate_stagnation_epochs=12
cascade_max_out_epochs=150
cascade_min_out_epochs=50
cascade_max_cand_epochs=150
cascade_min_cand_epochs=50
cascade_num_candidate_groups=2
bit_fail_limit=3.49999994039535522461e-01
cascade_candidate_limit=1.00000000000000000000e+03
cascade_weight_multiplier=4.00000005960464477539e-01
cascade_activation_functions_count=10
cascade_activation_functions=3 5 7 8 10 11 14 15 16 17 
cascade_activation_steepnesses_count=4
cascade_activation_steepnesses=2.50000000000000000000e-01 5.00000000000000000000e-01 7.50000000000000000000e-01 1.00000000000000000000e+00 
layer_sizes=1025 11 2 
scale_included=0
neurons (num_inputs, activation_function, activation_steepness)=(0, 0, 0.00000000000000000000e+00) (0, 0, 0.00000000000000000000e+00) (0, 0, 0.00000000000000000000e+00) (0, 0, 0.00000000000000000000e+00) (0, 0, 0.00000000000000000000e+00) (0, 0, 0.00000000000000000000e+00) (0, 0, 0.00000000000000000000e+00) (0, 0, 0.00000000000000000000e+00) (0, 0, 0.00000000000000000000e+00) (0, 0, 0.00000000000000000000e+00) (0, 0, 0.00000000000000000000e+00) (0, 0, 0.00000000000000000000e+00) (0, 0, 0.00000000000000000000e+00) (0, 0, 0.00000000000000000000e+00) (0, 0, 0.00000000000000000000e+00) (0, 0, 0.00000000000000000000e+00) (0, 0, 0.00000000000000000000e+00) (0, 0, 0.00000000000000000000e+00) (0, 0, 0.00000000000000000000e+00) (0, 0, 0.00000000000000000000e+00) (0, 0, 0.00000000000000000000e+00) (0, 0, 0.00000000000000000000e+00) (0, 0, 0.00000000000000000000e+00) (0, 0, 0.00000000000000000000e+00) (0, 0, 0.00000000000000000000e+00) (0, 0, 0.00000000000000000000e+00) (0, 0, 0.00000000000000000000e+00) (0, 0, 0.00000000000000000000e+00) (0, 0, 0.00000000000000000000e+00) (0, 0, 0.00000000000000000000e+00) (0, 0, 0.00000000000000000000e+00) (0, 0, 0.00000000000000000000e+00) (0, 0, 0.00000000000000000000e+00) (0, 0, 0.00000000000000000000e+00) (0, 0, 0.00000000000000000000e+00) (0, 0, 0.00000000000000000000e+00) (0, 0, 0.00000000000000000000e+00) (0, 0, 0.00000000000000000000e+00) (0, 0, 0.00000000000000000000e+00) (0, 0, 0.00000000000000000000e+00) (0, 0, 0.00000000000000000000e+00) (0, 0, 0.00000000000000000000e+00) (0, 0, 0.00000000000000000000e+00) (0, 0, 0.00000000000000000000e+00) (0, 0, 0.00000000000000000000e+00) (0, 0, 0.00000000000000000000e+00) (0, 0, 0.00000000000000000000e+00) (0, 0, 0.00000000000000000000e+00) (0, 0, 0.00000000000000000000e+00) (0, 0, 0.00000000000000000000e+00) (0, 0, 0.00000000000000000000e+00) (0, 0, 0.00000000000000000000e+00) (0, 0, 0.00000000000000000000e+00) (0, 0, 0.00000000000000000000e+00) (0, 0, 0.00000000000000000000e+00) (0, 0, 0.00000000000000000000e+00) (0, 0, 0.00000000000000000000e+00) (0, 0, 0.00000000000000000000e+00) (0, 0, 0.00000000000000000000e+00) (0, 0, 0.00000000000000000000e+00) (0, 0, 0.00000000000000000000e+00) (0, 0, 0.00000000000000000000e+00) (0, 0, 0.00000000000000000000e+00) (0, 0, 0.00000000000000000000e+00) (0, 0, 0.00000000000000000000e+00) (0, 0, 0.00000000000000000000e+00) (0, 0, 0.00000000000000000000e+00) (0, 0, 0.00000000000000000000e+00) (0, 0, 0.00000000000000000000e+00) (0, 0, 0.00000000000000000000e+00) (0, 0, 0.00000000000000000000e+00) (0, 0, 0.00000000000000000000e+00) (0, 0, 0.00000000000000000000e+00) (0, 0, 0.00000000000000000000e+00) (0, 0, 0.00000000000000000000e+00) (0, 0, 0.00000000000000000000e+00) (0, 0, 0.00000000000000000000e+00) (0, 0, 0.00000000000000000000e+00) (0, 0, 0.00000000000000000000e+00) (0, 0, 0.00000000000000000000e+00) (0, 0, 0.00000000000000000000e+00) (0, 0, 0.00000000000000000000e+00) (0, 0, 0.00000000000000000000e+00) (0, 0, 0.00000000000000000000e+00) (0, 0, 0.00000000000000000000e+00) (0, 0, 0.00000000000000000000e+00) (0, 0, 0.00000000000000000000e+00) (0, 0, 0.00000000000000000000e+00) (0, 0, 0.00000000000000000000e+00) (0, 0, 0.00000000000000000000e+00) (0, 0, 0.00000000000000000000e+00) (0, 0, 0.00000000000000000000e+00) (0, 0, 0.00000000000000000000e+00) (0, 0, 0.00000000000000000000e+00) (0, 0, 0.00000000000000000000e+00) (0, 0, 0.00000000000000000000e+00) (0, 0, 0.00000000000000000000e+00) (0, 0, 0.00000000000000000000e+00) (0, 0, 0.00000000000000000000e+00) (0, 0, 0.00000000000000000000e+00) (0, 0, 0.00000000000000000000e+00) (0, 0, 0.00000000000000000000e+00) (0, 0, 0.00000000000000000000e+00) (0, 0, 0.00000000000000000000e+00) (0, 0, 0.00000000000000000000e+00) (0, 0, 0.00000000000000000000e+00) (0, 0, 0.00000000000000000000e+00) (0, 0, 0.00000000000000000000e+00) (0, 0, 0.00000000000000000000e+00) (0, 0, 0.00000000000000000000e+00) (0, 0, 0.00000000000000000000e+00) (0, 0, 0.00000000000000000000e+00) (0, 0, 0.00000000000000000000e+00) (0, 0, 0.00000000000000000000e+00) (0, 0, 0.00000000000000000000e+00) (0, 0, 0.00000000000000000000e+00) (0, 0, 0.00000000000000000000e+00) (0, 0, 0.00000000000000000000e+00) (0, 0, 0.00000000000000000000e+00) (0, 0, 0.00000000000000000000e+00) (0, 0, 0.00000000000000000000e+00) (0, 0, 0.00000000000000000000e+00) (0, 0, 0.00000000000000000000e+00) (0, 0, 0.00000000000000000000e+00) (0, 0, 0.00000000000000000000e+00) (0, 0, 0.00000000000000000000e+00) (0, 0, 0.00000000000000000000e+00) (0, 0, 0.00000000000000000000e+00) (0, 0, 0.00000000000000000000e+00) (0, 0, 0.00000000000000000000e+00) (0, 0, 0.00000000000000000000e+00) (0, 0, 0.00000000000000000000e+00) (0, 0, 0.00000000000000000000e+00) (0, 0, 0.00000000000000000000e+00) (0, 0, 0.00000000000000000000e+00) (0, 0, 0.00000000000000000000e+00) (0, 0, 0.00000000000000000000e+00) (0, 0, 0.00000000000000000000e+00) (0, 0, 0.00000000000000000000e+00) (0, 0, 0.00000000000000000000e+00) (0, 0, 0.00000000000000000000e+00) (0, 0, 0.00000000000000000000e+00) (0, 0, 0.00000000000000000000e+00) (0, 0, 0.00000000000000000000e+00) (0, 0, 0.00000000000000000000e+00) (0, 0, 0.00000000000000000000e+00) (0, 0, 0.00000000000000000000e+00) (0, 0, 0.00000000000000000000e+00) (0, 0, 0.00000000000000000000e+00) (0, 0, 0.00000000000000000000e+00) (0, 0, 0.00000000000000000000e+00) (0, 0, 0.00000000000000000000e+00) (0, 0, 0.00000000000000000000e+00) (0, 0, 0.00000000000000000000e+00) (0, 0, 0.00000000000000000000e+00) (0, 0, 0.00000000000000000000e+00) (0, 0, 0.00000000000000000000e+00) (0, 0, 0.00000000000000000000e+00) (0, 0, 0.00000000000000000000e+00) (0, 0, 0.00000000000000000000e+00) (0, 0, 0.00000000000000000000e+00) (0, 0, 0.00000000000000000000e+00) (0, 0, 0.00000000000000000000e+00) (0, 0, 0.00000000000000000000e+00) (0, 0, 0.00000000000000000000e+00) (0, 0, 0.00000000000000000000e+00) (0, 0, 0.00000000000000000000e+00) (0, 0, 0.00000000000000000000e+00) (0, 0, 0.00000000000000000000e+00) (0, 0, 0.00000000000000000000e+00) (0, 0, 0.00000000000000000000e+00) (0, 0, 0.00000000000000000000e+00) (0, 0, 0.00000000000000000000e+00) (0, 0, 0.00000000000000000000e+00) (0, 0, 0.00000000000000000000e+00) (0, 0, 0.00000000000000000000e+00) (0, 0, 0.00000000000000000000e+00) (0, 0, 0.00000000000000000000e+00) (0, 0, 0.00000000000000000000e+00) (0, 0, 0.00000000000000000000e+00) (0, 0, 0.00000000000000000000e+00) (0, 0, 0.00000000000000000000e+00) (0, 0, 0.00000000000000000000e+00) (0, 0, 0.00000000000000000000e+00) (0, 0, 0.00000000000000000000e+00) (0, 0, 0.00000000000000000000e+00) (0, 0, 0.00000000000000000000e+00) (0, 0, 0.00000000000000000000e+00) (0, 0, 0.00000000000000000000e+00) (0, 0, 0.00000000000000000000e+00) (0, 0, 0.00000000000000000000e+00) (0, 0, 0.00000000000000000000e+00) (0, 0, 0.00000000000000000000e+00) (0, 0, 0.00000000000000000000e+00) (0, 0, 0.00000000000000000000e+00) (0, 0, 0.00000000000000000000e+00) (0, 0, 0.00000000000000000000e+00) (0, 0, 0.00000000000000000000e+00) (0, 0, 0.00000000000000000000e+00) (0, 0, 0.00000000000000000000e+00) (0, 0, 0.00000000000000000000e+00) (0, 0, 0.00000000000000000000e+00) (0, 0, 0.00000000000000000000e+00) (0, 0, 0.00000000000000000000e+00) (0, 0, 0.00000000000000000000e+00) (0, 0, 0.00000000000000000000e+00) (0, 0, 0.00000000000000000000e+00) (0, 0, 0.00000000000000000000e+00) (0, 0, 0.00000000000000000000e+00) (0, 0, 0.00000000000000000000e+00) (0, 0, 0.00000000000000000000e+00) (0, 0, 0.00000000000000000000e+00) (0, 0, 0.00000000000000000000e+00) (0, 0, 0.00000000000000000000e+00) (0, 0, 0.00000000000000000000e+00) (0, 0, 0.00000000000000000000e+00) (0, 0, 0.00000000000000000000e+00) (0, 0, 0.00000000000000000000e+00) (0, 0, 0.00000000000000000000e+00) (0, 0, 0.00000000000000000000e+00) (0, 0, 0.00000000000000000000e+00) (0, 0, 0.00000000000000000000e+00) (0, 0, 0.00000000000000000000e+00) (0, 0, 0.00000000000000000000e+00) (0, 0, 0.00000000000000000000e+00) (0, 0, 0.00000000000000000000e+00) (0, 0, 0.00000000000000000000e+00) (0, 0, 0.00000000000000000000e+00) (0, 0, 0.00000000000000000000e+00) (0, 0, 0.00000000000000000000e+00) (0, 0, 0.00000000000000000000e+00) (0, 0, 0.00000000000000000000e+00) (0, 0, 0.00000000000000000000e+00) (0, 0, 0.00000000000000000000e+00) (0, 0, 0.00000000000000000000e+00) (0, 0, 0.00000000000000000000e+00) (0, 0, 0.00000000000000000000e+00) (0, 0, 0.00000000000000000000e+00) (0, 0, 0.00000000000000000000e+00) (0, 0, 0.00000000000000000000e+00) (0, 0, 0.00000000000000000000e+00) (0, 0, 0.00000000000000000000e+00) (0, 0, 0.00000000000000000000e+00) (0, 0, 0.00000000000000000000e+00) (0, 0, 0.00000000000000000000e+00) (0, 0, 0.00000000000000000000e+00) (0, 0, 0.00000000000000000000e+00) (0, 0, 0.00000000000000000000e+00) (0, 0, 0.00000000000000000000e+00) (0, 0, 0.00000000000000000000e+00) (0, 0, 0.00000000000000000000e+00) (0, 0, 0.00000000000000000000e+00) (0, 0, 0.00000000000000000000e+00) (0, 0, 0.00000000000000000000e+00) (0, 0, 0.00000000000000000000e+00) (0, 0, 0.00000000000000000000e+00) (0, 0, 0.00000000000000000000e+00) (0, 0, 0.00000000000000000000e+00) (0, 0, 0.00000000000000000000e+00) (0, 0, 0.00000000000000000000e+00) (0, 0, 0.00000000000000000000e+00) (0, 0, 0.00000000000000000000e+00) (0, 0, 0.00000000000000000000e+00) (0, 0, 0.00000000000000000000e+00) (0, 0, 0.00000000000000000000e+00) (0, 0, 0.00000000000000000000e+00) (0, 0, 0.00000000000000000000e+00) (0, 0, 0.00000000000000000000e+00) (0, 0, 0.00000000000000000000e+00) (0, 0, 0.00000000000000000000e+00) (0, 0, 0.00000000000000000000e+00) (0, 0, 0.00000000000000000000e+00) (0, 0, 0.00000000000000000000e+00) (0, 0, 0.00000000000000000000e+00) (0, 0, 0.00000000000000000000e+00) (0, 0, 0.00000000000000000000e+00) (0, 0, 0.00000000000000000000e+00) (0, 0, 0.00000000000000000000e+00) (0, 0, 0.00000000000000000000e+00) (0, 0, 0.00000000000000000000e+00) (0, 0, 0.00000000000000000000e+00) (0, 0, 0.00000000000000000000e+00) (0, 0, 0.00000000000000000000e+00) (0, 0, 0.00000000000000000000e+00) (0, 0, 0.00000000000000000000e+00) (0, 0, 0.00000000000000000000e+00) (0, 0, 0.00000000000000000000e+00) (0, 0, 0.00000000000000000000e+00) (0, 0, 0.00000000000000000000e+00) (0, 0, 0.00000000000000000000e+00) (0, 0, 0.00000000000000000000e+00) (0, 0, 0.00000000000000000000e+00) (0, 0, 0.00000000000000000000e+00) (0, 0, 0.00000000000000000000e+00) (0, 0, 0.00000000000000000000e+00) (0, 0, 0.00000000000000000000e+00) (0, 0, 0.00000000000000000000e+00) (0, 0, 0.00000000000000000000e+00) (0, 0, 0.00000000000000000000e+00) (0, 0, 0.00000000000000000000e+00) (0, 0, 0.00000000000000000000e+00) (0, 0, 0.00000000000000000000e+00) (0, 0, 0.00000000000000000000e+00) (0, 0, 0.00000000000000000000e+00) (0, 0, 0.00000000000000000000e+00) (0, 0, 0.00000000000000000000e+00) (0, 0, 0.00000000000000000000e+00) (0, 0, 0.00000000000000000000e+00) (0, 0, 0.00000000000000000000e+00) (0, 0, 0.00000000000000000000e+00) (0, 0, 0.00000000000000000000e+00) (0, 0, 0.00000000000000000000e+00) (0, 0, 0.00000000000000000000e+00) (0, 0, 0.00000000000000000000e+00) (0, 0, 0.00000000000000000000e+00) (0, 0, 0.00000000000000000000e+00) (0, 0, 0.00000000000000000000e+00) (0, 0, 0.00000000000000000000e+00) (0, 0, 0.00000000000000000000e+00) (0, 0, 0.00000000000000000000e+00) (0, 0, 0.00000000000000000000e+00) (0, 0, 0.00000000000000000000e+00) (0, 0, 0.00000000000000000000e+00) (0, 0, 0.00000000000000000000e+00) (0, 0, 0.00000000000000000000e+00) (0, 0, 0.00000000000000000000e+00) (0, 0, 0.00000000000000000000e+00) (0, 0, 0.00000000000000000000e+00) (0, 0, 0.00000000000000000000e+00) (0, 0, 0.00000000000000000000e+00) (0, 0, 0.00000000000000000000e+00) (0, 0, 0.00000000000000000000e+00) (0, 0, 0.00000000000000000000e+00) (0, 0, 0.00000000000000000000e+00) (0, 0, 0.00000000000000000000e+00) (0, 0, 0.00000000000000000000e+00) (0, 0, 0.00000000000000000000e+00) (0, 0, 0.00000000000000000000e+00) (0, 0, 0.00000000000000000000e+00) (0, 0, 0.00000000000000000000e+00) (0, 0, 0.00000000000000000000e+00) (0, 0, 0.00000000000000000000e+00) (0, 0, 0.00000000000000000000e+00) (0, 0, 0.00000000000000000000e+00) (0, 0, 0.00000000000000000000e+00) (0, 0, 0.00000000000000000000e+00) (0, 0, 0.00000000000000000000e+00) (0, 0, 0.00000000000000000000e+00) (0, 0, 0.00000000000000000000e+00) (0, 0, 0.00000000000000000000e+00) (0, 0, 0.00000000000000000000e+00) (0, 0, 0.00000000000000000000e+00) (0, 0, 0.00000000000000000000e+00) (0, 0, 0.00000000000000000000e+00) (0, 0, 0.00000000000000000000e+00) (0, 0, 0.00000000000000000000e+00) (0, 0, 0.00000000000000000000e+00) (0, 0, 0.00000000000000000000e+00) (0, 0, 0.00000000000000000000e+00) (0, 0, 0.00000000000000000000e+00) (0, 0, 0.00000000000000000000e+00) (0, 0, 0.00000000000000000000e+00) (0, 0, 0.00000000000000000000e+00) (0, 0, 0.00000000000000000000e+00) (0, 0, 0.00000000000000000000e+00) (0, 0, 0.00000000000000000000e+00) (0, 0, 0.00000000000000000000e+00) (0, 0, 0.00000000000000000000e+00) (0, 0, 0.00000000000000000000e+00) (0, 0, 0.00000000000000000000e+00) (0, 0, 0.00000000000000000000e+00) (0, 0, 0.00000000000000000000e+00) (0, 0, 0.00000000000000000000e+00) (0, 0, 0.00000000000000000000e+00) (0, 0, 0.00000000000000000000e+00) (0, 0, 0.00000000000000000000e+00) (0, 0, 0.00000000000000000000e+00) (0, 0, 0.00000000000000000000e+00) (0, 0, 0.00000000000000000000e+00) (0, 0, 0.00000000000000000000e+00) (0, 0, 0.00000000000000000000e+00) (0, 0, 0.00000000000000000000e+00) (0, 0, 0.00000000000000000000e+00) (0, 0, 0.00000000000000000000e+00) (0, 0, 0.00000000000000000000e+00) (0, 0, 0.00000000000000000000e+00) (0, 0, 0.00000000000000000000e+00) (0, 0, 0.00000000000000000000e+00) (0, 0, 0.00000000000000000000e+00) (0, 0, 0.00000000000000000000e+00) (0, 0, 0.00000000000000000000e+00) (0, 0, 0.00000000000000000000e+00) (0, 0, 0.00000000000000000000e+00) (0, 0, 0.00000000000000000000e+00) (0, 0, 0.00000000000000000000e+00) (0, 0, 0.00000000000000000000e+00) (0, 0, 0.00000000000000000000e+00) (0, 0, 0.00000000000000000000e+00) (0, 0, 0.00000000000000000000e+00) (0, 0, 0.00000000000000000000e+00) (0, 0, 0.00000000000000000000e+00) (0, 0, 0.00000000000000000000e+00) (0, 0, 0.00000000000000000000e+00) (0, 0, 0.00000000000000000000e+00) (0, 0, 0.00000000000000000000e+00) (0, 0, 0.00000000000000000000e+00) (0, 0, 0.00000000000000000000e+00) (0, 0, 0.00000000000000000000e+00) (0, 0, 0.00000000000000000000e+00) (0, 0, 0.00000000000000000000e+00) (0, 0, 0.00000000000000000000e+00) (0, 0, 0.00000000000000000000e+00) (0, 0, 0.00000000000000000000e+00) (0, 0, 0.00000000000000000000e+00) (0, 0, 0.00000000000000000000e+00) (0, 0, 0.00000000000000000000e+00) (0, 0, 0.00000000000000000000e+00) (0, 0, 0.00000000000000000000e+00) (0, 0, 0.00000000000000000000e+00) (0, 0, 0.00000000000000000000e+00) (0, 0, 0.00000000000000000000e+00) (0, 0, 0.00000000000000000000e+00) (0, 0, 0.00000000000000000000e+00) (0, 0, 0.00000000000000000000e+00) (0, 0, 0.00000000000000000000e+00) (0, 0, 0.00000000000000000000e+00) (0, 0, 0.00000000000000000000e+00) (0, 0, 0.00000000000000000000e+00) (0, 0, 0.00000000000000000000e+00) (0, 0, 0.00000000000000000000e+00) (0, 0, 0.00000000000000000000e+00) (0, 0, 0.00000000000000000000e+00) (0, 0, 0.00000000000000000000e+00) (0, 0, 0.00000000000000000000e+00) (0, 0, 0.00000000000000000000e+00) (0, 0, 0.00000000000000000000e+00) (0, 0, 0.00000000000000000000e+00) (0, 0, 0.00000000000000000000e+00) (0, 0, 0.00000000000000000000e+00) (0, 0, 0.00000000000000000000e+00) (0, 0, 0.00000000000000000000e+00) (0, 0, 0.00000000000000000000e+00) (0, 0, 0.00000000000000000000e+00) (0, 0, 0.00000000000000000000e+00) (0, 0, 0.00000000000000000000e+00) (0, 0, 0.00000000000000000000e+00) (0, 0, 0.00000000000000000000e+00) (0, 0, 0.00000000000000000000e+00) (0, 0, 0.00000000000000000000e+00) (0, 0, 0.00000000000000000000e+00) (0, 0, 0.00000000000000000000e+00) (0, 0, 0.00000000000000000000e+00) (0, 0, 0.00000000000000000000e+00) (0, 0, 0.00000000000000000000e+00) (0, 0, 0.00000000000000000000e+00) (0, 0, 0.00000000000000000000e+00) (0, 0, 0.00000000000000000000e+00) (0, 0, 0.00000000000000000000e+00) (0, 0, 0.00000000000000000000e+00) (0, 0, 0.00000000000000000000e+00) (0, 0, 0.00000000000000000000e+00) (0, 0, 0.00000000000000000000e+00) (0, 0, 0.00000000000000000000e+00) (0, 0, 0.00000000000000000000e+00) (0, 0, 0.00000000000000000000e+00) (0, 0, 0.00000000000000000000e+00) (0, 0, 0.00000000000000000000e+00) (0, 0, 0.00000000000000000000e+00) (0, 0, 0.00000000000000000000e+00) (0, 0, 0.00000000000000000000e+00) (0, 0, 0.00000000000000000000e+00) (0, 0, 0.00000000000000000000e+00) (0, 0, 0.00000000000000000000e+00) (0, 0, 0.00000000000000000000e+00) (0, 0, 0.00000000000000000000e+00) (0, 0, 0.00000000000000000000e+00) (0, 0, 0.00000000000000000000e+00) (0, 0, 0.00000000000000000000e+00) (0, 0, 0.00000000000000000000e+00) (0, 0, 0.00000000000000000000e+00) (0, 0, 0.00000000000000000000e+00) (0, 0, 0.00000000000000000000e+00) (0, 0, 0.00000000000000000000e+00) (0, 0, 0.00000000000000000000e+00) (0, 0, 0.00000000000000000000e+00) (0, 0, 0.00000000000000000000e+00) (0, 0, 0.00000000000000000000e+00) (0, 0, 0.00000000000000000000e+00) (0, 0, 0.00000000000000000000e+00) (0, 0, 0.00000000000000000000e+00) (0, 0, 0.00000000000000000000e+00) (0, 0, 0.00000000000000000000e+00) (0, 0, 0.00000000000000000000e+00) (0, 0, 0.00000000000000000000e+00) (0, 0, 0.00000000000000000000e+00) (0, 0, 0.00000000000000000000e+00) (0, 0, 0.00000000000000000000e+00) (0, 0, 0.00000000000000000000e+00) (0, 0, 0.00000000000000000000e+00) (0, 0, 0.00000000000000000000e+00) (0, 0, 0.00000000000000000000e+00) (0, 0, 0.00000000000000000000e+00) (0, 0, 0.00000000000000000000e+00) (0, 0, 0.00000000000000000000e+00) (0, 0, 0.00000000000000000000e+00) (0, 0, 0.00000000000000000000e+00) (0, 0, 0.00000000000000000000e+00) (0, 0, 0.00000000000000000000e+00) (0, 0, 0.00000000000000000000e+00) (0, 0, 0.00000000000000000000e+00) (0, 0, 0.00000000000000000000e+00) (0, 0, 0.00000000000000000000e+00) (0, 0, 0.00000000000000000000e+00) (0, 0, 0.00000000000000000000e+00) (0, 0, 0.00000000000000000000e+00) (0, 0, 0.00000000000000000000e+00) (0, 0, 0.00000000000000000000e+00) (0, 0, 0.00000000000000000000e+00) (0, 0, 0.00000000000000000000e+00) (0, 0, 0.00000000000000000000e+00) (0, 0, 0.00000000000000000000e+00) (0, 0, 0.00000000000000000000e+00) (0, 0, 0.00000000000000000000e+00) (0, 0, 0.00000000000000000000e+00) (0, 0, 0.00000000000000000000e+00) (0, 0, 0.00000000000000000000e+00) (0, 0, 0.00000000000000000000e+00) (0, 0, 0.00000000000000000000e+00) (0, 0, 0.00000000000000000000e+00) (0, 0, 0.00000000000000000000e+00) (0, 0, 0.00000000000000000000e+00) (0, 0, 0.00000000000000000000e+00) (0, 0, 0.00000000000000000000e+00) (0, 0, 0.00000000000000000000e+00) (0, 0, 0.00000000000000000000e+00) (0, 0, 0.00000000000000000000e+00) (0, 0, 0.00000000000000000000e+00) (0, 0, 0.00000000000000000000e+00) (0, 0, 0.00000000000000000000e+00) (0, 0, 0.00000000000000000000e+00) (0, 0, 0.00000000000000000000e+00) (0, 0, 0.00000000000000000000e+00) (0, 0, 0.00000000000000000000e+00) (0, 0, 0.00000000000000000000e+00) (0, 0, 0.00000000000000000000e+00) (0, 0, 0.00000000000000000000e+00) (0, 0, 0.00000000000000000000e+00) (0, 0, 0.00000000000000000000e+00) (0, 0, 0.00000000000000000000e+00) (0, 0, 0.00000000000000000000e+00) (0, 0, 0.00000000000000000000e+00) (0, 0, 0.00000000000000000000e+00) (0, 0, 0.00000000000000000000e+00) (0, 0, 0.00000000000000000000e+00) (0, 0, 0.00000000000000000000e+00) (0, 0, 0.00000000000000000000e+00) (0, 0, 0.00000000000000000000e+00) (0, 0, 0.00000000000000000000e+00) (0, 0, 0.00000000000000000000e+00) (0, 0, 0.00000000000000000000e+00) (0, 0, 0.00000000000000000000e+00) (0, 0, 0.00000000000000000000e+00) (0, 0, 0.00000000000000000000e+00) (0, 0, 0.00000000000000000000e+00) (0, 0, 0.00000000000000000000e+00) (0, 0, 0.00000000000000000000e+00) (0, 0, 0.00000000000000000000e+00) (0, 0, 0.00000000000000000000e+00) (0, 0, 0.00000000000000000000e+00) (0, 0, 0.00000000000000000000e+00) (0, 0, 0.00000000000000000000e+00) (0, 0, 0.00000000000000000000e+00) (0, 0, 0.00000000000000000000e+00) (0, 0, 0.00000000000000000000e+00) (0, 0, 0.00000000000000000000e+00) (0, 0, 0.00000000000000000000e+00) (0, 0, 0.00000000000000000000e+00) (0, 0, 0.00000000000000000000e+00) (0, 0, 0.00000000000000000000e+00) (0, 0, 0.00000000000000000000e+00) (0, 0, 0.00000000000000000000e+00) (0, 0, 0.00000000000000000000e+00) (0, 0, 0.00000000000000000000e+00) (0, 0, 0.00000000000000000000e+00) (0, 0, 0.00000000000000000000e+00) (0, 0, 0.00000000000000000000e+00) (0, 0, 0.00000000000000000000e+00) (0, 0, 0.00000000000000000000e+00) (0, 0, 0.00000000000000000000e+00) (0, 0, 0.00000000000000000000e+00) (0, 0, 0.00000000000000000000e+00) (0, 0, 0.00000000000000000000e+00) (0, 0, 0.00000000000000000000e+00) (0, 0, 0.00000000000000000000e+00) (0, 0, 0.00000000000000000000e+00) (0, 0, 0.00000000000000000000e+00) (0, 0, 0.00000000000000000000e+00) (0, 0, 0.00000000000000000000e+00) (0, 0, 0.00000000000000000000e+00) (0, 0, 0.00000000000000000000e+00) (0, 0, 0.00000000000000000000e+00) (0, 0, 0.00000000000000000000e+00) (0, 0, 0.00000000000000000000e+00) (0, 0, 0.00000000000000000000e+00) (0, 0, 0.00000000000000000000e+00) (0, 0, 0.00000000000000000000e+00) (0, 0, 0.00000000000000000000e+00) (0, 0, 0.00000000000000000000e+00) (0, 0, 0.00000000000000000000e+00) (0, 0, 0.00000000000000000000e+00) (0, 0, 0.00000000000000000000e+00) (0, 0, 0.00000000000000000000e+00) (0, 0, 0.00000000000000000000e+00) (0, 0, 0.00000000000000000000e+00) (0, 0, 0.00000000000000000000e+00) (0, 0, 0.00000000000000000000e+00) (0, 0, 0.00000000000000000000e+00) (0, 0, 0.00000000000000000000e+00) (0, 0, 0.00000000000000000000e+00) (0, 0, 0.00000000000000000000e+00) (0, 0, 0.00000000000000000000e+00) (0, 0, 0.00000000000000000000e+00) (0, 0, 0.00000000000000000000e+00) (0, 0, 0.00000000000000000000e+00) (0, 0, 0.00000000000000000000e+00) (0, 0, 0.00000000000000000000e+00) (0, 0, 0.00000000000000000000e+00) (0, 0, 0.00000000000000000000e+00) (0, 0, 0.00000000000000000000e+00) (0, 0, 0.00000000000000000000e+00) (0, 0, 0.00000000000000000000e+00) (0, 0, 0.00000000000000000000e+00) (0, 0, 0.00000000000000000000e+00) (0, 0, 0.00000000000000000000e+00) (0, 0, 0.00000000000000000000e+00) (0, 0, 0.00000000000000000000e+00) (0, 0, 0.00000000000000000000e+00) (0, 0, 0.00000000000000000000e+00) (0, 0, 0.00000000000000000000e+00) (0, 0, 0.00000000000000000000e+00) (0, 0, 0.00000000000000000000e+00) (0, 0, 0.00000000000000000000e+00) (0, 0, 0.00000000000000000000e+00) (0, 0, 0.00000000000000000000e+00) (0, 0, 0.00000000000000000000e+00) (0, 0, 0.00000000000000000000e+00) (0, 0, 0.00000000000000000000e+00) (0, 0, 0.00000000000000000000e+00) (0, 0, 0.00000000000000000000e+00) (0, 0, 0.00000000000000000000e+00) (0, 0, 0.00000000000000000000e+00) (0, 0, 0.00000000000000000000e+00) (0, 0, 0.00000000000000000000e+00) (0, 0, 0.00000000000000000000e+00) (0, 0, 0.00000000000000000000e+00) (0, 0, 0.00000000000000000000e+00) (0, 0, 0.00000000000000000000e+00) (0, 0, 0.00000000000000000000e+00) (0, 0, 0.00000000000000000000e+00) (0, 0, 0.00000000000000000000e+00) (0, 0, 0.00000000000000000000e+00) (0, 0, 0.00000000000000000000e+00) (0, 0, 0.00000000000000000000e+00) (0, 0, 0.00000000000000000000e+00) (0, 0, 0.00000000000000000000e+00) (0, 0, 0.00000000000000000000e+00) (0, 0, 0.00000000000000000000e+00) (0, 0, 0.00000000000000000000e+00) (0, 0, 0.00000000000000000000e+00) (0, 0, 0.00000000000000000000e+00) (0, 0, 0.00000000000000000000e+00) (0, 0, 0.00000000000000000000e+00) (0, 0, 0.00000000000000000000e+00) (0, 0, 0.00000000000000000000e+00) (0, 0, 0.00000000000000000000e+00) (0, 0, 0.00000000000000000000e+00) (0, 0, 0.00000000000000000000e+00) (0, 0, 0.00000000000000000000e+00) (0, 0, 0.00000000000000000000e+00) (0, 0, 0.00000000000000000000e+00) (0, 0, 0.00000000000000000000e+00) (0, 0, 0.00000000000000000000e+00) (0, 0, 0.00000000000000000000e+00) (0, 0, 0.00000000000000000000e+00) (0, 0, 0.00000000000000000000e+00) (0, 0, 0.00000000000000000000e+00) (0, 0, 0.00000000000000000000e+00) (0, 0, 0.00000000000000000000e+00) (0, 0, 0.00000000000000000000e+00) (0, 0, 0.00000000000000000000e+00) (0, 0, 0.00000000000000000000e+00) (0, 0, 0.00000000000000000000e+00) (0, 0, 0.00000000000000000000e+00) (0, 0, 0.00000000000000000000e+00) (0, 0, 0.00000000000000000000e+00) (0, 0, 0.00000000000000000000e+00) (0, 0, 0.00000000000000000000e+00) (0, 0, 0.00000000000000000000e+00) (0, 0, 0.00000000000000000000e+00) (0, 0, 0.00000000000000000000e+00) (0, 0, 0.00000000000000000000e+00) (0, 0, 0.00000000000000000000e+00) (0, 0, 0.00000000000000000000e+00) (0, 0, 0.00000000000000000000e+00) (0, 0, 0.00000000000000000000e+00) (0, 0, 0.00000000000000000000e+00) (0, 0, 0.00000000000000000000e+00) (0, 0, 0.00000000000000000000e+00) (0, 0, 0.00000000000000000000e+00) (0, 0, 0.00000000000000000000e+00) (0, 0, 0.00000000000000000000e+00) (0, 0, 0.00000000000000000000e+00) (0, 0, 0.00000000000000000000e+00) (0, 0, 0.00000000000000000000e+00) (0, 0, 0.00000000000000000000e+00) (0, 0, 0.00000000000000000000e+00) (0, 0, 0.00000000000000000000e+00) (0, 0, 0.00000000000000000000e+00) (0, 0, 0.00000000000000000000e+00) (0, 0, 0.00000000000000000000e+00) (0, 0, 0.00000000000000000000e+00) (0, 0, 0.00000000000000000000e+00) (0, 0, 0.00000000000000000000e+00) (0, 0, 0.00000000000000000000e+00) (0, 0, 0.00000000000000000000e+00) (0, 0, 0.00000000000000000000e+00) (0, 0, 0.00000000000000000000e+00) (0, 0, 0.00000000000000000000e+00) (0, 0, 0.00000000000000000000e+00) (0, 0, 0.00000000000000000000e+00) (0, 0, 0.00000000000000000000e+00) (0, 0, 0.00000000000000000000e+00) (0, 0, 0.00000000000000000000e+00) (0, 0, 0.00000000000000000000e+00) (0, 0, 0.00000000000000000000e+00) (0, 0, 0.00000000000000000000e+00) (0, 0, 0.00000000000000000000e+00) (0, 0, 0.00000000000000000000e+00) (0, 0, 0.00000000000000000000e+00) (0, 0, 0.00000000000000000000e+00) (0, 0, 0.00000000000000000000e+00) (0, 0, 0.00000000000000000000e+00) (0, 0, 0.00000000000000000000e+00) (0, 0, 0.00000000000000000000e+00) (0, 0, 0.00000000000000000000e+00) (0, 0, 0.00000000000000000000e+00) (0, 0, 0.00000000000000000000e+00) (0, 0, 0.00000000000000000000e+00) (0, 0, 0.00000000000000000000e+00) (0, 0, 0.00000000000000000000e+00) (0, 0, 0.00000000000000000000e+00) (0, 0, 0.00000000000000000000e+00) (0, 0, 0.00000000000000000000e+00) (0, 0, 0.00000000000000000000e+00) (0, 0, 0.00000000000000000000e+00) (0, 0, 0.00000000000000000000e+00) (0, 0, 0.00000000000000000000e+00) (0, 0, 0.00000000000000000000e+00) (0, 0, 0.00000000000000000000e+00) (0, 0, 0.00000000000000000000e+00) (0, 0, 0.00000000000000000000e+00) (0, 0, 0.00000000000000000000e+00) (0, 0, 0.00000000000000000000e+00) (0, 0, 0.00000000000000000000e+00) (0, 0, 0.00000000000000000000e+00) (0, 0, 0.00000000000000000000e+00) (0, 0, 0.00000000000000000000e+00) (0, 0, 0.00000000000000000000e+00) (0, 0, 0.00000000000000000000e+00) (0, 0, 0.00000000000000000000e+00) (0, 0, 0.00000000000000000000e+00) (0, 0, 0.00000000000000000000e+00) (0, 0, 0.00000000000000000000e+00) (0, 0, 0.00000000000000000000e+00) (0, 0, 0.00000000000000000000e+00) (0, 0, 0.00000000000000000000e+00) (0, 0, 0.00000000000000000000e+00) (0, 0, 0.00000000000000000000e+00) (0, 0, 0.00000000000000000000e+00) (0, 0, 0.00000000000000000000e+00) (0, 0, 0.00000000000000000000e+00) (0, 0, 0.00000000000000000000e+00) (0, 0, 0.00000000000000000000e+00) (0, 0, 0.00000000000000000000e+00) (0, 0, 0.00000000000000000000e+00) (0, 0, 0.00000000000000000000e+00) (0, 0, 0.00000000000000000000e+00) (0, 0, 0.00000000000000000000e+00) (0, 0, 0.00000000000000000000e+00) (0, 0, 0.00000000000000000000e+00) (0, 0, 0.00000000000000000000e+00) (0, 0, 0.00000000000000000000e+00) (0, 0, 0.00000000000000000000e+00) (0, 0, 0.00000000000000000000e+00) (0, 0, 0.00000000000000000000e+00) (0, 0, 0.00000000000000000000e+00) (0, 0, 0.00000000000000000000e+00) (0, 0, 0.00000000000000000000e+00) (0, 0, 0.00000000000000000000e+00) (0, 0, 0.00000000000000000000e+00) (0, 0, 0.00000000000000000000e+00) (0, 0, 0.00000000000000000000e+00) (0, 0, 0.00000000000000000000e+00) (0, 0, 0.00000000000000000000e+00) (0, 0, 0.00000000000000000000e+00) (0, 0, 0.00000000000000000000e+00) (0, 0, 0.00000000000000000000e+00) (0, 0, 0.00000000000000000000e+00) (0, 0, 0.00000000000000000000e+00) (0, 0, 0.00000000000000000000e+00) (0, 0, 0.00000000000000000000e+00) (0, 0, 0.00000000000000000000e+00) (0, 0, 0.00000000000000000000e+00) (0, 0, 0.00000000000000000000e+00) (0, 0, 0.00000000000000000000e+00) (0, 0, 0.00000000000000000000e+00) (0, 0, 0.00000000000000000000e+00) (0, 0, 0.00000000000000000000e+00) (0, 0, 0.00000000000000000000e+00) (0, 0, 0.00000000000000000000e+00) (0, 0, 0.00000000000000000000e+00) (0, 0, 0.00000000000000000000e+00) (0, 0, 0.00000000000000000000e+00) (0, 0, 0.00000000000000000000e+00) (0, 0, 0.00000000000000000000e+00) (0, 0, 0.00000000000000000000e+00) (0, 0, 0.00000000000000000000e+00) (0, 0, 0.00000000000000000000e+00) (0, 0, 0.00000000000000000000e+00) (0, 0, 0.00000000000000000000e+00) (0, 0, 0.00000000000000000000e+00) (0, 0, 0.00000000000000000000e+00) (0, 0, 0.00000000000000000000e+00) (0, 0, 0.00000000000000000000e+00) (0, 0, 0.00000000000000000000e+00) (0, 0, 0.00000000000000000000e+00) (0, 0, 0.00000000000000000000e+00) (0, 0, 0.00000000000000000000e+00) (0, 0, 0.00000000000000000000e+00) (0, 0, 0.00000000000000000000e+00) (0, 0, 0.00000000000000000000e+00) (0, 0, 0.00000000000000000000e+00) (0, 0, 0.00000000000000000000e+00) (0, 0, 0.00000000000000000000e+00) (0, 0, 0.00000000000000000000e+00) (0, 0, 0.00000000000000000000e+00) (0, 0, 0.00000000000000000000e+00) (0, 0, 0.00000000000000000000e+00) (0, 0, 0.00000000000000000000e+00) (0, 0, 0.00000000000000000000e+00) (0, 0, 0.00000000000000000000e+00) (0, 0, 0.00000000000000000000e+00) (0, 0, 0.00000000000000000000e+00) (0, 0, 0.00000000000000000000e+00) (0, 0, 0.00000000000000000000e+00) (0, 0, 0.00000000000000000000e+00) (0, 0, 0.00000000000000000000e+00) (0, 0, 0.00000000000000000000e+00) (0, 0, 0.00000000000000000000e+00) (0, 0, 0.00000000000000000000e+00) (0, 0, 0.00000000000000000000e+00) (0, 0, 0.00000000000000000000e+00) (0, 0, 0.00000000000000000000e+00) (0, 0, 0.00000000000000000000e+00) (0, 0, 0.00000000000000000000e+00) (0, 0, 0.00000000000000000000e+00) (0, 0, 0.00000000000000000000e+00) (0, 0, 0.00000000000000000000e+00) (0, 0, 0.00000000000000000000e+00) (0, 0, 0.00000000000000000000e+00) (0, 0, 0.00000000000000000000e+00) (0, 0, 0.00000000000000000000e+00) (0, 0, 0.00000000000000000000e+00) (0, 0, 0.00000000000000000000e+00) (0, 0, 0.00000000000000000000e+00) (0, 0, 0.00000000000000000000e+00) (0, 0, 0.00000000000000000000e+00) (0, 0, 0.00000000000000000000e+00) (0, 0, 0.00000000000000000000e+00) (0, 0, 0.00000000000000000000e+00) (0, 0, 0.00000000000000000000e+00) (0, 0, 0.00000000000000000000e+00) (0, 0, 0.00000000000000000000e+00) (0, 0, 0.00000000000000000000e+00) (0, 0, 0.00000000000000000000e+00) (0, 0, 0.00000000000000000000e+00) (0, 0, 0.00000000000000000000e+00) (0, 0, 0.00000000000000000000e+00) (0, 0, 0.00000000000000000000e+00) (0, 0, 0.00000000000000000000e+00) (0, 0, 0.00000000000000000000e+00) (0, 0, 0.00000000000000000000e+00) (0, 0, 0.00000000000000000000e+00) (0, 0, 0.00000000000000000000e+00) (0, 0, 0.00000000000000000000e+00) (0, 0, 0.00000000000000000000e+00) (0, 0, 0.00000000000000000000e+00) (0, 0, 0.00000000000000000000e+00) (0, 0, 0.00000000000000000000e+00) (0, 0, 0.00000000000000000000e+00) (0, 0, 0.00000000000000000000e+00) (0, 0, 0.00000000000000000000e+00) (0, 0, 0.00000000000000000000e+00) (0, 0, 0.00000000000000000000e+00) (0, 0, 0.00000000000000000000e+00) (0, 0, 0.00000000000000000000e+00) (0, 0, 0.00000000000000000000e+00) (0, 0, 0.00000000000000000000e+00) (0, 0, 0.00000000000000000000e+00) (0, 0, 0.00000000000000000000e+00) (0, 0, 0.00000000000000000000e+00) (0, 0, 0.00000000000000000000e+00) (0, 0, 0.00000000000000000000e+00) (0, 0, 0.00000000000000000000e+00) (0, 0, 0.00000000000000000000e+00) (0, 0, 0.00000000000000000000e+00) (0, 0, 0.00000000000000000000e+00) (0, 0, 0.00000000000000000000e+00) (0, 0, 0.00000000000000000000e+00) (0, 0, 0.00000000000000000000e+00) (0, 0, 0.00000000000000000000e+00) (0, 0, 0.00000000000000000000e+00) (0, 0, 0.00000000000000000000e+00) (0, 0, 0.00000000000000000000e+00) (0, 0, 0.00000000000000000000e+00) (0, 0, 0.00000000000000000000e+00) (0, 0, 0.00000000000000000000e+00) (0, 0, 0.00000000000000000000e+00) (0, 0, 0.00000000000000000000e+00) (0, 0, 0.00000000000000000000e+00) (0, 0, 0.00000000000000000000e+00) (0, 0, 0.00000000000000000000e+00) (0, 0, 0.00000000000000000000e+00) (0, 0, 0.00000000000000000000e+00) (0, 0, 0.00000000000000000000e+00) (0, 0, 0.00000000000000000000e+00) (0, 0, 0.00000000000000000000e+00) (0, 0, 0.00000000000000000000e+00) (0, 0, 0.00000000000000000000e+00) (0, 0, 0.00000000000000000000e+00) (0, 0, 0.00000000000000000000e+00) (0, 0, 0.00000000000000000000e+00) (0, 0, 0.00000000000000000000e+00) (0, 0, 0.00000000000000000000e+00) (0, 0, 0.00000000000000000000e+00) (0, 0, 0.00000000000000000000e+00) (0, 0, 0.00000000000000000000e+00) (0, 0, 0.00000000000000000000e+00) (0, 0, 0.00000000000000000000e+00) (0, 0, 0.00000000000000000000e+00) (0, 0, 0.00000000000000000000e+00) (0, 0, 0.00000000000000000000e+00) (0, 0, 0.00000000000000000000e+00) (0, 0, 0.00000000000000000000e+00) (0, 0, 0.00000000000000000000e+00) (0, 0, 0.00000000000000000000e+00) (0, 0, 0.00000000000000000000e+00) (0, 0, 0.00000000000000000000e+00) (0, 0, 0.00000000000000000000e+00) (0, 0, 0.00000000000000000000e+00) (0, 0, 0.00000000000000000000e+00) (0, 0, 0.00000000000000000000e+00) (0, 0, 0.00000000000000000000e+00) (0, 0, 0.00000000000000000000e+00) (0, 0, 0.00000000000000000000e+00) (0, 0, 0.00000000000000000000e+00) (0, 0, 0.00000000000000000000e+00) (0, 0, 0.00000000000000000000e+00) (0, 0, 0.00000000000000000000e+00) (0, 0, 0.00000000000000000000e+00) (0, 0, 0.00000000000000000000e+00) (0, 0, 0.00000000000000000000e+00) (0, 0, 0.00000000000000000000e+00) (0, 0, 0.00000000000000000000e+00) (0, 0, 0.00000000000000000000e+00) (0, 0, 0.00000000000000000000e+00) (0, 0, 0.00000000000000000000e+00) (0, 0, 0.00000000000000000000e+00) (0, 0, 0.00000000000000000000e+00) (0, 0, 0.00000000000000000000e+00) (0, 0, 0.00000000000000000000e+00) (0, 0, 0.00000000000000000000e+00) (0, 0, 0.00000000000000000000e+00) (0, 0, 0.00000000000000000000e+00) (0, 0, 0.00000000000000000000e+00) (0, 0, 0.00000000000000000000e+00) (0, 0, 0.00000000000000000000e+00) (0, 0, 0.00000000000000000000e+00) (0, 0, 0.00000000000000000000e+00) (0, 0, 0.00000000000000000000e+00) (0, 0, 0.00000000000000000000e+00) (0, 0, 0.00000000000000000000e+00) (0, 0, 0.00000000000000000000e+00) (0, 0, 0.00000000000000000000e+00) (0, 0, 0.00000000000000000000e+00) (0, 0, 0.00000000000000000000e+00) (0, 0, 0.00000000000000000000e+00) (0, 0, 0.00000000000000000000e+00) (0, 0, 0.00000000000000000000e+00) (0, 0, 0.00000000000000000000e+00) (0, 0, 0.00000000000000000000e+00) (0, 0, 0.00000000000000000000e+00) (0, 0, 0.00000000000000000000e+00) (0, 0, 0.00000000000000000000e+00) (0, 0, 0.00000000000000000000e+00) (0, 0, 0.00000000000000000000e+00) (0, 0, 0.00000000000000000000e+00) (0, 0, 0.00000000000000000000e+00) (0, 0, 0.00000000000000000000e+00) (0, 0, 0.00000000000000000000e+00) (0, 0, 0.00000000000000000000e+00) (0, 0, 0.00000000000000000000e+00) (0, 0, 0.00000000000000000000e+00) (0, 0, 0.00000000000000000000e+00) (0, 0, 0.00000000000000000000e+00) (0, 0, 0.00000000000000000000e+00) (0, 0, 0.00000000000000000000e+00) (0, 0, 0.00000000000000000000e+00) (0, 0, 0.00000000000000000000e+00) (0, 0, 0.00000000000000000000e+00) (0, 0, 0.00000000000000000000e+00) (0, 0, 0.00000000000000000000e+00) (0, 0, 0.00000000000000000000e+00) (0, 0, 0.00000000000000000000e+00) (0, 0, 0.00000000000000000000e+00) (1025, 5, 5.00000000000000000000e-01) (1025, 5, 5.00000000000000000000e-01) (1025, 5, 5.00000000000000000000e-01) (1025, 5, 5.00000000000000000000e-01) (1025, 5, 5.00000000000000000000e-01) (1025, 5, 5.00000000000000000000e-01) (1025, 5, 5.00000000000000000000e-01) (1025, 5, 5.00000000000000000000e-01) (1025, 5, 5.00000000000000000000e-01) (1025, 5, 5.00000000000000000000e-01) (0, 5, 0.00000000000000000000e+00) (11, 5, 5.00000000000000000000e-01) (0, 5, 0.00000000000000000000e+00) 
connections (connected_to_neuron, weight)=(0, 3.21793518960475921631e-02) (1, 8.81382972002029418945e-02) (2, -1.42735149711370468140e-02) (3, 2.78421007096767425537e-02) (4, 9.36681404709815979004e-03) (5, -1.62778999656438827515e-02) (6, -2.36939098685979843140e-02) (7, -1.54769327491521835327e-02) (8, 1.43656387925148010254e-01) (9, 8.42714458703994750977e-02) (10, 6.70129805803298950195e-02) (11, 9.16779786348342895508e-02) (12, 1.12591877579689025879e-01) (13, 1.07420101761817932129e-01) (14, -2.40958239883184432983e-02) (15, 9.73467379808425903320e-02) (16, -5.66359609365463256836e-04) (17, 3.46558652818202972412e-02) (18, 1.59031495451927185059e-01) (19, 4.20709364116191864014e-02) (20, -3.14851328730583190918e-02) (21, 1.48540213704109191895e-01) (22, -2.49433424323797225952e-02) (23, 3.41623984277248382568e-02) (24, 6.09417669475078582764e-02) (25, 1.26949265599250793457e-01) (26, 1.49317935109138488770e-01) (27, -2.12616130709648132324e-01) (28, -3.26611965894699096680e-01) (29, -2.57188767194747924805e-01) (30, -7.20712661743164062500e-01) (31, -7.39307999610900878906e-01) (32, -2.25469972938299179077e-02) (33, 8.98390561342239379883e-02) (34, 1.13359227776527404785e-01) (35, 1.20443113148212432861e-01) (36, 1.07007458806037902832e-01) (37, 1.23111620545387268066e-01) (38, 3.82354967296123504639e-02) (39, 8.41101557016372680664e-02) (40, 4.08293716609477996826e-02) (41, 1.38694718480110168457e-01) (42, 9.23437252640724182129e-03) (43, -1.31325032562017440796e-02) (44, 7.95611292123794555664e-02) (45, 1.18761874735355377197e-01) (46, 2.17837601900100708008e-01) (47, 2.12618067860603332520e-01) (48, 1.86864063143730163574e-01) (49, 2.10315376520156860352e-01) (50, -1.20416823774576187134e-02) (51, 8.86482149362564086914e-02) (52, 9.21248346567153930664e-02) (53, -3.53878177702426910400e-03) (54, 1.56256929039955139160e-01) (55, -1.34870912879705429077e-02) (56, 1.56856819987297058105e-01) (57, 1.39021173119544982910e-01) (58, 1.20400205254554748535e-01) (59, -2.32517030090093612671e-02) (60, -2.84721285104751586914e-01) (61, -2.88544446229934692383e-01) (62, -2.50791728496551513672e-01) (63, 3.92351262271404266357e-02) (64, -4.50361259281635284424e-02) (65, -1.83763265609741210938e-01) (66, -9.98866632580757141113e-02) (67, 8.82518440485000610352e-02) (68, 1.65628895163536071777e-01) (69, 1.64629325270652770996e-01) (70, 5.80823794007301330566e-03) (71, 3.99045459926128387451e-02) (72, 1.36770322918891906738e-01) (73, 4.84889261424541473389e-02) (74, 6.02183453738689422607e-02) (75, 4.97777573764324188232e-02) (76, 1.00520089268684387207e-01) (77, 1.13251768052577972412e-02) (78, -4.33492101728916168213e-03) (79, 2.06534229218959808350e-02) (80, 1.54909864068031311035e-01) (81, 1.70696340501308441162e-02) (82, 1.42747893929481506348e-01) (83, 8.04810076951980590820e-02) (84, 4.69772331416606903076e-02) (85, 1.32451131939888000488e-01) (86, 1.00440219044685363770e-01) (87, 3.72803322970867156982e-02) (88, 1.04918614029884338379e-01) (89, 5.42866699397563934326e-02) (90, -1.45359337329864501953e-01) (91, -3.46356421709060668945e-01) (92, -6.79133176803588867188e-01) (93, -6.48192286491394042969e-01) (94, -1.53452038764953613281e-01) (95, 1.93667128682136535645e-01) (96, -1.42961647361516952515e-02) (97, 1.65776029229164123535e-01) (98, 1.51882134377956390381e-02) (99, -1.52209904044866561890e-02) (100, 1.63851633667945861816e-01) (101, 5.44427745044231414795e-02) (102, 5.81298582255840301514e-02) (103, 1.34068265557289123535e-01) (104, 1.36378005146980285645e-01) (105, 1.51794508099555969238e-01) (106, 1.72922573983669281006e-02) (107, 7.03444033861160278320e-02) (108, -1.96268185973167419434e-01) (109, 4.64036576449871063232e-02) (110, -6.83900788426399230957e-02) (111, -1.50778200477361679077e-02) (112, 9.69196707010269165039e-02) (113, -9.21958759427070617676e-02) (114, -6.86974525451660156250e-02) (115, -1.90203800797462463379e-01) (116, -1.01011127233505249023e-01) (117, -1.34810894727706909180e-01) (118, -1.19477182626724243164e-01) (119, -1.62646189332008361816e-01) (120, -7.23652318120002746582e-02) (121, -3.85559722781181335449e-02) (122, -1.87786519527435302734e-01) (123, -1.26673221588134765625e-01) (124, -6.85755014419555664062e-01) (125, -8.96707475185394287109e-02) (126, -6.90256990492343902588e-03) (127, 7.44095444679260253906e-01) (128, 7.70985037088394165039e-02) (129, 4.17319647967815399170e-02) (130, 1.42999306321144104004e-01) (131, 7.43963867425918579102e-02) (132, 1.29621043801307678223e-01) (133, 3.45754586160182952881e-02) (134, 4.19109575450420379639e-02) (135, -2.13611826300621032715e-01) (136, -7.71562576293945312500e-01) (137, -6.98729395866394042969e-01) (138, -7.88142800331115722656e-01) (139, -7.41550207138061523438e-01) (140, -8.18879365921020507812e-01) (141, -6.30252480506896972656e-01) (142, -7.23181724548339843750e-01) (143, -6.88513398170471191406e-01) (144, -1.23512768745422363281e+00) (145, -1.32984590530395507812e+00) (146, -6.77724003791809082031e-01) (147, -7.96185731887817382812e-01) (148, -7.24703669548034667969e-01) (149, -7.96207904815673828125e-01) (150, -7.57838726043701171875e-01) (151, -7.70788431167602539062e-01) (152, -6.33770704269409179688e-01) (153, -7.19344735145568847656e-01) (154, -6.71181082725524902344e-01) (155, -7.08686709403991699219e-02) (156, -1.66434552520513534546e-02) (157, 1.46741524338722229004e-01) (158, 6.74220025539398193359e-01) (159, 7.13222801685333251953e-01) (160, 2.19197236001491546631e-02) (161, 3.13441716134548187256e-02) (162, 1.74403563141822814941e-03) (163, -1.50129701942205429077e-02) (164, 9.93659645318984985352e-02) (165, 7.71012455224990844727e-02) (166, -6.73500180244445800781e-01) (167, -2.55267286300659179688e+00) (168, -9.97094917297363281250e+00) (169, -9.81958580017089843750e+00) (170, -9.93824386596679687500e+00) (171, -9.96500396728515625000e+00) (172, -9.82501220703125000000e+00) (173, -6.38200187683105468750e+00) (174, -6.37409400939941406250e+00) (175, -9.89635658264160156250e+00) (176, -3.93323135375976562500e+00) (177, -9.88159179687500000000e+00) (178, -6.41311740875244140625e+00) (179, -1.59050977230072021484e+00) (180, -6.70205831527709960938e-01) (181, -8.17961931228637695312e-01) (182, 1.25644341111183166504e-01) (183, 1.12227514386177062988e-01) (184, 7.88973122835159301758e-02) (185, 1.79465472698211669922e-01) (186, 4.27120119333267211914e-01) (187, 4.80468273162841796875e-01) (188, 4.44244295358657836914e-01) (189, 7.50018417835235595703e-01) (190, 6.42369270324707031250e-01) (191, 4.17336177825927734375e+00) (192, -4.51254285871982574463e-03) (193, 5.82381598651409149170e-02) (194, 1.33275642991065979004e-01) (195, 2.28476792573928833008e-01) (196, -3.12142875045537948608e-02) (197, -2.62070083618164062500e+00) (198, -9.85977172851562500000e+00) (199, -3.89928817749023437500e+00) (200, -3.83210945129394531250e+00) (201, -3.92099285125732421875e+00) (202, -3.85669898986816406250e+00) (203, -3.84952926635742187500e+00) (204, -3.74999952316284179688e+00) (205, -9.94722747802734375000e+00) (206, -9.80772209167480468750e+00) (207, -9.81449699401855468750e+00) (208, -9.82122611999511718750e+00) (209, -9.86784362792968750000e+00) (210, -9.90944290161132812500e+00) (211, -8.64946603775024414062e-01) (212, 2.13342517614364624023e-01) (213, 4.08562570810317993164e-01) (214, 4.37982439994812011719e-01) (215, 4.10277158021926879883e-01) (216, 1.79575598239898681641e+00) (217, 4.18753242492675781250e+00) (218, 4.21317481994628906250e+00) (219, 4.08797073364257812500e+00) (220, 4.15167522430419921875e+00) (221, 4.06966876983642578125e+00) (222, 4.03625965118408203125e+00) (223, 4.18060874938964843750e+00) (224, 1.02834179997444152832e-01) (225, 1.44462481141090393066e-01) (226, 8.38359147310256958008e-02) (227, -2.07990929484367370605e-01) (228, -4.08220767974853515625e+00) (229, -3.87306022644042968750e+00) (230, -3.76077556610107421875e+00) (231, -3.93615341186523437500e+00) (232, -6.13356256484985351562e+00) (233, -6.15698385238647460938e+00) (234, -6.12519216537475585938e+00) (235, -6.14539861679077148438e+00) (236, -9.88837432861328125000e+00) (237, -9.91707801818847656250e+00) (238, -4.11462926864624023438e+00) (239, -1.25819969177246093750e+00) (240, -1.76818072795867919922e+00) (241, -8.44249248504638671875e-01) (242, 1.31260715425014495850e-02) (243, 7.62751460075378417969e-01) (244, 1.64470565319061279297e+00) (245, 4.15830612182617187500e+00) (246, 4.06090450286865234375e+00) (247, 4.21397399902343750000e+00) (248, 4.12076473236083984375e+00) (249, 4.04900646209716796875e+00) (250, 4.07687187194824218750e+00) (251, 4.04736709594726562500e+00) (252, 4.09360218048095703125e+00) (253, 4.08805847167968750000e+00) (254, 4.20290374755859375000e+00) (255, 4.02988338470458984375e+00) (256, 7.44820013642311096191e-03) (257, 6.16666786372661590576e-02) (258, -2.03180834650993347168e-01) (259, -4.04131317138671875000e+00) (260, -3.77794742584228515625e+00) (261, -3.81745290756225585938e+00) (262, -6.07697629928588867188e+00) (263, -6.17334604263305664062e+00) (264, -6.27627325057983398438e+00) (265, -5.20585477352142333984e-01) (266, -4.75854396820068359375e-01) (267, -1.26500439643859863281e+00) (268, -1.77863806486129760742e-01) (269, 7.73353427648544311523e-02) (270, -2.93517887592315673828e-01) (271, 4.68592345714569091797e-03) (272, -1.59737795591354370117e-01) (273, -2.46945455670356750488e-01) (274, -1.70723050832748413086e-01) (275, 9.81808543205261230469e-01) (276, 3.85278761386871337891e-01) (277, 7.48867869377136230469e-01) (278, 4.17104530334472656250e+00) (279, 4.10493659973144531250e+00) (280, 4.21199893951416015625e+00) (281, 4.22284412384033203125e+00) (282, 4.12723159790039062500e+00) (283, 4.08052921295166015625e+00) (284, 4.08582973480224609375e+00) (285, 4.10506248474121093750e+00) (286, 4.08533954620361328125e+00) (287, 4.12672424316406250000e+00) (288, 1.41655817627906799316e-01) (289, -2.98575665801763534546e-02) (290, -1.75994384288787841797e+00) (291, -3.80284500122070312500e+00) (292, -3.81386423110961914062e+00) (293, -6.03847455978393554688e+00) (294, -1.52961997985839843750e+01) (295, 3.98838967084884643555e-01) (296, 4.03193855285644531250e+00) (297, 6.76611304283142089844e-01) (298, -2.95241296291351318359e-01) (299, -1.14361357688903808594e+00) (300, -3.18588685989379882812e+00) (301, -3.24607586860656738281e+00) (302, -3.17591381072998046875e+00) (303, -1.35844087600708007812e+00) (304, -3.19513750076293945312e+00) (305, -3.24875283241271972656e+00) (306, -3.09066915512084960938e+00) (307, -3.21096563339233398438e+00) (308, -3.08576011657714843750e+00) (309, -1.16211152076721191406e+00) (310, -2.36157998442649841309e-02) (311, 7.40126132965087890625e-01) (312, 1.73193967342376708984e+00) (313, 4.04921436309814453125e+00) (314, 4.95920181274414062500e+00) (315, 5.11641120910644531250e+00) (316, 6.90005719661712646484e-01) (317, 6.55848264694213867188e-01) (318, 6.54442548751831054688e-01) (319, 1.70501315593719482422e+00) (320, 4.01155464351177215576e-02) (321, -7.17756271362304687500e-01) (322, -9.99304199218750000000e+00) (323, -3.74030256271362304688e+00) (324, -6.13140583038330078125e+00) (325, -6.02347707748413085938e+00) (326, 6.87598228454589843750e-01) (327, 4.11636924743652343750e+00) (328, 6.68970525264739990234e-01) (329, -4.12329658865928649902e-02) (330, -3.23490214347839355469e+00) (331, -1.30526983737945556641e+00) (332, -2.38737249374389648438e+00) (333, -3.84280967712402343750e+00) (334, -6.39735698699951171875e+00) (335, -1.62912285327911376953e+00) (336, -6.45330905914306640625e+00) (337, -6.43494129180908203125e+00) (338, -4.03791046142578125000e+00) (339, -1.38855302333831787109e+00) (340, -1.42912137508392333984e+00) (341, -1.32213866710662841797e+00) (342, -1.43430197238922119141e+00) (343, -9.91184115409851074219e-01) (344, -1.11293339729309082031e+00) (345, 6.16843402385711669922e-01) (346, 4.12458992004394531250e+00) (347, 5.01119136810302734375e+00) (348, 4.12601470947265625000e+00) (349, 4.19315719604492187500e+00) (350, 7.26804554462432861328e-01) (351, 7.60378360748291015625e-01) (352, 4.17071692645549774170e-02) (353, -8.50453257560729980469e-01) (354, -3.76579904556274414062e+00) (355, -6.05625247955322265625e+00) (356, -6.06799650192260742188e+00) (357, 4.25409108400344848633e-01) (358, 4.07595348358154296875e+00) (359, 1.65671527385711669922e+00) (360, 3.79560351371765136719e-01) (361, -3.00632864236831665039e-02) (362, -3.07185649871826171875e+00) (363, -3.84833526611328125000e+00) (364, -3.77374649047851562500e+00) (365, -3.80129718780517578125e+00) (366, -6.49384403228759765625e+00) (367, -7.60722517967224121094e-01) (368, -6.49807453155517578125e+00) (369, -9.93700027465820312500e+00) (370, -3.80705070495605468750e+00) (371, -1.37420141696929931641e+00) (372, -1.45154678821563720703e+00) (373, -1.30318892002105712891e+00) (374, -3.92420053482055664062e+00) (375, -1.29398024082183837891e+00) (376, -1.27222073078155517578e+00) (377, -1.84227958321571350098e-01) (378, -1.22319184243679046631e-01) (379, 2.85390973091125488281e-01) (380, 6.67439877986907958984e-01) (381, 4.18928241729736328125e+00) (382, 4.08386039733886718750e+00) (383, 4.18179130554199218750e+00) (384, 8.62429887056350708008e-02) (385, -4.14701223373413085938e+00) (386, -6.09953403472900390625e+00) (387, -6.14830732345581054688e+00) (388, -3.16092312335968017578e-01) (389, 4.19225597381591796875e+00) (390, 4.12353706359863281250e+00) (391, 6.69567108154296875000e-01) (392, 8.60983014106750488281e-01) (393, -1.28409314155578613281e+00) (394, -3.07956457138061523438e+00) (395, -3.93750047683715820312e+00) (396, -3.92160511016845703125e+00) (397, -3.90549278259277343750e+00) (398, -1.29901981353759765625e+00) (399, -1.29230690002441406250e+00) (400, -3.94608950614929199219e+00) (401, -9.81171417236328125000e+00) (402, -3.78532314300537109375e+00) (403, -3.83088397979736328125e+00) (404, -1.30731046199798583984e+00) (405, -3.77135992050170898438e+00) (406, -3.86930131912231445312e+00) (407, -3.80656814575195312500e+00) (408, -3.85788011550903320312e+00) (409, -1.36342132091522216797e+00) (410, -1.43968427181243896484e+00) (411, -1.29371488094329833984e+00) (412, -1.39921224117279052734e+00) (413, -1.19583344459533691406e+00) (414, 1.94398015737533569336e-02) (415, -3.56397181749343872070e-01) (416, 7.23713189363479614258e-02) (417, -9.97272491455078125000e+00) (418, -6.17226696014404296875e+00) (419, -6.44477987289428710938e+00) (420, 3.53373050689697265625e-01) (421, 4.16710567474365234375e+00) (422, 4.11982154846191406250e+00) (423, 6.24172329902648925781e-01) (424, 8.46461772918701171875e-01) (425, -4.64169085025787353516e-01) (426, -1.41660320758819580078e+00) (427, -3.89988040924072265625e+00) (428, -3.83722448348999023438e+00) (429, -3.83443784713745117188e+00) (430, -1.88122719526290893555e-01) (431, -1.35958337783813476562e+00) (432, -3.94974827766418457031e+00) (433, -9.94499206542968750000e+00) (434, -3.82668209075927734375e+00) (435, -3.89030694961547851562e+00) (436, -3.90875864028930664062e+00) (437, -3.75781965255737304688e+00) (438, -3.75871133804321289062e+00) (439, -3.82847499847412109375e+00) (440, -3.86567783355712890625e+00) (441, -3.74283218383789062500e+00) (442, -2.14189529418945312500e+00) (443, -3.80932664871215820312e+00) (444, -6.14583873748779296875e+00) (445, -3.74806022644042968750e+00) (446, -1.35068619251251220703e+00) (447, -2.32293224334716796875e+00) (448, -3.21531444787979125977e-01) (449, -9.85914611816406250000e+00) (450, -6.02896499633789062500e+00) (451, -6.87828719615936279297e-01) (452, 1.83295607566833496094e-01) (453, 2.43111872673034667969e+00) (454, 4.09039306640625000000e+00) (455, 6.98078870773315429688e-01) (456, 3.50995123386383056641e-01) (457, -7.20544576644897460938e-01) (458, -6.40250778198242187500e+00) (459, -3.88733673095703125000e+00) (460, -3.93015718460083007812e+00) (461, -2.43849945068359375000e+00) (462, -3.19805622100830078125e+00) (463, -3.14547443389892578125e+00) (464, -3.92650246620178222656e+00) (465, -3.77165365219116210938e+00) (466, -3.78269624710083007812e+00) (467, -3.78590869903564453125e+00) (468, -3.79130983352661132812e+00) (469, -3.80324411392211914062e+00) (470, -3.87622022628784179688e+00) (471, -3.91882419586181640625e+00) (472, -3.80791330337524414062e+00) (473, -3.80468368530273437500e+00) (474, -3.78998708724975585938e+00) (475, -3.93791580200195312500e+00) (476, -6.09225273132324218750e+00) (477, -6.16278314590454101562e+00) (478, -3.76210069656372070312e+00) (479, -3.78960800170898437500e+00) (480, -3.45003932714462280273e-01) (481, -9.84465980529785156250e+00) (482, -6.04025745391845703125e+00) (483, -5.65589107573032379150e-02) (484, 1.37370467185974121094e-01) (485, 4.06597232818603515625e+00) (486, 1.62996256351470947266e+00) (487, 7.80317068099975585938e-01) (488, 1.11733451485633850098e-01) (489, -6.70156240463256835938e-01) (490, -6.50772571563720703125e+00) (491, -3.78497743606567382812e+00) (492, -3.92324686050415039062e+00) (493, -1.35526573657989501953e+00) (494, -3.98855614662170410156e+00) (495, -3.11531829833984375000e+00) (496, -9.94078636169433593750e+00) (497, -9.99132919311523437500e+00) (498, -3.84814262390136718750e+00) (499, -3.92450237274169921875e+00) (500, -3.78698110580444335938e+00) (501, -3.78619909286499023438e+00) (502, -3.90516281127929687500e+00) (503, -6.47156143188476562500e+00) (504, -3.85271930694580078125e+00) (505, -3.75698661804199218750e+00) (506, -3.85648298263549804688e+00) (507, -3.92913627624511718750e+00) (508, -3.90393352508544921875e+00) (509, -6.15809297561645507812e+00) (510, -3.78058099746704101562e+00) (511, -3.90243387222290039062e+00) (512, -1.27687361091375350952e-02) (513, -9.87443161010742187500e+00) (514, -6.08812808990478515625e+00) (515, 1.58048003911972045898e-01) (516, 1.10168504714965820312e+00) (517, 4.15696334838867187500e+00) (518, 1.68545377254486083984e+00) (519, 7.05115258693695068359e-01) (520, 5.31129948794841766357e-02) (521, -7.19882965087890625000e-01) (522, -2.66632175445556640625e+00) (523, -3.83668756484985351562e+00) (524, -1.00023536682128906250e+01) (525, -6.41977214813232421875e+00) (526, -1.65632092952728271484e+00) (527, -4.10611629486083984375e+00) (528, -4.02867794036865234375e+00) (529, -4.04889965057373046875e+00) (530, -3.85245466232299804688e+00) (531, -3.83749532699584960938e+00) (532, -3.85693550109863281250e+00) (533, -3.81945419311523437500e+00) (534, -2.31664633750915527344e+00) (535, -3.08641290664672851562e+00) (536, -3.94946599006652832031e+00) (537, -3.87438201904296875000e+00) (538, -2.32304811477661132812e+00) (539, -1.32144677639007568359e+00) (540, -3.81663846969604492188e+00) (541, -6.08255434036254882812e+00) (542, -3.76831722259521484375e+00) (543, -3.79596090316772460938e+00) (544, 3.29966507852077484131e-02) (545, -4.08060932159423828125e+00) (546, -1.54665737152099609375e+01) (547, 1.33319914340972900391e-01) (548, 3.24421525001525878906e-01) (549, 4.09218025207519531250e+00) (550, 7.45618581771850585938e-01) (551, 3.17110955715179443359e-01) (552, 1.38602986931800842285e-01) (553, -7.92655706405639648438e-01) (554, -9.99011230468750000000e+00) (555, -3.76087427139282226562e+00) (556, -9.84220123291015625000e+00) (557, -9.95087051391601562500e+00) (558, -4.12882709503173828125e+00) (559, -1.88260519504547119141e+00) (560, -1.06984567642211914062e+00) (561, -4.04311800003051757812e+00) (562, -9.99204826354980468750e+00) (563, -9.94037818908691406250e+00) (564, -9.95383834838867187500e+00) (565, -3.74051666259765625000e+00) (566, -6.51910877227783203125e+00) (567, -1.21014428138732910156e+00) (568, -1.30235695838928222656e+00) (569, -9.99800682067871093750e+00) (570, -3.96159482002258300781e+00) (571, -1.27261006832122802734e+00) (572, -3.79529619216918945312e+00) (573, -6.15823268890380859375e+00) (574, -3.81300783157348632812e+00) (575, -3.92885351181030273438e+00) (576, 2.21888333559036254883e-01) (577, -2.88741707801818847656e-01) (578, -6.40602302551269531250e+00) (579, 2.77418822050094604492e-01) (580, 4.94673401117324829102e-01) (581, 5.95432043075561523438e-01) (582, 6.86481237411499023438e-01) (583, 1.38299480080604553223e-01) (584, 8.28010216355323791504e-03) (585, -7.06739068031311035156e-01) (586, -9.85855865478515625000e+00) (587, -3.93104505538940429688e+00) (588, -3.76335430145263671875e+00) (589, -9.80922126770019531250e+00) (590, -8.83937716484069824219e-01) (591, 1.27349093556404113770e-01) (592, 4.36257682740688323975e-02) (593, -8.68391990661621093750e-01) (594, -4.15015363693237304688e+00) (595, -6.37653589248657226562e-01) (596, -3.11789655685424804688e+00) (597, -9.94569778442382812500e+00) (598, -4.15545654296875000000e+00) (599, -6.28208756446838378906e-01) (600, -7.53343701362609863281e-01) (601, -1.33521533012390136719e+00) (602, -3.86978268623352050781e+00) (603, -1.44121444225311279297e+00) (604, -3.85199022293090820312e+00) (605, -6.11111116409301757812e+00) (606, -3.91450452804565429688e+00) (607, -4.00802135467529296875e+00) (608, 1.04045145213603973389e-01) (609, 3.68449419736862182617e-01) (610, -1.34431397914886474609e+00) (611, 1.29827529191970825195e-01) (612, 3.78006368875503540039e-01) (613, 7.12414383888244628906e-01) (614, 3.60078424215316772461e-01) (615, 9.13095623254776000977e-02) (616, -2.05132201313972473145e-01) (617, -8.48141908645629882812e-01) (618, -9.87571907043457031250e+00) (619, -3.91872930526733398438e+00) (620, -3.78200006484985351562e+00) (621, -3.88429355621337890625e+00) (622, -8.25703859329223632812e-01) (623, 5.61337582767009735107e-02) (624, 1.57965168356895446777e-01) (625, -9.97694134712219238281e-01) (626, -9.29181933403015136719e-01) (627, -6.98225498199462890625e-01) (628, -3.18294954299926757812e+00) (629, -9.99002838134765625000e+00) (630, -6.42977905273437500000e+00) (631, -6.83208227157592773438e-01) (632, -1.31765103340148925781e+00) (633, -7.22039580345153808594e-01) (634, -6.68859481811523437500e-01) (635, -6.92517757415771484375e-01) (636, -1.00000820159912109375e+01) (637, -9.82796859741210937500e+00) (638, -1.19014692306518554688e+00) (639, -4.87612426280975341797e-01) (640, 1.19827933609485626221e-01) (641, 5.50893187522888183594e-01) (642, 1.74652665853500366211e-01) (643, 6.41810745000839233398e-02) (644, 1.75189101696014404297e+00) (645, 6.76467895507812500000e-01) (646, 4.12204205989837646484e-01) (647, 5.22057712078094482422e-01) (648, -4.14067693054676055908e-02) (649, -3.72233510017395019531e-01) (650, -3.98799324035644531250e+00) (651, -1.00030460357666015625e+01) (652, -9.96096611022949218750e+00) (653, -1.19338536262512207031e+00) (654, 6.06813542544841766357e-02) (655, 2.02499240636825561523e-01) (656, 1.45192995667457580566e-01) (657, -6.53945922851562500000e-01) (658, -6.60187602043151855469e-01) (659, -4.83662784099578857422e-01) (660, -1.17534160614013671875e+00) (661, -4.20841550827026367188e+00) (662, -4.10587739944458007812e+00) (663, -1.76386773586273193359e+00) (664, -6.34185791015625000000e-01) (665, 1.12911120057106018066e-01) (666, 7.52760112285614013672e-01) (667, 7.84025192260742187500e-01) (668, -4.06455338001251220703e-01) (669, 9.65260386466979980469e-01) (670, 2.07436472177505493164e-01) (671, 7.64954566955566406250e-01) (672, 2.06825390458106994629e-01) (673, 1.91541954874992370605e-01) (674, 4.66527789831161499023e-01) (675, 1.59021884202957153320e-01) (676, 1.20045983791351318359e+00) (677, 4.20116138458251953125e+00) (678, 1.66272175312042236328e+00) (679, 1.68956887722015380859e+00) (680, 5.20166873931884765625e-01) (681, -6.33489526808261871338e-03) (682, -1.18749618530273437500e+00) (683, -9.99212074279785156250e+00) (684, -9.81008148193359375000e+00) (685, -3.69973957538604736328e-01) (686, 6.39384686946868896484e-01) (687, 7.62025773525238037109e-01) (688, -6.76503628492355346680e-02) (689, -8.06677937507629394531e-01) (690, -9.81008172035217285156e-01) (691, -4.10651147365570068359e-01) (692, -9.49923098087310791016e-02) (693, -5.17120420932769775391e-01) (694, -6.68461322784423828125e-01) (695, -9.09293293952941894531e-01) (696, 1.28228262066841125488e-01) (697, 7.09123969078063964844e-01) (698, 4.11986351013183593750e+00) (699, 4.11273002624511718750e+00) (700, 4.08884525299072265625e+00) (701, 1.76354587078094482422e+00) (702, 1.69251644611358642578e+00) (703, 4.02894020080566406250e+00) (704, 1.29307419061660766602e-01) (705, 2.48672828078269958496e-01) (706, 1.36802732944488525391e-01) (707, 4.29302424192428588867e-01) (708, 2.50847250223159790039e-01) (709, 1.29206907749176025391e+00) (710, 4.16684246063232421875e+00) (711, 4.15194892883300781250e+00) (712, 4.15919780731201171875e+00) (713, 5.95980107784271240234e-01) (714, 2.09078058600425720215e-01) (715, -4.04652738571166992188e+00) (716, -1.08326351642608642578e+00) (717, 5.47178626060485839844e-01) (718, 6.93661689758300781250e-01) (719, 6.91786587238311767578e-01) (720, -1.94422509521245956421e-02) (721, -8.73221635818481445312e-01) (722, -5.74856437742710113525e-03) (723, 8.65586549043655395508e-02) (724, 4.99350786209106445312e-01) (725, 5.35383343696594238281e-01) (726, -1.68011095374822616577e-02) (727, 4.61025327444076538086e-01) (728, 1.73309099674224853516e+00) (729, 5.06093025207519531250e+00) (730, 5.14685535430908203125e+00) (731, 5.12057685852050781250e+00) (732, 4.07427406311035156250e+00) (733, 4.08916950225830078125e+00) (734, 4.20002269744873046875e+00) (735, 4.13685035705566406250e+00) (736, 1.12769179046154022217e-01) (737, 1.11751995980739593506e-01) (738, 2.56489068269729614258e-01) (739, 3.55390816926956176758e-01) (740, 5.03356277942657470703e-01) (741, 4.26504343748092651367e-01) (742, 1.31600081920623779297e+00) (743, 3.33232140541076660156e+00) (744, 4.16670513153076171875e+00) (745, 4.09836483001708984375e+00) (746, 4.04286766052246093750e+00) (747, 4.09177899360656738281e-01) (748, 1.61965698003768920898e-01) (749, 4.20558601617813110352e-01) (750, 6.05987548828125000000e-01) (751, 6.69028282165527343750e-01) (752, 4.09615337848663330078e-01) (753, -4.19810004532337188721e-02) (754, 3.54479789733886718750e-01) (755, 3.57644379138946533203e-01) (756, 3.83193433284759521484e-01) (757, 6.05678379535675048828e-01) (758, 4.14109897613525390625e+00) (759, 4.16425514221191406250e+00) (760, 5.08073329925537109375e+00) (761, 5.06288146972656250000e+00) (762, 5.05975914001464843750e+00) (763, 5.12993431091308593750e+00) (764, 5.12697792053222656250e+00) (765, 4.11028671264648437500e+00) (766, 4.11729049682617187500e+00) (767, 4.04859447479248046875e+00) (768, 1.96965932846069335938e-01) (769, 1.48706495761871337891e-01) (770, 9.43211913108825683594e-02) (771, 4.33591455221176147461e-01) (772, 3.64824920892715454102e-01) (773, 5.09857058525085449219e-01) (774, 4.63405817747116088867e-01) (775, 2.50463461875915527344e+00) (776, 2.38132643699645996094e+00) (777, 4.21129703521728515625e+00) (778, 4.09440994262695312500e+00) (779, 4.12604999542236328125e+00) (780, 4.13687896728515625000e+00) (781, 4.11452198028564453125e+00) (782, 4.20920276641845703125e+00) (783, 4.19517230987548828125e+00) (784, 4.88580822944641113281e-01) (785, 5.38609504699707031250e-01) (786, 1.80220234394073486328e+00) (787, 4.19420337677001953125e+00) (788, 4.03216361999511718750e+00) (789, 4.11752128601074218750e+00) (790, 5.05780792236328125000e+00) (791, 5.08782482147216796875e+00) (792, 4.95532989501953125000e+00) (793, 4.96807193756103515625e+00) (794, 5.06826400756835937500e+00) (795, 5.13281250000000000000e+00) (796, 5.05328655242919921875e+00) (797, 4.03606033325195312500e+00) (798, 4.03191184997558593750e+00) (799, 4.05910015106201171875e+00) (800, 1.59693375229835510254e-01) (801, 1.01160235702991485596e-01) (802, 1.83027192950248718262e-01) (803, 4.57787573337554931641e-01) (804, 5.44286608695983886719e-01) (805, 4.36047106981277465820e-01) (806, 4.12923157215118408203e-01) (807, 3.76114040613174438477e-01) (808, 4.22271102666854858398e-01) (809, 2.80498337745666503906e+00) (810, 4.15084171295166015625e+00) (811, 4.20782852172851562500e+00) (812, 4.04545974731445312500e+00) (813, 4.13497161865234375000e+00) (814, 4.17792701721191406250e+00) (815, 4.18271923065185546875e+00) (816, 4.12225914001464843750e+00) (817, 4.15434932708740234375e+00) (818, 4.15184974670410156250e+00) (819, 4.12934970855712890625e+00) (820, 4.04679775238037109375e+00) (821, 4.06016254425048828125e+00) (822, 4.06768035888671875000e+00) (823, 4.05263233184814453125e+00) (824, 4.07874011993408203125e+00) (825, 4.18644905090332031250e+00) (826, 4.03594970703125000000e+00) (827, 4.18253231048583984375e+00) (828, 4.19743633270263671875e+00) (829, 4.04278945922851562500e+00) (830, 4.21655845642089843750e+00) (831, 4.09039878845214843750e+00) (832, 4.03467267751693725586e-01) (833, 1.74512803554534912109e-01) (834, 2.38522514700889587402e-01) (835, 3.96432101726531982422e-01) (836, 5.43829202651977539062e-01) (837, 3.84714931249618530273e-01) (838, 4.21224445104598999023e-01) (839, 4.14778530597686767578e-01) (840, 5.15652954578399658203e-01) (841, 5.46993315219879150391e-01) (842, 3.97533595561981201172e-01) (843, 2.85876345634460449219e+00) (844, 4.13064289093017578125e+00) (845, 4.22413921356201171875e+00) (846, 4.16743755340576171875e+00) (847, 4.02782917022705078125e+00) (848, 4.15341567993164062500e+00) (849, 4.09421443939208984375e+00) (850, 4.13210678100585937500e+00) (851, 4.17514038085937500000e+00) (852, 4.12930393218994140625e+00) (853, 4.17471313476562500000e+00) (854, 4.20269966125488281250e+00) (855, 4.18297100067138671875e+00) (856, 4.13608932495117187500e+00) (857, 4.21357631683349609375e+00) (858, 4.14042949676513671875e+00) (859, 4.10845279693603515625e+00) (860, 4.03129196166992187500e+00) (861, 4.13191604614257812500e+00) (862, 4.17377948760986328125e+00) (863, 4.08343791961669921875e+00) (864, 3.65946412086486816406e-01) (865, 1.87228530645370483398e-01) (866, 1.70206010341644287109e-01) (867, 3.58453869819641113281e-01) (868, 5.05212783813476562500e-01) (869, 5.24699747562408447266e-01) (870, 4.21910673379898071289e-01) (871, 4.69543993473052978516e-01) (872, 5.20371258258819580078e-01) (873, 4.68122601509094238281e-01) (874, 4.54262107610702514648e-01) (875, 4.25941318273544311523e-01) (876, 4.67188835144042968750e-01) (877, 1.67108500003814697266e+00) (878, 6.63250982761383056641e-01) (879, 1.66998994350433349609e+00) (880, 1.17729783058166503906e+00) (881, 5.35731077194213867188e-01) (882, 1.25712895393371582031e+00) (883, 1.08152866363525390625e+00) (884, 2.80809521675109863281e+00) (885, 4.19697570800781250000e+00) (886, 4.20164775848388671875e+00) (887, 4.07013988494873046875e+00) (888, 4.18547916412353515625e+00) (889, 4.11700439453125000000e+00) (890, 4.15351963043212890625e+00) (891, 4.19169902801513671875e+00) (892, 4.22384738922119140625e+00) (893, 4.10222530364990234375e+00) (894, 4.05006408691406250000e+00) (895, 4.03847122192382812500e+00) (896, 5.48972129821777343750e-01) (897, 4.79787826538085937500e-01) (898, 8.72615352272987365723e-02) (899, 5.02863168716430664062e-01) (900, 4.53165739774703979492e-01) (901, 4.42441493272781372070e-01) (902, 4.21085327863693237305e-01) (903, 4.22215282917022705078e-01) (904, 3.59242320060729980469e-01) (905, 5.24025797843933105469e-01) (906, 4.96834874153137207031e-01) (907, 4.75109398365020751953e-01) (908, 3.69330286979675292969e-01) (909, 6.08764111995697021484e-01) (910, 5.19318997859954833984e-01) (911, 4.83775913715362548828e-01) (912, 3.58619987964630126953e-01) (913, 5.13595700263977050781e-01) (914, 5.02452194690704345703e-01) (915, 4.92669701576232910156e-01) (916, 4.85498785972595214844e-01) (917, 4.79026615619659423828e-01) (918, 5.37736177444458007812e-01) (919, 6.80458605289459228516e-01) (920, 3.70957940816879272461e-01) (921, 1.17771327495574951172e+00) (922, 4.08628273010253906250e+00) (923, 4.04348278045654296875e+00) (924, 4.21708679199218750000e+00) (925, 4.11127281188964843750e+00) (926, 4.05688190460205078125e+00) (927, 4.21473693847656250000e+00) (928, 3.65987837314605712891e-01) (929, 4.03661429882049560547e-01) (930, 4.92527067661285400391e-01) (931, 4.67831909656524658203e-01) (932, 4.94781255722045898438e-01) (933, 3.62290620803833007812e-01) (934, 5.38725435733795166016e-01) (935, 5.02701878547668457031e-01) (936, 5.34994661808013916016e-01) (937, 4.84238564968109130859e-01) (938, 4.26489442586898803711e-01) (939, 3.53003203868865966797e-01) (940, 5.07127523422241210938e-01) (941, 3.94486695528030395508e-01) (942, 4.85457360744476318359e-01) (943, 5.14425754547119140625e-01) (944, 3.56760591268539428711e-01) (945, 4.36587780714035034180e-01) (946, 4.55773681402206420898e-01) (947, 4.90937650203704833984e-01) (948, 3.64292621612548828125e-01) (949, 4.42188113927841186523e-01) (950, 6.20074450969696044922e-01) (951, 3.83928865194320678711e-01) (952, 3.57049077749252319336e-01) (953, 4.46730345487594604492e-01) (954, 4.02339071035385131836e-01) (955, 1.26059317588806152344e+00) (956, 4.20668125152587890625e+00) (957, 4.10789966583251953125e+00) (958, 4.21247768402099609375e+00) (959, 4.22134780883789062500e+00) (960, 4.86487686634063720703e-01) (961, 4.79931831359863281250e-01) (962, 4.64106708765029907227e-01) (963, 4.29947137832641601562e-01) (964, 4.90900754928588867188e-01) (965, 4.51510399580001831055e-01) (966, 3.81327211856842041016e-01) (967, 4.74573671817779541016e-01) (968, 3.84427189826965332031e-01) (969, 4.56494957208633422852e-01) (970, 4.76255118846893310547e-01) (971, 5.40232956409454345703e-01) (972, 4.99659955501556396484e-01) (973, 4.10390704870223999023e-01) (974, 5.03336966037750244141e-01) (975, 7.39652216434478759766e-01) (976, 7.30210185050964355469e-01) (977, 4.07788902521133422852e-01) (978, 4.44714635610580444336e-01) (979, 7.43181109428405761719e-01) (980, 4.98655319213867187500e-01) (981, 4.78914022445678710938e-01) (982, 5.41234791278839111328e-01) (983, 5.04382669925689697266e-01) (984, 3.74322593212127685547e-01) (985, 3.92252117395401000977e-01) (986, 5.02123534679412841797e-01) (987, 3.55931282043457031250e-01) (988, 4.14882946014404296875e+00) (989, 4.16327953338623046875e+00) (990, 4.02595710754394531250e+00) (991, 4.08399581909179687500e+00) (992, 4.18138384819030761719e-01) (993, 4.64991062879562377930e-01) (994, 4.88869667053222656250e-01) (995, 3.57717335224151611328e-01) (996, 3.65179717540740966797e-01) (997, 5.18875181674957275391e-01) (998, 4.80969250202178955078e-01) (999, 3.98285180330276489258e-01) (1000, 4.24048364162445068359e-01) (1001, 4.05902594327926635742e-01) (1002, 3.87196391820907592773e-01) (1003, 3.72386515140533447266e-01) (1004, 4.64971572160720825195e-01) (1005, 5.39211630821228027344e-01) (1006, 5.26163578033447265625e-01) (1007, 4.09306585788726806641e-01) (1008, 3.95678758621215820312e-01) (1009, 4.19556468725204467773e-01) (1010, 3.66612493991851806641e-01) (1011, 5.43012380599975585938e-01) (1012, 5.47148704528808593750e-01) (1013, 3.56525540351867675781e-01) (1014, 4.96073246002197265625e-01) (1015, 3.70149552822113037109e-01) (1016, 3.97455930709838867188e-01) (1017, 4.46875005960464477539e-01) (1018, 3.74759078025817871094e-01) (1019, 7.55765974521636962891e-01) (1020, 4.05883312225341796875e+00) (1021, 4.04939460754394531250e+00) (1022, 4.05388641357421875000e+00) (1023, 4.12564945220947265625e+00) (1024, 1.04544773697853088379e-01) (0, 3.29550504684448242188e-01) (1, 2.70161449909210205078e-01) (2, 3.15038323402404785156e-01) (3, 2.97103941440582275391e-01) (4, 1.99808865785598754883e-01) (5, 3.62001776695251464844e-01) (6, 1.69830515980720520020e-01) (7, 2.54389762878417968750e-01) (8, 1.97876378893852233887e-01) (9, 1.90895304083824157715e-01) (10, 1.68039545416831970215e-01) (11, 1.85766264796257019043e-01) (12, 1.65737137198448181152e-01) (13, 2.26024389266967773438e-01) (14, 2.30123311281204223633e-01) (15, 2.33971893787384033203e-01) (16, 2.41315200924873352051e-01) (17, 2.21813872456550598145e-01) (18, 2.29798853397369384766e-01) (19, 2.46519029140472412109e-01) (20, 1.66565373539924621582e-01) (21, 2.48626664280891418457e-01) (22, 2.92653262615203857422e-01) (23, 2.62118697166442871094e-01) (24, 2.72064089775085449219e-01) (25, 2.62544035911560058594e-01) (26, 2.19325810670852661133e-01) (27, 2.19833105802536010742e-01) (28, 2.14804604649543762207e-01) (29, -4.78352069854736328125e-01) (30, -4.40430223941802978516e-01) (31, -4.17088508605957031250e-01) (32, 3.03427159786224365234e-01) (33, 1.86225846409797668457e-01) (34, 1.91633149981498718262e-01) (35, 3.89115996658802032471e-02) (36, 1.85038343071937561035e-01) (37, 1.98274418711662292480e-01) (38, 2.31247186660766601562e-01) (39, 2.19725474715232849121e-01) (40, 2.25980490446090698242e-01) (41, 2.36097484827041625977e-01) (42, 2.42302522063255310059e-01) (43, 2.28528350591659545898e-01) (44, 2.98932671546936035156e-01) (45, 1.62417113780975341797e-01) (46, 1.52491569519042968750e-01) (47, -1.24076575040817260742e-01) (48, -1.33273929357528686523e-01) (49, 1.65920555591583251953e-01) (50, 2.60388314723968505859e-01) (51, 1.71237289905548095703e-01) (52, 2.51358002424240112305e-01) (53, 1.89852192997932434082e-01) (54, 2.70166754722595214844e-01) (55, 3.60232770442962646484e-01) (56, 2.89206981658935546875e-01) (57, 2.02855899930000305176e-01) (58, 2.93429255485534667969e-01) (59, 1.40822276473045349121e-01) (60, 1.59568995237350463867e-01) (61, 8.80640894174575805664e-02) (62, 2.35351517796516418457e-01) (63, 1.76359489560127258301e-01) (64, -7.40081593394279479980e-02) (65, 7.86865577101707458496e-02) (66, 2.76664257049560546875e-01) (67, 1.32949814200401306152e-01) (68, 9.88806039094924926758e-02) (69, 1.44722208380699157715e-01) (70, 1.89485996961593627930e-01) (71, 1.61671847105026245117e-01) (72, 2.17630416154861450195e-01) (73, 2.68599212169647216797e-01) (74, 2.27010935544967651367e-01) (75, 1.53373807668685913086e-01) (76, 2.14646533131599426270e-01) (77, 2.39685326814651489258e-01) (78, 2.43795767426490783691e-01) (79, 2.95871198177337646484e-01) (80, 2.42416664958000183105e-01) (81, 3.40994834899902343750e-01) (82, 2.27366536855697631836e-01) (83, 2.54032671451568603516e-01) (84, 9.11049991846084594727e-02) (85, 1.34343937039375305176e-01) (86, 2.51076102256774902344e-01) (87, 2.17122688889503479004e-01) (88, 2.05453023314476013184e-01) (89, 2.12758526206016540527e-01) (90, 8.61994847655296325684e-02) (91, 6.18341080844402313232e-02) (92, -2.36520916223526000977e-03) (93, 3.49144749343395233154e-02) (94, 7.50043317675590515137e-02) (95, 2.70780086517333984375e-01) (96, 2.73734927177429199219e-01) (97, 3.26693654060363769531e-01) (98, 3.30073714256286621094e-01) (99, 2.85978972911834716797e-01) (100, 1.84779211878776550293e-01) (101, 2.32923120260238647461e-01) (102, 2.84461498260498046875e-01) (103, 2.39220395684242248535e-01) (104, 1.38333126902580261230e-01) (105, 2.24835902452468872070e-01) (106, 1.05957582592964172363e-01) (107, 2.66343057155609130859e-01) (108, 1.01331934332847595215e-01) (109, 1.86564117670059204102e-01) (110, 1.39160854741930961609e-02) (111, 1.80559352040290832520e-01) (112, 1.64369642734527587891e-01) (113, 1.39754876494407653809e-01) (114, -3.71534414589405059814e-02) (115, -1.62707976996898651123e-02) (116, 2.35334690660238265991e-03) (117, -7.27138742804527282715e-02) (118, -8.57847258448600769043e-02) (119, 8.97273644804954528809e-02) (120, 2.19656340777873992920e-02) (121, 9.88870784640312194824e-02) (122, 5.00337891280651092529e-02) (123, -8.19272920489311218262e-02) (124, 3.22738699615001678467e-02) (125, 2.35104374587535858154e-02) (126, 4.43846911191940307617e-01) (127, 1.49379217624664306641e+00) (128, 2.48676344752311706543e-01) (129, 2.67189919948577880859e-01) (130, 3.27270805835723876953e-01) (131, 2.70266294479370117188e-01) (132, 3.36923778057098388672e-01) (133, 3.25095713138580322266e-01) (134, 1.46297410130500793457e-01) (135, -7.30412825942039489746e-02) (136, -1.02490961551666259766e-01) (137, -4.32635903358459472656e-01) (138, -5.06480276584625244141e-01) (139, -1.30543363094329833984e+00) (140, -8.28098133206367492676e-02) (141, 1.90535895526409149170e-02) (142, -8.97484198212623596191e-02) (143, -2.05076798796653747559e-01) (144, -1.24959051609039306641e+00) (145, -1.35019195079803466797e+00) (146, -6.81634366512298583984e-01) (147, -2.70024649798870086670e-02) (148, -2.67115980386734008789e-03) (149, 5.30591420829296112061e-02) (150, -3.88028211891651153564e-02) (151, -8.22332426905632019043e-02) (152, 5.04185371100902557373e-02) (153, -9.02967378497123718262e-02) (154, -6.56882449984550476074e-02) (155, -1.88352875411510467529e-02) (156, 2.16794863343238830566e-01) (157, 4.76630955934524536133e-01) (158, 1.57342922687530517578e+00) (159, 1.46814572811126708984e+00) (160, 2.37090140581130981445e-01) (161, 2.48199567198753356934e-01) (162, 2.85911619663238525391e-01) (163, 2.10824593901634216309e-01) (164, 2.10105970501899719238e-01) (165, 2.69019722938537597656e-01) (166, -4.38551425933837890625e-01) (167, -1.27321231365203857422e+00) (168, -3.37519836425781250000e+00) (169, -3.35835933685302734375e+00) (170, -3.37473964691162109375e+00) (171, -3.39628887176513671875e+00) (172, -3.24083375930786132812e+00) (173, -3.36601591110229492188e+00) (174, -3.33964681625366210938e+00) (175, -3.27018976211547851562e+00) (176, -1.51964461803436279297e+00) (177, -3.40080261230468750000e+00) (178, -3.39871978759765625000e+00) (179, -1.38384342193603515625e+00) (180, -6.33186042308807373047e-01) (181, -9.59105789661407470703e-04) (182, 1.39266923069953918457e-01) (183, 2.99372255802154541016e-01) (184, 2.68878042697906494141e-01) (185, 2.35623270273208618164e-01) (186, 2.22373649477958679199e-01) (187, 9.25419151782989501953e-01) (188, 9.44886863231658935547e-01) (189, 1.58924925327301025391e+00) (190, 1.50399267673492431641e+00) (191, 1.85099577903747558594e+00) (192, 1.66871130466461181641e-01) (193, 3.37403953075408935547e-01) (194, 3.40040147304534912109e-01) (195, -6.92700818181037902832e-02) (196, 1.99849218130111694336e-01) (197, -1.37031745910644531250e+00) (198, -3.42086505889892578125e+00) (199, -1.64227187633514404297e+00) (200, -1.53211367130279541016e+00) (201, -1.58271288871765136719e+00) (202, -1.60199749469757080078e+00) (203, -1.53638386726379394531e+00) (204, -1.51216542720794677734e+00) (205, -3.28140926361083984375e+00) (206, -3.34633874893188476562e+00) (207, -3.34790420532226562500e+00) (208, -3.24564886093139648438e+00) (209, -3.30849504470825195312e+00) (210, -3.31151294708251953125e+00) (211, -1.24202775955200195312e+00) (212, 4.19514849781990051270e-02) (213, 9.32025671005249023438e-01) (214, 8.68734478950500488281e-01) (215, 1.02084267139434814453e+00) (216, 1.09954774379730224609e+00) (217, 1.28906226158142089844e+00) (218, 1.32596969604492187500e+00) (219, 1.84019041061401367188e+00) (220, 1.78873908519744873047e+00) (221, 1.74039018154144287109e+00) (222, 1.76940596103668212891e+00) (223, 1.81049799919128417969e+00) (224, 3.37936490774154663086e-01) (225, 1.87665656208992004395e-01) (226, 3.20582747459411621094e-01) (227, 1.92673549056053161621e-01) (228, -1.34584105014801025391e+00) (229, -1.48714303970336914062e+00) (230, -1.49284970760345458984e+00) (231, -2.60675024986267089844e+00) (232, -2.55865144729614257812e+00) (233, -2.58364272117614746094e+00) (234, -2.48289942741394042969e+00) (235, -2.41058230400085449219e+00) (236, -5.53345966339111328125e+00) (237, -3.41997289657592773438e+00) (238, -1.33289253711700439453e+00) (239, -1.24854362010955810547e+00) (240, -1.27557599544525146484e+00) (241, -6.66191399097442626953e-01) (242, 3.76281231641769409180e-01) (243, 1.05981266498565673828e+00) (244, 1.78945434093475341797e+00) (245, 1.78606855869293212891e+00) (246, 1.82329106330871582031e+00) (247, 1.77494966983795166016e+00) (248, 1.91627836227416992188e+00) (249, 1.79040849208831787109e+00) (250, 1.89335966110229492188e+00) (251, 1.78323709964752197266e+00) (252, 1.80901813507080078125e+00) (253, 1.74098527431488037109e+00) (254, 1.87195444107055664062e+00) (255, 1.80184257030487060547e+00) (256, 1.88793256878852844238e-01) (257, 2.52679735422134399414e-01) (258, 7.27356597781181335449e-02) (259, -1.30215990543365478516e+00) (260, -1.57957553863525390625e+00) (261, -2.41239571571350097656e+00) (262, -2.48867535591125488281e+00) (263, -2.47799229621887207031e+00) (264, -2.34677338600158691406e+00) (265, -3.85522469878196716309e-02) (266, -7.26413205265998840332e-02) (267, -2.44309231638908386230e-01) (268, -1.84031620621681213379e-01) (269, -2.30279669165611267090e-01) (270, 2.71580696105957031250e-01) (271, 1.28609970211982727051e-01) (272, 1.26311942934989929199e-01) (273, 2.21478804945945739746e-01) (274, 2.75066316127777099609e-01) (275, 2.16312393546104431152e-01) (276, 5.93606531620025634766e-01) (277, 1.53245580196380615234e+00) (278, 1.79471385478973388672e+00) (279, 1.90542340278625488281e+00) (280, 1.87036395072937011719e+00) (281, 1.76629292964935302734e+00) (282, 1.76688015460968017578e+00) (283, 1.75760185718536376953e+00) (284, 1.78549778461456298828e+00) (285, 1.91705417633056640625e+00) (286, 1.83766388893127441406e+00) (287, 1.82917881011962890625e+00) (288, 2.47953489422798156738e-01) (289, 1.88619121909141540527e-01) (290, -1.39476156234741210938e+00) (291, -1.47673416137695312500e+00) (292, -2.46702790260314941406e+00) (293, -2.46320223808288574219e+00) (294, -5.59946298599243164062e+00) (295, 4.33888375759124755859e-01) (296, 1.91479825973510742188e+00) (297, 1.49722898006439208984e+00) (298, 2.64618039131164550781e-01) (299, -5.65621793270111083984e-01) (300, -8.91937017440795898438e-01) (301, -8.11007738113403320312e-01) (302, -8.89195561408996582031e-01) (303, -2.94101476669311523438e-01) (304, -1.92933475971221923828e+00) (305, -1.95393502712249755859e+00) (306, -8.42482686042785644531e-01) (307, -8.97005319595336914062e-01) (308, -4.99017298221588134766e-01) (309, -4.37771260738372802734e-01) (310, 2.37149283289909362793e-01) (311, 1.52425181865692138672e+00) (312, 1.62830674648284912109e+00) (313, 1.80748105049133300781e+00) (314, 1.82935309410095214844e+00) (315, 1.81442403793334960938e+00) (316, 1.53347480297088623047e+00) (317, 1.47595655918121337891e+00) (318, 1.45254242420196533203e+00) (319, 1.78319609165191650391e+00) (320, 3.32013249397277832031e-01) (321, -4.86102640628814697266e-01) (322, -3.26924705505371093750e+00) (323, -2.49820399284362792969e+00) (324, -2.43768715858459472656e+00) (325, -2.52717542648315429688e+00) (326, 9.65361654758453369141e-01) (327, 1.88637614250183105469e+00) (328, 1.57931864261627197266e+00) (329, 1.64191588759422302246e-01) (330, -6.01025998592376708984e-01) (331, -4.36973571777343750000e-01) (332, -1.47349333763122558594e+00) (333, -1.57430791854858398438e+00) (334, -3.35600233078002929688e+00) (335, -1.36568057537078857422e+00) (336, -3.30742406845092773438e+00) (337, -3.24452209472656250000e+00) (338, -3.32505130767822265625e+00) (339, -1.60792768001556396484e+00) (340, -4.49362635612487792969e-01) (341, -4.73705053329467773438e-01) (342, -5.01759469509124755859e-01) (343, -6.20436370372772216797e-01) (344, 2.41705402731895446777e-01) (345, 1.48413169384002685547e+00) (346, 1.81980562210083007812e+00) (347, 1.84056830406188964844e+00) (348, 1.77686798572540283203e+00) (349, 1.81984758377075195312e+00) (350, 1.55510389804840087891e+00) (351, 1.47641193866729736328e+00) (352, 2.68694490194320678711e-01) (353, -1.35031485557556152344e+00) (354, -1.52526235580444335938e+00) (355, -2.51410484313964843750e+00) (356, -2.45725560188293457031e+00) (357, 7.65106439590454101562e-01) (358, 1.78153645992279052734e+00) (359, 1.67820799350738525391e+00) (360, 4.59009081125259399414e-01) (361, -1.66661873459815979004e-01) (362, -8.86291146278381347656e-01) (363, -1.61894559860229492188e+00) (364, -1.49339258670806884766e+00) (365, -1.51200175285339355469e+00) (366, -3.34072017669677734375e+00) (367, 7.29709267616271972656e-02) (368, -3.29628896713256835938e+00) (369, -3.42920827865600585938e+00) (370, -1.51194620132446289062e+00) (371, -1.54350483417510986328e+00) (372, -1.50076651573181152344e+00) (373, -1.58788776397705078125e+00) (374, -1.53812313079833984375e+00) (375, -1.46295297145843505859e+00) (376, -5.21839797496795654297e-01) (377, -6.05681240558624267578e-01) (378, 3.95433545112609863281e-01) (379, 8.23372900485992431641e-01) (380, 1.57070434093475341797e+00) (381, 1.74045360088348388672e+00) (382, 1.90475749969482421875e+00) (383, 1.76356685161590576172e+00) (384, 1.31844446063041687012e-01) (385, -1.30228507518768310547e+00) (386, -2.47231841087341308594e+00) (387, -2.56866264343261718750e+00) (388, 4.32041026651859283447e-02) (389, 1.91848301887512207031e+00) (390, 1.84121036529541015625e+00) (391, 1.63575971126556396484e+00) (392, 2.74166196584701538086e-01) (393, -6.04750141501426696777e-02) (394, -9.29414749145507812500e-01) (395, -1.61577475070953369141e+00) (396, -1.52489960193634033203e+00) (397, -1.53984296321868896484e+00) (398, -2.88244098424911499023e-01) (399, -3.10208261013031005859e-01) (400, -3.30881643295288085938e+00) (401, -3.34783363342285156250e+00) (402, -1.46789515018463134766e+00) (403, -1.57301950454711914062e+00) (404, -1.49915790557861328125e+00) (405, -1.54578351974487304688e+00) (406, -1.57573783397674560547e+00) (407, -1.59517967700958251953e+00) (408, -1.52564668655395507812e+00) (409, -6.25251471996307373047e-01) (410, -6.01697266101837158203e-01) (411, -1.60744273662567138672e+00) (412, -6.06578290462493896484e-01) (413, -6.15087091922760009766e-01) (414, -1.52998745441436767578e-01) (415, -1.39744371175765991211e-01) (416, 1.68299004435539245605e-01) (417, -3.40503835678100585938e+00) (418, -2.46082973480224609375e+00) (419, -2.31550574302673339844e+00) (420, 7.82572269439697265625e-01) (421, 1.78964579105377197266e+00) (422, 1.75879895687103271484e+00) (423, 1.55834591388702392578e+00) (424, 1.53785154223442077637e-01) (425, -1.86010226607322692871e-01) (426, -1.50992918014526367188e+00) (427, -1.46993207931518554688e+00) (428, -1.47827601432800292969e+00) (429, -1.56948781013488769531e+00) (430, 4.29018475115299224854e-02) (431, -1.37871503829956054688e-01) (432, -1.81767058372497558594e+00) (433, -3.37831163406372070312e+00) (434, -1.46331381797790527344e+00) (435, -1.51968097686767578125e+00) (436, -1.48753166198730468750e+00) (437, -1.57881689071655273438e+00) (438, -1.65462601184844970703e+00) (439, -1.55294370651245117188e+00) (440, -1.57825028896331787109e+00) (441, -1.63050520420074462891e+00) (442, -1.50015163421630859375e+00) (443, -1.55901050567626953125e+00) (444, -2.57243728637695312500e+00) (445, -1.60557329654693603516e+00) (446, -1.65117776393890380859e+00) (447, -1.49835956096649169922e+00) (448, 1.29437878727912902832e-01) (449, -3.27907133102416992188e+00) (450, -2.59363055229187011719e+00) (451, -1.35855510830879211426e-01) (452, 2.94517457485198974609e-01) (453, 1.07627761363983154297e+00) (454, 1.74204003810882568359e+00) (455, 1.53282535076141357422e+00) (456, 3.40602844953536987305e-01) (457, -7.70119428634643554688e-02) (458, -3.36593580245971679688e+00) (459, -1.56405639648437500000e+00) (460, -1.59892249107360839844e+00) (461, -1.52369487285614013672e+00) (462, -1.99126338958740234375e+00) (463, -1.95635831356048583984e+00) (464, -3.24177169799804687500e+00) (465, -1.65742993354797363281e+00) (466, -1.47889196872711181641e+00) (467, -1.49273991584777832031e+00) (468, -2.52504229545593261719e+00) (469, -2.42231345176696777344e+00) (470, -1.58544886112213134766e+00) (471, -1.49402761459350585938e+00) (472, -1.64355361461639404297e+00) (473, -1.62536573410034179688e+00) (474, -1.59280347824096679688e+00) (475, -1.60672605037689208984e+00) (476, -2.51973438262939453125e+00) (477, -2.53277659416198730469e+00) (478, -1.64485085010528564453e+00) (479, -1.48451781272888183594e+00) (480, 7.72319510579109191895e-02) (481, -3.40554523468017578125e+00) (482, -2.51913404464721679688e+00) (483, -4.15513932704925537109e-01) (484, 3.52831065654754638672e-01) (485, 1.83217096328735351562e+00) (486, 1.73904335498809814453e+00) (487, 1.65039122104644775391e+00) (488, 2.49796673655509948730e-01) (489, -2.37286612391471862793e-01) (490, -3.34249401092529296875e+00) (491, -1.51796662807464599609e+00) (492, -1.51340425014495849609e+00) (493, -1.56028151512145996094e+00) (494, -7.70906090736389160156e-01) (495, -8.12341094017028808594e-01) (496, -3.33380508422851562500e+00) (497, -3.27216339111328125000e+00) (498, -1.55111765861511230469e+00) (499, -1.47325384616851806641e+00) (500, -1.50888311862945556641e+00) (501, -1.47633171081542968750e+00) (502, -1.50704669952392578125e+00) (503, -3.26853084564208984375e+00) (504, -1.64146268367767333984e+00) (505, -1.63961541652679443359e+00) (506, -1.63869333267211914062e+00) (507, -1.55193221569061279297e+00) (508, -2.51215744018554687500e+00) (509, -2.57233953475952148438e+00) (510, -2.52524542808532714844e+00) (511, -1.52914655208587646484e+00) (512, 2.13055834174156188965e-01) (513, -3.26241302490234375000e+00) (514, -2.41883873939514160156e+00) (515, -2.85563245415687561035e-02) (516, 5.00581085681915283203e-01) (517, 1.85186958312988281250e+00) (518, 1.74888622760772705078e+00) (519, 1.61799752712249755859e+00) (520, 3.66762846708297729492e-01) (521, -5.48973865807056427002e-02) (522, -1.31246936321258544922e+00) (523, -1.57302463054656982422e+00) (524, -3.29303550720214843750e+00) (525, -3.34574079513549804688e+00) (526, -1.39140236377716064453e+00) (527, -1.37394845485687255859e+00) (528, -1.36501216888427734375e+00) (529, -1.28228533267974853516e+00) (530, -1.62696766853332519531e+00) (531, -1.65366053581237792969e+00) (532, -1.53838229179382324219e+00) (533, -1.47377967834472656250e+00) (534, -1.48562777042388916016e+00) (535, -1.85652303695678710938e+00) (536, -3.42948913574218750000e+00) (537, -1.46408629417419433594e+00) (538, -1.61130774021148681641e+00) (539, -1.55605280399322509766e+00) (540, -2.57619118690490722656e+00) (541, -2.47631835937500000000e+00) (542, -2.57399487495422363281e+00) (543, -1.55921721458435058594e+00) (544, 3.34584474563598632812e-01) (545, -1.39453840255737304688e+00) (546, -5.66160392761230468750e+00) (547, 4.60798203945159912109e-01) (548, 4.24945414066314697266e-01) (549, 1.72391855716705322266e+00) (550, 1.60963594913482666016e+00) (551, 4.02895927429199218750e-01) (552, 1.63791969418525695801e-01) (553, -3.35715226829051971436e-02) (554, -3.25318813323974609375e+00) (555, -1.47099363803863525391e+00) (556, -3.28083992004394531250e+00) (557, -3.42435550689697265625e+00) (558, -1.38470733165740966797e+00) (559, -1.40928888320922851562e+00) (560, -3.61460685729980468750e-01) (561, -1.35144031047821044922e+00) (562, -3.41904354095458984375e+00) (563, -3.36455392837524414062e+00) (564, -3.38131380081176757812e+00) (565, -1.46810770034790039062e+00) (566, -3.42392969131469726562e+00) (567, -7.58154332637786865234e-01) (568, -1.97542577981948852539e-01) (569, -3.37500238418579101562e+00) (570, -3.27005767822265625000e+00) (571, -1.63888537883758544922e+00) (572, -1.46572732925415039062e+00) (573, -2.60748910903930664062e+00) (574, -2.48689794540405273438e+00) (575, -1.55863034725189208984e+00) (576, 1.77681133151054382324e-01) (577, -3.36618483066558837891e-01) (578, -2.27602219581604003906e+00) (579, 1.31306350231170654297e-01) (580, 4.46297228336334228516e-01) (581, 1.50287854671478271484e+00) (582, 1.53192341327667236328e+00) (583, 2.49233499169349670410e-01) (584, 1.68065242469310760498e-02) (585, -1.39798328280448913574e-01) (586, -3.42447185516357421875e+00) (587, -1.58923268318176269531e+00) (588, -2.53425884246826171875e+00) (589, -3.38894462585449218750e+00) (590, -1.33828675746917724609e+00) (591, 1.11799679696559906006e-01) (592, 2.61525362730026245117e-01) (593, -4.12149727344512939453e-01) (594, -1.32306206226348876953e+00) (595, -7.59144425392150878906e-02) (596, -8.62368106842041015625e-01) (597, -3.32675695419311523438e+00) (598, -3.40257692337036132812e+00) (599, -1.67706504464149475098e-01) (600, -7.62097835540771484375e-02) (601, -1.41974234580993652344e+00) (602, -3.33534336090087890625e+00) (603, -1.49435997009277343750e+00) (604, -1.65796637535095214844e+00) (605, -2.58567810058593750000e+00) (606, -1.59275567531585693359e+00) (607, -3.40682268142700195312e+00) (608, 2.14956000447273254395e-01) (609, 1.08770310878753662109e-01) (610, -8.94048690795898437500e-01) (611, 4.94542270898818969727e-02) (612, 7.65444338321685791016e-01) (613, 9.81993496417999267578e-01) (614, 1.08814620971679687500e+00) (615, 2.89567887783050537109e-01) (616, -4.73770275712013244629e-02) (617, -5.00952422618865966797e-01) (618, -3.23918294906616210938e+00) (619, -1.63000905513763427734e+00) (620, -2.55098080635070800781e+00) (621, -1.58090603351593017578e+00) (622, -1.47207856178283691406e-01) (623, 4.81428116559982299805e-01) (624, 3.41986060142517089844e-01) (625, -5.00352457165718078613e-02) (626, -1.27387464046478271484e+00) (627, -3.58293622732162475586e-01) (628, -3.37419557571411132812e+00) (629, -3.25621652603149414062e+00) (630, -3.28630113601684570312e+00) (631, -3.94950151443481445312e-01) (632, -2.47846424579620361328e-01) (633, -7.68995821475982666016e-01) (634, -4.79670390486717224121e-02) (635, -6.44697174429893493652e-02) (636, -3.36149406433105468750e+00) (637, -3.36947441101074218750e+00) (638, -3.72969925403594970703e-01) (639, -1.73921659588813781738e-01) (640, 4.41807880997657775879e-02) (641, 1.76055297255516052246e-01) (642, -1.84845775365829467773e-02) (643, -5.36689698696136474609e-01) (644, 1.01949238777160644531e+00) (645, 9.37525093555450439453e-01) (646, 9.19633865356445312500e-01) (647, 8.27832043170928955078e-01) (648, 2.03730374574661254883e-01) (649, -3.99267449975013732910e-02) (650, -1.31652152538299560547e+00) (651, -3.31966114044189453125e+00) (652, -3.39456462860107421875e+00) (653, -6.61376237869262695312e-01) (654, 3.98330539464950561523e-01) (655, 2.27349087595939636230e-01) (656, 8.86529833078384399414e-02) (657, -6.05123527348041534424e-02) (658, -1.11409455537796020508e-01) (659, 7.55591318011283874512e-02) (660, -8.02171528339385986328e-01) (661, -3.39511394500732421875e+00) (662, -3.42879676818847656250e+00) (663, -1.22108900547027587891e+00) (664, -3.35753381252288818359e-01) (665, 2.33760058879852294922e-01) (666, 1.63475358486175537109e+00) (667, 1.05757367610931396484e+00) (668, 5.14556802809238433838e-02) (669, 3.91649514436721801758e-01) (670, 4.82763946056365966797e-01) (671, 1.55477750301361083984e+00) (672, 3.73175181448459625244e-02) (673, 1.07405714690685272217e-01) (674, 8.95532369613647460938e-01) (675, 4.08375442028045654297e-01) (676, 2.81999468803405761719e-01) (677, 1.82825732231140136719e+00) (678, 9.13927495479583740234e-01) (679, 1.79698741436004638672e+00) (680, 9.58719193935394287109e-01) (681, 2.79605329036712646484e-01) (682, -1.30572521686553955078e+00) (683, -3.32541799545288085938e+00) (684, -3.36104536056518554688e+00) (685, -9.23630073666572570801e-02) (686, 1.58444154262542724609e+00) (687, 1.07675385475158691406e+00) (688, 2.10587345063686370850e-02) (689, -1.39710652828216552734e+00) (690, -3.50404798984527587891e-01) (691, -3.60964275896549224854e-02) (692, 4.15674783289432525635e-02) (693, 1.45969331264495849609e-01) (694, -1.41075134277343750000e-01) (695, -3.54107737541198730469e-01) (696, 4.59610432386398315430e-01) (697, 1.49627506732940673828e+00) (698, 1.84729170799255371094e+00) (699, 1.77260339260101318359e+00) (700, 1.76065647602081298828e+00) (701, 1.76654875278472900391e+00) (702, 1.75248038768768310547e+00) (703, 1.78160417079925537109e+00) (704, 2.08413004875183105469e-01) (705, 1.10657505691051483154e-01) (706, 3.49247962236404418945e-01) (707, 9.51537489891052246094e-01) (708, 2.69924640655517578125e-01) (709, 5.50181925296783447266e-01) (710, 1.59203422069549560547e+00) (711, 1.79169213771820068359e+00) (712, 1.84993839263916015625e+00) (713, 1.56180965900421142578e+00) (714, 3.31266224384307861328e-01) (715, -1.41655862331390380859e+00) (716, -1.30481600761413574219e+00) (717, 2.63207256793975830078e-01) (718, 1.64335811138153076172e+00) (719, 1.61198818683624267578e+00) (720, 2.54205644130706787109e-01) (721, -5.05261197686195373535e-02) (722, -7.66085907816886901855e-02) (723, 2.27087691426277160645e-01) (724, 3.27604085206985473633e-01) (725, 2.89938986301422119141e-01) (726, 4.41468328237533569336e-01) (727, 9.86979305744171142578e-01) (728, 1.72654044628143310547e+00) (729, 1.80550658702850341797e+00) (730, 2.25518608093261718750e+00) (731, 2.27299213409423828125e+00) (732, 1.77267467975616455078e+00) (733, 1.82311010360717773438e+00) (734, 1.74764001369476318359e+00) (735, 1.83087873458862304688e+00) (736, 3.45826387405395507812e-01) (737, 1.75107613205909729004e-01) (738, 2.56500184535980224609e-01) (739, 9.50726747512817382812e-01) (740, 7.90985286235809326172e-01) (741, 3.70251178741455078125e-01) (742, 6.04733765125274658203e-01) (743, 1.56203305721282958984e+00) (744, 1.73218095302581787109e+00) (745, 1.76913177967071533203e+00) (746, 1.89025521278381347656e+00) (747, 3.94979298114776611328e-01) (748, 4.29509460926055908203e-01) (749, 4.28492307662963867188e-01) (750, 9.74879324436187744141e-01) (751, 9.86048400402069091797e-01) (752, 2.61611938476562500000e-01) (753, 2.99561083316802978516e-01) (754, 2.47389659285545349121e-01) (755, 7.86798000335693359375e-01) (756, 9.44900751113891601562e-01) (757, 9.44967567920684814453e-01) (758, 1.85164093971252441406e+00) (759, 1.83949661254882812500e+00) (760, 2.24607753753662109375e+00) (761, 2.18504691123962402344e+00) (762, 2.19070839881896972656e+00) (763, 2.29697179794311523438e+00) (764, 1.90120077133178710938e+00) (765, 1.83139228820800781250e+00) (766, 1.82089447975158691406e+00) (767, 1.89681816101074218750e+00) (768, 2.84719467163085937500e-01) (769, 1.55614241957664489746e-01) (770, 3.21628898382186889648e-01) (771, 3.21360170841217041016e-01) (772, 8.60841155052185058594e-01) (773, 7.92058467864990234375e-01) (774, 8.90294611454010009766e-01) (775, 6.55337154865264892578e-01) (776, 1.10868990421295166016e+00) (777, 1.50165915489196777344e+00) (778, 1.76449692249298095703e+00) (779, 1.76719510555267333984e+00) (780, 1.78553783893585205078e+00) (781, 1.84980392456054687500e+00) (782, 1.86367130279541015625e+00) (783, 1.89694070816040039062e+00) (784, 7.89538979530334472656e-01) (785, 7.93416261672973632812e-01) (786, 1.04406607151031494141e+00) (787, 1.74753105640411376953e+00) (788, 1.81624746322631835938e+00) (789, 1.85925459861755371094e+00) (790, 1.86524701118469238281e+00) (791, 1.75536882877349853516e+00) (792, 