FANN_FLO_2.1
num_layers=3
learning_rate=0.700000
connection_rate=1.000000
network_type=0
learning_momentum=0.000000
training_algorithm=2
train_error_function=1
train_stop_function=0
cascade_output_change_fraction=0.010000
quickprop_decay=-0.000100
quickprop_mu=1.750000
rprop_increase_factor=1.200000
rprop_decrease_factor=0.500000
rprop_delta_min=0.000000
rprop_delta_max=50.000000
rprop_delta_zero=0.100000
cascade_output_stagnation_epochs=12
cascade_candidate_change_fraction=0.010000
cascade_candidate_stagnation_epochs=12
cascade_max_out_epochs=150
cascade_min_out_epochs=50
cascade_max_cand_epochs=150
cascade_min_cand_epochs=50
cascade_num_candidate_groups=2
bit_fail_limit=3.49999994039535522461e-01
cascade_candidate_limit=1.00000000000000000000e+03
cascade_weight_multiplier=4.00000005960464477539e-01
cascade_activation_functions_count=10
cascade_activation_functions=3 5 7 8 10 11 14 15 16 17 
cascade_activation_steepnesses_count=4
cascade_activation_steepnesses=2.50000000000000000000e-01 5.00000000000000000000e-01 7.50000000000000000000e-01 1.00000000000000000000e+00 
layer_sizes=1025 11 3 
scale_included=0
neurons (num_inputs, activation_function, activation_steepness)=(0, 0, 0.00000000000000000000e+00) (0, 0, 0.00000000000000000000e+00) (0, 0, 0.00000000000000000000e+00) (0, 0, 0.00000000000000000000e+00) (0, 0, 0.00000000000000000000e+00) (0, 0, 0.00000000000000000000e+00) (0, 0, 0.00000000000000000000e+00) (0, 0, 0.00000000000000000000e+00) (0, 0, 0.00000000000000000000e+00) (0, 0, 0.00000000000000000000e+00) (0, 0, 0.00000000000000000000e+00) (0, 0, 0.00000000000000000000e+00) (0, 0, 0.00000000000000000000e+00) (0, 0, 0.00000000000000000000e+00) (0, 0, 0.00000000000000000000e+00) (0, 0, 0.00000000000000000000e+00) (0, 0, 0.00000000000000000000e+00) (0, 0, 0.00000000000000000000e+00) (0, 0, 0.00000000000000000000e+00) (0, 0, 0.00000000000000000000e+00) (0, 0, 0.00000000000000000000e+00) (0, 0, 0.00000000000000000000e+00) (0, 0, 0.00000000000000000000e+00) (0, 0, 0.00000000000000000000e+00) (0, 0, 0.00000000000000000000e+00) (0, 0, 0.00000000000000000000e+00) (0, 0, 0.00000000000000000000e+00) (0, 0, 0.00000000000000000000e+00) (0, 0, 0.00000000000000000000e+00) (0, 0, 0.00000000000000000000e+00) (0, 0, 0.00000000000000000000e+00) (0, 0, 0.00000000000000000000e+00) (0, 0, 0.00000000000000000000e+00) (0, 0, 0.00000000000000000000e+00) (0, 0, 0.00000000000000000000e+00) (0, 0, 0.00000000000000000000e+00) (0, 0, 0.00000000000000000000e+00) (0, 0, 0.00000000000000000000e+00) (0, 0, 0.00000000000000000000e+00) (0, 0, 0.00000000000000000000e+00) (0, 0, 0.00000000000000000000e+00) (0, 0, 0.00000000000000000000e+00) (0, 0, 0.00000000000000000000e+00) (0, 0, 0.00000000000000000000e+00) (0, 0, 0.00000000000000000000e+00) (0, 0, 0.00000000000000000000e+00) (0, 0, 0.00000000000000000000e+00) (0, 0, 0.00000000000000000000e+00) (0, 0, 0.00000000000000000000e+00) (0, 0, 0.00000000000000000000e+00) (0, 0, 0.00000000000000000000e+00) (0, 0, 0.00000000000000000000e+00) (0, 0, 0.00000000000000000000e+00) (0, 0, 0.00000000000000000000e+00) (0, 0, 0.00000000000000000000e+00) (0, 0, 0.00000000000000000000e+00) (0, 0, 0.00000000000000000000e+00) (0, 0, 0.00000000000000000000e+00) (0, 0, 0.00000000000000000000e+00) (0, 0, 0.00000000000000000000e+00) (0, 0, 0.00000000000000000000e+00) (0, 0, 0.00000000000000000000e+00) (0, 0, 0.00000000000000000000e+00) (0, 0, 0.00000000000000000000e+00) (0, 0, 0.00000000000000000000e+00) (0, 0, 0.00000000000000000000e+00) (0, 0, 0.00000000000000000000e+00) (0, 0, 0.00000000000000000000e+00) (0, 0, 0.00000000000000000000e+00) (0, 0, 0.00000000000000000000e+00) (0, 0, 0.00000000000000000000e+00) (0, 0, 0.00000000000000000000e+00) (0, 0, 0.00000000000000000000e+00) (0, 0, 0.00000000000000000000e+00) (0, 0, 0.00000000000000000000e+00) (0, 0, 0.00000000000000000000e+00) (0, 0, 0.00000000000000000000e+00) (0, 0, 0.00000000000000000000e+00) (0, 0, 0.00000000000000000000e+00) (0, 0, 0.00000000000000000000e+00) (0, 0, 0.00000000000000000000e+00) (0, 0, 0.00000000000000000000e+00) (0, 0, 0.00000000000000000000e+00) (0, 0, 0.00000000000000000000e+00) (0, 0, 0.00000000000000000000e+00) (0, 0, 0.00000000000000000000e+00) (0, 0, 0.00000000000000000000e+00) (0, 0, 0.00000000000000000000e+00) (0, 0, 0.00000000000000000000e+00) (0, 0, 0.00000000000000000000e+00) (0, 0, 0.00000000000000000000e+00) (0, 0, 0.00000000000000000000e+00) (0, 0, 0.00000000000000000000e+00) (0, 0, 0.00000000000000000000e+00) (0, 0, 0.00000000000000000000e+00) (0, 0, 0.00000000000000000000e+00) (0, 0, 0.00000000000000000000e+00) (0, 0, 0.00000000000000000000e+00) (0, 0, 0.00000000000000000000e+00) (0, 0, 0.00000000000000000000e+00) (0, 0, 0.00000000000000000000e+00) (0, 0, 0.00000000000000000000e+00) (0, 0, 0.00000000000000000000e+00) (0, 0, 0.00000000000000000000e+00) (0, 0, 0.00000000000000000000e+00) (0, 0, 0.00000000000000000000e+00) (0, 0, 0.00000000000000000000e+00) (0, 0, 0.00000000000000000000e+00) (0, 0, 0.00000000000000000000e+00) (0, 0, 0.00000000000000000000e+00) (0, 0, 0.00000000000000000000e+00) (0, 0, 0.00000000000000000000e+00) (0, 0, 0.00000000000000000000e+00) (0, 0, 0.00000000000000000000e+00) (0, 0, 0.00000000000000000000e+00) (0, 0, 0.00000000000000000000e+00) (0, 0, 0.00000000000000000000e+00) (0, 0, 0.00000000000000000000e+00) (0, 0, 0.00000000000000000000e+00) (0, 0, 0.00000000000000000000e+00) (0, 0, 0.00000000000000000000e+00) (0, 0, 0.00000000000000000000e+00) (0, 0, 0.00000000000000000000e+00) (0, 0, 0.00000000000000000000e+00) (0, 0, 0.00000000000000000000e+00) (0, 0, 0.00000000000000000000e+00) (0, 0, 0.00000000000000000000e+00) (0, 0, 0.00000000000000000000e+00) (0, 0, 0.00000000000000000000e+00) (0, 0, 0.00000000000000000000e+00) (0, 0, 0.00000000000000000000e+00) (0, 0, 0.00000000000000000000e+00) (0, 0, 0.00000000000000000000e+00) (0, 0, 0.00000000000000000000e+00) (0, 0, 0.00000000000000000000e+00) (0, 0, 0.00000000000000000000e+00) (0, 0, 0.00000000000000000000e+00) (0, 0, 0.00000000000000000000e+00) (0, 0, 0.00000000000000000000e+00) (0, 0, 0.00000000000000000000e+00) (0, 0, 0.00000000000000000000e+00) (0, 0, 0.00000000000000000000e+00) (0, 0, 0.00000000000000000000e+00) (0, 0, 0.00000000000000000000e+00) (0, 0, 0.00000000000000000000e+00) (0, 0, 0.00000000000000000000e+00) (0, 0, 0.00000000000000000000e+00) (0, 0, 0.00000000000000000000e+00) (0, 0, 0.00000000000000000000e+00) (0, 0, 0.00000000000000000000e+00) (0, 0, 0.00000000000000000000e+00) (0, 0, 0.00000000000000000000e+00) (0, 0, 0.00000000000000000000e+00) (0, 0, 0.00000000000000000000e+00) (0, 0, 0.00000000000000000000e+00) (0, 0, 0.00000000000000000000e+00) (0, 0, 0.00000000000000000000e+00) (0, 0, 0.00000000000000000000e+00) (0, 0, 0.00000000000000000000e+00) (0, 0, 0.00000000000000000000e+00) (0, 0, 0.00000000000000000000e+00) (0, 0, 0.00000000000000000000e+00) (0, 0, 0.00000000000000000000e+00) (0, 0, 0.00000000000000000000e+00) (0, 0, 0.00000000000000000000e+00) (0, 0, 0.00000000000000000000e+00) (0, 0, 0.00000000000000000000e+00) (0, 0, 0.00000000000000000000e+00) (0, 0, 0.00000000000000000000e+00) (0, 0, 0.00000000000000000000e+00) (0, 0, 0.00000000000000000000e+00) (0, 0, 0.00000000000000000000e+00) (0, 0, 0.00000000000000000000e+00) (0, 0, 0.00000000000000000000e+00) (0, 0, 0.00000000000000000000e+00) (0, 0, 0.00000000000000000000e+00) (0, 0, 0.00000000000000000000e+00) (0, 0, 0.00000000000000000000e+00) (0, 0, 0.00000000000000000000e+00) (0, 0, 0.00000000000000000000e+00) (0, 0, 0.00000000000000000000e+00) (0, 0, 0.00000000000000000000e+00) (0, 0, 0.00000000000000000000e+00) (0, 0, 0.00000000000000000000e+00) (0, 0, 0.00000000000000000000e+00) (0, 0, 0.00000000000000000000e+00) (0, 0, 0.00000000000000000000e+00) (0, 0, 0.00000000000000000000e+00) (0, 0, 0.00000000000000000000e+00) (0, 0, 0.00000000000000000000e+00) (0, 0, 0.00000000000000000000e+00) (0, 0, 0.00000000000000000000e+00) (0, 0, 0.00000000000000000000e+00) (0, 0, 0.00000000000000000000e+00) (0, 0, 0.00000000000000000000e+00) (0, 0, 0.00000000000000000000e+00) (0, 0, 0.00000000000000000000e+00) (0, 0, 0.00000000000000000000e+00) (0, 0, 0.00000000000000000000e+00) (0, 0, 0.00000000000000000000e+00) (0, 0, 0.00000000000000000000e+00) (0, 0, 0.00000000000000000000e+00) (0, 0, 0.00000000000000000000e+00) (0, 0, 0.00000000000000000000e+00) (0, 0, 0.00000000000000000000e+00) (0, 0, 0.00000000000000000000e+00) (0, 0, 0.00000000000000000000e+00) (0, 0, 0.00000000000000000000e+00) (0, 0, 0.00000000000000000000e+00) (0, 0, 0.00000000000000000000e+00) (0, 0, 0.00000000000000000000e+00) (0, 0, 0.00000000000000000000e+00) (0, 0, 0.00000000000000000000e+00) (0, 0, 0.00000000000000000000e+00) (0, 0, 0.00000000000000000000e+00) (0, 0, 0.00000000000000000000e+00) (0, 0, 0.00000000000000000000e+00) (0, 0, 0.00000000000000000000e+00) (0, 0, 0.00000000000000000000e+00) (0, 0, 0.00000000000000000000e+00) (0, 0, 0.00000000000000000000e+00) (0, 0, 0.00000000000000000000e+00) (0, 0, 0.00000000000000000000e+00) (0, 0, 0.00000000000000000000e+00) (0, 0, 0.00000000000000000000e+00) (0, 0, 0.00000000000000000000e+00) (0, 0, 0.00000000000000000000e+00) (0, 0, 0.00000000000000000000e+00) (0, 0, 0.00000000000000000000e+00) (0, 0, 0.00000000000000000000e+00) (0, 0, 0.00000000000000000000e+00) (0, 0, 0.00000000000000000000e+00) (0, 0, 0.00000000000000000000e+00) (0, 0, 0.00000000000000000000e+00) (0, 0, 0.00000000000000000000e+00) (0, 0, 0.00000000000000000000e+00) (0, 0, 0.00000000000000000000e+00) (0, 0, 0.00000000000000000000e+00) (0, 0, 0.00000000000000000000e+00) (0, 0, 0.00000000000000000000e+00) (0, 0, 0.00000000000000000000e+00) (0, 0, 0.00000000000000000000e+00) (0, 0, 0.00000000000000000000e+00) (0, 0, 0.00000000000000000000e+00) (0, 0, 0.00000000000000000000e+00) (0, 0, 0.00000000000000000000e+00) (0, 0, 0.00000000000000000000e+00) (0, 0, 0.00000000000000000000e+00) (0, 0, 0.00000000000000000000e+00) (0, 0, 0.00000000000000000000e+00) (0, 0, 0.00000000000000000000e+00) (0, 0, 0.00000000000000000000e+00) (0, 0, 0.00000000000000000000e+00) (0, 0, 0.00000000000000000000e+00) (0, 0, 0.00000000000000000000e+00) (0, 0, 0.00000000000000000000e+00) (0, 0, 0.00000000000000000000e+00) (0, 0, 0.00000000000000000000e+00) (0, 0, 0.00000000000000000000e+00) (0, 0, 0.00000000000000000000e+00) (0, 0, 0.00000000000000000000e+00) (0, 0, 0.00000000000000000000e+00) (0, 0, 0.00000000000000000000e+00) (0, 0, 0.00000000000000000000e+00) (0, 0, 0.00000000000000000000e+00) (0, 0, 0.00000000000000000000e+00) (0, 0, 0.00000000000000000000e+00) (0, 0, 0.00000000000000000000e+00) (0, 0, 0.00000000000000000000e+00) (0, 0, 0.00000000000000000000e+00) (0, 0, 0.00000000000000000000e+00) (0, 0, 0.00000000000000000000e+00) (0, 0, 0.00000000000000000000e+00) (0, 0, 0.00000000000000000000e+00) (0, 0, 0.00000000000000000000e+00) (0, 0, 0.00000000000000000000e+00) (0, 0, 0.00000000000000000000e+00) (0, 0, 0.00000000000000000000e+00) (0, 0, 0.00000000000000000000e+00) (0, 0, 0.00000000000000000000e+00) (0, 0, 0.00000000000000000000e+00) (0, 0, 0.00000000000000000000e+00) (0, 0, 0.00000000000000000000e+00) (0, 0, 0.00000000000000000000e+00) (0, 0, 0.00000000000000000000e+00) (0, 0, 0.00000000000000000000e+00) (0, 0, 0.00000000000000000000e+00) (0, 0, 0.00000000000000000000e+00) (0, 0, 0.00000000000000000000e+00) (0, 0, 0.00000000000000000000e+00) (0, 0, 0.00000000000000000000e+00) (0, 0, 0.00000000000000000000e+00) (0, 0, 0.00000000000000000000e+00) (0, 0, 0.00000000000000000000e+00) (0, 0, 0.00000000000000000000e+00) (0, 0, 0.00000000000000000000e+00) (0, 0, 0.00000000000000000000e+00) (0, 0, 0.00000000000000000000e+00) (0, 0, 0.00000000000000000000e+00) (0, 0, 0.00000000000000000000e+00) (0, 0, 0.00000000000000000000e+00) (0, 0, 0.00000000000000000000e+00) (0, 0, 0.00000000000000000000e+00) (0, 0, 0.00000000000000000000e+00) (0, 0, 0.00000000000000000000e+00) (0, 0, 0.00000000000000000000e+00) (0, 0, 0.00000000000000000000e+00) (0, 0, 0.00000000000000000000e+00) (0, 0, 0.00000000000000000000e+00) (0, 0, 0.00000000000000000000e+00) (0, 0, 0.00000000000000000000e+00) (0, 0, 0.00000000000000000000e+00) (0, 0, 0.00000000000000000000e+00) (0, 0, 0.00000000000000000000e+00) (0, 0, 0.00000000000000000000e+00) (0, 0, 0.00000000000000000000e+00) (0, 0, 0.00000000000000000000e+00) (0, 0, 0.00000000000000000000e+00) (0, 0, 0.00000000000000000000e+00) (0, 0, 0.00000000000000000000e+00) (0, 0, 0.00000000000000000000e+00) (0, 0, 0.00000000000000000000e+00) (0, 0, 0.00000000000000000000e+00) (0, 0, 0.00000000000000000000e+00) (0, 0, 0.00000000000000000000e+00) (0, 0, 0.00000000000000000000e+00) (0, 0, 0.00000000000000000000e+00) (0, 0, 0.00000000000000000000e+00) (0, 0, 0.00000000000000000000e+00) (0, 0, 0.00000000000000000000e+00) (0, 0, 0.00000000000000000000e+00) (0, 0, 0.00000000000000000000e+00) (0, 0, 0.00000000000000000000e+00) (0, 0, 0.00000000000000000000e+00) (0, 0, 0.00000000000000000000e+00) (0, 0, 0.00000000000000000000e+00) (0, 0, 0.00000000000000000000e+00) (0, 0, 0.00000000000000000000e+00) (0, 0, 0.00000000000000000000e+00) (0, 0, 0.00000000000000000000e+00) (0, 0, 0.00000000000000000000e+00) (0, 0, 0.00000000000000000000e+00) (0, 0, 0.00000000000000000000e+00) (0, 0, 0.00000000000000000000e+00) (0, 0, 0.00000000000000000000e+00) (0, 0, 0.00000000000000000000e+00) (0, 0, 0.00000000000000000000e+00) (0, 0, 0.00000000000000000000e+00) (0, 0, 0.00000000000000000000e+00) (0, 0, 0.00000000000000000000e+00) (0, 0, 0.00000000000000000000e+00) (0, 0, 0.00000000000000000000e+00) (0, 0, 0.00000000000000000000e+00) (0, 0, 0.00000000000000000000e+00) (0, 0, 0.00000000000000000000e+00) (0, 0, 0.00000000000000000000e+00) (0, 0, 0.00000000000000000000e+00) (0, 0, 0.00000000000000000000e+00) (0, 0, 0.00000000000000000000e+00) (0, 0, 0.00000000000000000000e+00) (0, 0, 0.00000000000000000000e+00) (0, 0, 0.00000000000000000000e+00) (0, 0, 0.00000000000000000000e+00) (0, 0, 0.00000000000000000000e+00) (0, 0, 0.00000000000000000000e+00) (0, 0, 0.00000000000000000000e+00) (0, 0, 0.00000000000000000000e+00) (0, 0, 0.00000000000000000000e+00) (0, 0, 0.00000000000000000000e+00) (0, 0, 0.00000000000000000000e+00) (0, 0, 0.00000000000000000000e+00) (0, 0, 0.00000000000000000000e+00) (0, 0, 0.00000000000000000000e+00) (0, 0, 0.00000000000000000000e+00) (0, 0, 0.00000000000000000000e+00) (0, 0, 0.00000000000000000000e+00) (0, 0, 0.00000000000000000000e+00) (0, 0, 0.00000000000000000000e+00) (0, 0, 0.00000000000000000000e+00) (0, 0, 0.00000000000000000000e+00) (0, 0, 0.00000000000000000000e+00) (0, 0, 0.00000000000000000000e+00) (0, 0, 0.00000000000000000000e+00) (0, 0, 0.00000000000000000000e+00) (0, 0, 0.00000000000000000000e+00) (0, 0, 0.00000000000000000000e+00) (0, 0, 0.00000000000000000000e+00) (0, 0, 0.00000000000000000000e+00) (0, 0, 0.00000000000000000000e+00) (0, 0, 0.00000000000000000000e+00) (0, 0, 0.00000000000000000000e+00) (0, 0, 0.00000000000000000000e+00) (0, 0, 0.00000000000000000000e+00) (0, 0, 0.00000000000000000000e+00) (0, 0, 0.00000000000000000000e+00) (0, 0, 0.00000000000000000000e+00) (0, 0, 0.00000000000000000000e+00) (0, 0, 0.00000000000000000000e+00) (0, 0, 0.00000000000000000000e+00) (0, 0, 0.00000000000000000000e+00) (0, 0, 0.00000000000000000000e+00) (0, 0, 0.00000000000000000000e+00) (0, 0, 0.00000000000000000000e+00) (0, 0, 0.00000000000000000000e+00) (0, 0, 0.00000000000000000000e+00) (0, 0, 0.00000000000000000000e+00) (0, 0, 0.00000000000000000000e+00) (0, 0, 0.00000000000000000000e+00) (0, 0, 0.00000000000000000000e+00) (0, 0, 0.00000000000000000000e+00) (0, 0, 0.00000000000000000000e+00) (0, 0, 0.00000000000000000000e+00) (0, 0, 0.00000000000000000000e+00) (0, 0, 0.00000000000000000000e+00) (0, 0, 0.00000000000000000000e+00) (0, 0, 0.00000000000000000000e+00) (0, 0, 0.00000000000000000000e+00) (0, 0, 0.00000000000000000000e+00) (0, 0, 0.00000000000000000000e+00) (0, 0, 0.00000000000000000000e+00) (0, 0, 0.00000000000000000000e+00) (0, 0, 0.00000000000000000000e+00) (0, 0, 0.00000000000000000000e+00) (0, 0, 0.00000000000000000000e+00) (0, 0, 0.00000000000000000000e+00) (0, 0, 0.00000000000000000000e+00) (0, 0, 0.00000000000000000000e+00) (0, 0, 0.00000000000000000000e+00) (0, 0, 0.00000000000000000000e+00) (0, 0, 0.00000000000000000000e+00) (0, 0, 0.00000000000000000000e+00) (0, 0, 0.00000000000000000000e+00) (0, 0, 0.00000000000000000000e+00) (0, 0, 0.00000000000000000000e+00) (0, 0, 0.00000000000000000000e+00) (0, 0, 0.00000000000000000000e+00) (0, 0, 0.00000000000000000000e+00) (0, 0, 0.00000000000000000000e+00) (0, 0, 0.00000000000000000000e+00) (0, 0, 0.00000000000000000000e+00) (0, 0, 0.00000000000000000000e+00) (0, 0, 0.00000000000000000000e+00) (0, 0, 0.00000000000000000000e+00) (0, 0, 0.00000000000000000000e+00) (0, 0, 0.00000000000000000000e+00) (0, 0, 0.00000000000000000000e+00) (0, 0, 0.00000000000000000000e+00) (0, 0, 0.00000000000000000000e+00) (0, 0, 0.00000000000000000000e+00) (0, 0, 0.00000000000000000000e+00) (0, 0, 0.00000000000000000000e+00) (0, 0, 0.00000000000000000000e+00) (0, 0, 0.00000000000000000000e+00) (0, 0, 0.00000000000000000000e+00) (0, 0, 0.00000000000000000000e+00) (0, 0, 0.00000000000000000000e+00) (0, 0, 0.00000000000000000000e+00) (0, 0, 0.00000000000000000000e+00) (0, 0, 0.00000000000000000000e+00) (0, 0, 0.00000000000000000000e+00) (0, 0, 0.00000000000000000000e+00) (0, 0, 0.00000000000000000000e+00) (0, 0, 0.00000000000000000000e+00) (0, 0, 0.00000000000000000000e+00) (0, 0, 0.00000000000000000000e+00) (0, 0, 0.00000000000000000000e+00) (0, 0, 0.00000000000000000000e+00) (0, 0, 0.00000000000000000000e+00) (0, 0, 0.00000000000000000000e+00) (0, 0, 0.00000000000000000000e+00) (0, 0, 0.00000000000000000000e+00) (0, 0, 0.00000000000000000000e+00) (0, 0, 0.00000000000000000000e+00) (0, 0, 0.00000000000000000000e+00) (0, 0, 0.00000000000000000000e+00) (0, 0, 0.00000000000000000000e+00) (0, 0, 0.00000000000000000000e+00) (0, 0, 0.00000000000000000000e+00) (0, 0, 0.00000000000000000000e+00) (0, 0, 0.00000000000000000000e+00) (0, 0, 0.00000000000000000000e+00) (0, 0, 0.00000000000000000000e+00) (0, 0, 0.00000000000000000000e+00) (0, 0, 0.00000000000000000000e+00) (0, 0, 0.00000000000000000000e+00) (0, 0, 0.00000000000000000000e+00) (0, 0, 0.00000000000000000000e+00) (0, 0, 0.00000000000000000000e+00) (0, 0, 0.00000000000000000000e+00) (0, 0, 0.00000000000000000000e+00) (0, 0, 0.00000000000000000000e+00) (0, 0, 0.00000000000000000000e+00) (0, 0, 0.00000000000000000000e+00) (0, 0, 0.00000000000000000000e+00) (0, 0, 0.00000000000000000000e+00) (0, 0, 0.00000000000000000000e+00) (0, 0, 0.00000000000000000000e+00) (0, 0, 0.00000000000000000000e+00) (0, 0, 0.00000000000000000000e+00) (0, 0, 0.00000000000000000000e+00) (0, 0, 0.00000000000000000000e+00) (0, 0, 0.00000000000000000000e+00) (0, 0, 0.00000000000000000000e+00) (0, 0, 0.00000000000000000000e+00) (0, 0, 0.00000000000000000000e+00) (0, 0, 0.00000000000000000000e+00) (0, 0, 0.00000000000000000000e+00) (0, 0, 0.00000000000000000000e+00) (0, 0, 0.00000000000000000000e+00) (0, 0, 0.00000000000000000000e+00) (0, 0, 0.00000000000000000000e+00) (0, 0, 0.00000000000000000000e+00) (0, 0, 0.00000000000000000000e+00) (0, 0, 0.00000000000000000000e+00) (0, 0, 0.00000000000000000000e+00) (0, 0, 0.00000000000000000000e+00) (0, 0, 0.00000000000000000000e+00) (0, 0, 0.00000000000000000000e+00) (0, 0, 0.00000000000000000000e+00) (0, 0, 0.00000000000000000000e+00) (0, 0, 0.00000000000000000000e+00) (0, 0, 0.00000000000000000000e+00) (0, 0, 0.00000000000000000000e+00) (0, 0, 0.00000000000000000000e+00) (0, 0, 0.00000000000000000000e+00) (0, 0, 0.00000000000000000000e+00) (0, 0, 0.00000000000000000000e+00) (0, 0, 0.00000000000000000000e+00) (0, 0, 0.00000000000000000000e+00) (0, 0, 0.00000000000000000000e+00) (0, 0, 0.00000000000000000000e+00) (0, 0, 0.00000000000000000000e+00) (0, 0, 0.00000000000000000000e+00) (0, 0, 0.00000000000000000000e+00) (0, 0, 0.00000000000000000000e+00) (0, 0, 0.00000000000000000000e+00) (0, 0, 0.00000000000000000000e+00) (0, 0, 0.00000000000000000000e+00) (0, 0, 0.00000000000000000000e+00) (0, 0, 0.00000000000000000000e+00) (0, 0, 0.00000000000000000000e+00) (0, 0, 0.00000000000000000000e+00) (0, 0, 0.00000000000000000000e+00) (0, 0, 0.00000000000000000000e+00) (0, 0, 0.00000000000000000000e+00) (0, 0, 0.00000000000000000000e+00) (0, 0, 0.00000000000000000000e+00) (0, 0, 0.00000000000000000000e+00) (0, 0, 0.00000000000000000000e+00) (0, 0, 0.00000000000000000000e+00) (0, 0, 0.00000000000000000000e+00) (0, 0, 0.00000000000000000000e+00) (0, 0, 0.00000000000000000000e+00) (0, 0, 0.00000000000000000000e+00) (0, 0, 0.00000000000000000000e+00) (0, 0, 0.00000000000000000000e+00) (0, 0, 0.00000000000000000000e+00) (0, 0, 0.00000000000000000000e+00) (0, 0, 0.00000000000000000000e+00) (0, 0, 0.00000000000000000000e+00) (0, 0, 0.00000000000000000000e+00) (0, 0, 0.00000000000000000000e+00) (0, 0, 0.00000000000000000000e+00) (0, 0, 0.00000000000000000000e+00) (0, 0, 0.00000000000000000000e+00) (0, 0, 0.00000000000000000000e+00) (0, 0, 0.00000000000000000000e+00) (0, 0, 0.00000000000000000000e+00) (0, 0, 0.00000000000000000000e+00) (0, 0, 0.00000000000000000000e+00) (0, 0, 0.00000000000000000000e+00) (0, 0, 0.00000000000000000000e+00) (0, 0, 0.00000000000000000000e+00) (0, 0, 0.00000000000000000000e+00) (0, 0, 0.00000000000000000000e+00) (0, 0, 0.00000000000000000000e+00) (0, 0, 0.00000000000000000000e+00) (0, 0, 0.00000000000000000000e+00) (0, 0, 0.00000000000000000000e+00) (0, 0, 0.00000000000000000000e+00) (0, 0, 0.00000000000000000000e+00) (0, 0, 0.00000000000000000000e+00) (0, 0, 0.00000000000000000000e+00) (0, 0, 0.00000000000000000000e+00) (0, 0, 0.00000000000000000000e+00) (0, 0, 0.00000000000000000000e+00) (0, 0, 0.00000000000000000000e+00) (0, 0, 0.00000000000000000000e+00) (0, 0, 0.00000000000000000000e+00) (0, 0, 0.00000000000000000000e+00) (0, 0, 0.00000000000000000000e+00) (0, 0, 0.00000000000000000000e+00) (0, 0, 0.00000000000000000000e+00) (0, 0, 0.00000000000000000000e+00) (0, 0, 0.00000000000000000000e+00) (0, 0, 0.00000000000000000000e+00) (0, 0, 0.00000000000000000000e+00) (0, 0, 0.00000000000000000000e+00) (0, 0, 0.00000000000000000000e+00) (0, 0, 0.00000000000000000000e+00) (0, 0, 0.00000000000000000000e+00) (0, 0, 0.00000000000000000000e+00) (0, 0, 0.00000000000000000000e+00) (0, 0, 0.00000000000000000000e+00) (0, 0, 0.00000000000000000000e+00) (0, 0, 0.00000000000000000000e+00) (0, 0, 0.00000000000000000000e+00) (0, 0, 0.00000000000000000000e+00) (0, 0, 0.00000000000000000000e+00) (0, 0, 0.00000000000000000000e+00) (0, 0, 0.00000000000000000000e+00) (0, 0, 0.00000000000000000000e+00) (0, 0, 0.00000000000000000000e+00) (0, 0, 0.00000000000000000000e+00) (0, 0, 0.00000000000000000000e+00) (0, 0, 0.00000000000000000000e+00) (0, 0, 0.00000000000000000000e+00) (0, 0, 0.00000000000000000000e+00) (0, 0, 0.00000000000000000000e+00) (0, 0, 0.00000000000000000000e+00) (0, 0, 0.00000000000000000000e+00) (0, 0, 0.00000000000000000000e+00) (0, 0, 0.00000000000000000000e+00) (0, 0, 0.00000000000000000000e+00) (0, 0, 0.00000000000000000000e+00) (0, 0, 0.00000000000000000000e+00) (0, 0, 0.00000000000000000000e+00) (0, 0, 0.00000000000000000000e+00) (0, 0, 0.00000000000000000000e+00) (0, 0, 0.00000000000000000000e+00) (0, 0, 0.00000000000000000000e+00) (0, 0, 0.00000000000000000000e+00) (0, 0, 0.00000000000000000000e+00) (0, 0, 0.00000000000000000000e+00) (0, 0, 0.00000000000000000000e+00) (0, 0, 0.00000000000000000000e+00) (0, 0, 0.00000000000000000000e+00) (0, 0, 0.00000000000000000000e+00) (0, 0, 0.00000000000000000000e+00) (0, 0, 0.00000000000000000000e+00) (0, 0, 0.00000000000000000000e+00) (0, 0, 0.00000000000000000000e+00) (0, 0, 0.00000000000000000000e+00) (0, 0, 0.00000000000000000000e+00) (0, 0, 0.00000000000000000000e+00) (0, 0, 0.00000000000000000000e+00) (0, 0, 0.00000000000000000000e+00) (0, 0, 0.00000000000000000000e+00) (0, 0, 0.00000000000000000000e+00) (0, 0, 0.00000000000000000000e+00) (0, 0, 0.00000000000000000000e+00) (0, 0, 0.00000000000000000000e+00) (0, 0, 0.00000000000000000000e+00) (0, 0, 0.00000000000000000000e+00) (0, 0, 0.00000000000000000000e+00) (0, 0, 0.00000000000000000000e+00) (0, 0, 0.00000000000000000000e+00) (0, 0, 0.00000000000000000000e+00) (0, 0, 0.00000000000000000000e+00) (0, 0, 0.00000000000000000000e+00) (0, 0, 0.00000000000000000000e+00) (0, 0, 0.00000000000000000000e+00) (0, 0, 0.00000000000000000000e+00) (0, 0, 0.00000000000000000000e+00) (0, 0, 0.00000000000000000000e+00) (0, 0, 0.00000000000000000000e+00) (0, 0, 0.00000000000000000000e+00) (0, 0, 0.00000000000000000000e+00) (0, 0, 0.00000000000000000000e+00) (0, 0, 0.00000000000000000000e+00) (0, 0, 0.00000000000000000000e+00) (0, 0, 0.00000000000000000000e+00) (0, 0, 0.00000000000000000000e+00) (0, 0, 0.00000000000000000000e+00) (0, 0, 0.00000000000000000000e+00) (0, 0, 0.00000000000000000000e+00) (0, 0, 0.00000000000000000000e+00) (0, 0, 0.00000000000000000000e+00) (0, 0, 0.00000000000000000000e+00) (0, 0, 0.00000000000000000000e+00) (0, 0, 0.00000000000000000000e+00) (0, 0, 0.00000000000000000000e+00) (0, 0, 0.00000000000000000000e+00) (0, 0, 0.00000000000000000000e+00) (0, 0, 0.00000000000000000000e+00) (0, 0, 0.00000000000000000000e+00) (0, 0, 0.00000000000000000000e+00) (0, 0, 0.00000000000000000000e+00) (0, 0, 0.00000000000000000000e+00) (0, 0, 0.00000000000000000000e+00) (0, 0, 0.00000000000000000000e+00) (0, 0, 0.00000000000000000000e+00) (0, 0, 0.00000000000000000000e+00) (0, 0, 0.00000000000000000000e+00) (0, 0, 0.00000000000000000000e+00) (0, 0, 0.00000000000000000000e+00) (0, 0, 0.00000000000000000000e+00) (0, 0, 0.00000000000000000000e+00) (0, 0, 0.00000000000000000000e+00) (0, 0, 0.00000000000000000000e+00) (0, 0, 0.00000000000000000000e+00) (0, 0, 0.00000000000000000000e+00) (0, 0, 0.00000000000000000000e+00) (0, 0, 0.00000000000000000000e+00) (0, 0, 0.00000000000000000000e+00) (0, 0, 0.00000000000000000000e+00) (0, 0, 0.00000000000000000000e+00) (0, 0, 0.00000000000000000000e+00) (0, 0, 0.00000000000000000000e+00) (0, 0, 0.00000000000000000000e+00) (0, 0, 0.00000000000000000000e+00) (0, 0, 0.00000000000000000000e+00) (0, 0, 0.00000000000000000000e+00) (0, 0, 0.00000000000000000000e+00) (0, 0, 0.00000000000000000000e+00) (0, 0, 0.00000000000000000000e+00) (0, 0, 0.00000000000000000000e+00) (0, 0, 0.00000000000000000000e+00) (0, 0, 0.00000000000000000000e+00) (0, 0, 0.00000000000000000000e+00) (0, 0, 0.00000000000000000000e+00) (0, 0, 0.00000000000000000000e+00) (0, 0, 0.00000000000000000000e+00) (0, 0, 0.00000000000000000000e+00) (0, 0, 0.00000000000000000000e+00) (0, 0, 0.00000000000000000000e+00) (0, 0, 0.00000000000000000000e+00) (0, 0, 0.00000000000000000000e+00) (0, 0, 0.00000000000000000000e+00) (0, 0, 0.00000000000000000000e+00) (0, 0, 0.00000000000000000000e+00) (0, 0, 0.00000000000000000000e+00) (0, 0, 0.00000000000000000000e+00) (0, 0, 0.00000000000000000000e+00) (0, 0, 0.00000000000000000000e+00) (0, 0, 0.00000000000000000000e+00) (0, 0, 0.00000000000000000000e+00) (0, 0, 0.00000000000000000000e+00) (0, 0, 0.00000000000000000000e+00) (0, 0, 0.00000000000000000000e+00) (0, 0, 0.00000000000000000000e+00) (0, 0, 0.00000000000000000000e+00) (0, 0, 0.00000000000000000000e+00) (0, 0, 0.00000000000000000000e+00) (0, 0, 0.00000000000000000000e+00) (0, 0, 0.00000000000000000000e+00) (0, 0, 0.00000000000000000000e+00) (0, 0, 0.00000000000000000000e+00) (0, 0, 0.00000000000000000000e+00) (0, 0, 0.00000000000000000000e+00) (0, 0, 0.00000000000000000000e+00) (0, 0, 0.00000000000000000000e+00) (0, 0, 0.00000000000000000000e+00) (0, 0, 0.00000000000000000000e+00) (0, 0, 0.00000000000000000000e+00) (0, 0, 0.00000000000000000000e+00) (0, 0, 0.00000000000000000000e+00) (0, 0, 0.00000000000000000000e+00) (0, 0, 0.00000000000000000000e+00) (0, 0, 0.00000000000000000000e+00) (0, 0, 0.00000000000000000000e+00) (0, 0, 0.00000000000000000000e+00) (0, 0, 0.00000000000000000000e+00) (0, 0, 0.00000000000000000000e+00) (0, 0, 0.00000000000000000000e+00) (0, 0, 0.00000000000000000000e+00) (0, 0, 0.00000000000000000000e+00) (0, 0, 0.00000000000000000000e+00) (0, 0, 0.00000000000000000000e+00) (0, 0, 0.00000000000000000000e+00) (0, 0, 0.00000000000000000000e+00) (0, 0, 0.00000000000000000000e+00) (0, 0, 0.00000000000000000000e+00) (0, 0, 0.00000000000000000000e+00) (0, 0, 0.00000000000000000000e+00) (0, 0, 0.00000000000000000000e+00) (0, 0, 0.00000000000000000000e+00) (0, 0, 0.00000000000000000000e+00) (0, 0, 0.00000000000000000000e+00) (0, 0, 0.00000000000000000000e+00) (0, 0, 0.00000000000000000000e+00) (0, 0, 0.00000000000000000000e+00) (0, 0, 0.00000000000000000000e+00) (0, 0, 0.00000000000000000000e+00) (0, 0, 0.00000000000000000000e+00) (0, 0, 0.00000000000000000000e+00) (0, 0, 0.00000000000000000000e+00) (0, 0, 0.00000000000000000000e+00) (0, 0, 0.00000000000000000000e+00) (0, 0, 0.00000000000000000000e+00) (0, 0, 0.00000000000000000000e+00) (0, 0, 0.00000000000000000000e+00) (0, 0, 0.00000000000000000000e+00) (0, 0, 0.00000000000000000000e+00) (0, 0, 0.00000000000000000000e+00) (0, 0, 0.00000000000000000000e+00) (0, 0, 0.00000000000000000000e+00) (0, 0, 0.00000000000000000000e+00) (0, 0, 0.00000000000000000000e+00) (0, 0, 0.00000000000000000000e+00) (0, 0, 0.00000000000000000000e+00) (0, 0, 0.00000000000000000000e+00) (0, 0, 0.00000000000000000000e+00) (0, 0, 0.00000000000000000000e+00) (0, 0, 0.00000000000000000000e+00) (0, 0, 0.00000000000000000000e+00) (0, 0, 0.00000000000000000000e+00) (0, 0, 0.00000000000000000000e+00) (0, 0, 0.00000000000000000000e+00) (0, 0, 0.00000000000000000000e+00) (0, 0, 0.00000000000000000000e+00) (0, 0, 0.00000000000000000000e+00) (0, 0, 0.00000000000000000000e+00) (0, 0, 0.00000000000000000000e+00) (0, 0, 0.00000000000000000000e+00) (0, 0, 0.00000000000000000000e+00) (0, 0, 0.00000000000000000000e+00) (0, 0, 0.00000000000000000000e+00) (0, 0, 0.00000000000000000000e+00) (0, 0, 0.00000000000000000000e+00) (0, 0, 0.00000000000000000000e+00) (0, 0, 0.00000000000000000000e+00) (0, 0, 0.00000000000000000000e+00) (0, 0, 0.00000000000000000000e+00) (0, 0, 0.00000000000000000000e+00) (0, 0, 0.00000000000000000000e+00) (0, 0, 0.00000000000000000000e+00) (0, 0, 0.00000000000000000000e+00) (0, 0, 0.00000000000000000000e+00) (0, 0, 0.00000000000000000000e+00) (0, 0, 0.00000000000000000000e+00) (0, 0, 0.00000000000000000000e+00) (0, 0, 0.00000000000000000000e+00) (0, 0, 0.00000000000000000000e+00) (0, 0, 0.00000000000000000000e+00) (0, 0, 0.00000000000000000000e+00) (0, 0, 0.00000000000000000000e+00) (0, 0, 0.00000000000000000000e+00) (0, 0, 0.00000000000000000000e+00) (0, 0, 0.00000000000000000000e+00) (0, 0, 0.00000000000000000000e+00) (0, 0, 0.00000000000000000000e+00) (0, 0, 0.00000000000000000000e+00) (0, 0, 0.00000000000000000000e+00) (0, 0, 0.00000000000000000000e+00) (0, 0, 0.00000000000000000000e+00) (0, 0, 0.00000000000000000000e+00) (0, 0, 0.00000000000000000000e+00) (0, 0, 0.00000000000000000000e+00) (0, 0, 0.00000000000000000000e+00) (0, 0, 0.00000000000000000000e+00) (0, 0, 0.00000000000000000000e+00) (0, 0, 0.00000000000000000000e+00) (0, 0, 0.00000000000000000000e+00) (0, 0, 0.00000000000000000000e+00) (0, 0, 0.00000000000000000000e+00) (0, 0, 0.00000000000000000000e+00) (0, 0, 0.00000000000000000000e+00) (0, 0, 0.00000000000000000000e+00) (0, 0, 0.00000000000000000000e+00) (0, 0, 0.00000000000000000000e+00) (0, 0, 0.00000000000000000000e+00) (0, 0, 0.00000000000000000000e+00) (0, 0, 0.00000000000000000000e+00) (0, 0, 0.00000000000000000000e+00) (0, 0, 0.00000000000000000000e+00) (0, 0, 0.00000000000000000000e+00) (0, 0, 0.00000000000000000000e+00) (0, 0, 0.00000000000000000000e+00) (0, 0, 0.00000000000000000000e+00) (0, 0, 0.00000000000000000000e+00) (0, 0, 0.00000000000000000000e+00) (0, 0, 0.00000000000000000000e+00) (0, 0, 0.00000000000000000000e+00) (0, 0, 0.00000000000000000000e+00) (0, 0, 0.00000000000000000000e+00) (0, 0, 0.00000000000000000000e+00) (0, 0, 0.00000000000000000000e+00) (0, 0, 0.00000000000000000000e+00) (0, 0, 0.00000000000000000000e+00) (0, 0, 0.00000000000000000000e+00) (0, 0, 0.00000000000000000000e+00) (0, 0, 0.00000000000000000000e+00) (0, 0, 0.00000000000000000000e+00) (0, 0, 0.00000000000000000000e+00) (0, 0, 0.00000000000000000000e+00) (0, 0, 0.00000000000000000000e+00) (0, 0, 0.00000000000000000000e+00) (0, 0, 0.00000000000000000000e+00) (0, 0, 0.00000000000000000000e+00) (0, 0, 0.00000000000000000000e+00) (0, 0, 0.00000000000000000000e+00) (0, 0, 0.00000000000000000000e+00) (0, 0, 0.00000000000000000000e+00) (0, 0, 0.00000000000000000000e+00) (0, 0, 0.00000000000000000000e+00) (0, 0, 0.00000000000000000000e+00) (0, 0, 0.00000000000000000000e+00) (0, 0, 0.00000000000000000000e+00) (0, 0, 0.00000000000000000000e+00) (0, 0, 0.00000000000000000000e+00) (0, 0, 0.00000000000000000000e+00) (0, 0, 0.00000000000000000000e+00) (0, 0, 0.00000000000000000000e+00) (0, 0, 0.00000000000000000000e+00) (0, 0, 0.00000000000000000000e+00) (0, 0, 0.00000000000000000000e+00) (0, 0, 0.00000000000000000000e+00) (0, 0, 0.00000000000000000000e+00) (0, 0, 0.00000000000000000000e+00) (0, 0, 0.00000000000000000000e+00) (0, 0, 0.00000000000000000000e+00) (0, 0, 0.00000000000000000000e+00) (0, 0, 0.00000000000000000000e+00) (0, 0, 0.00000000000000000000e+00) (0, 0, 0.00000000000000000000e+00) (0, 0, 0.00000000000000000000e+00) (0, 0, 0.00000000000000000000e+00) (0, 0, 0.00000000000000000000e+00) (0, 0, 0.00000000000000000000e+00) (0, 0, 0.00000000000000000000e+00) (0, 0, 0.00000000000000000000e+00) (0, 0, 0.00000000000000000000e+00) (0, 0, 0.00000000000000000000e+00) (0, 0, 0.00000000000000000000e+00) (0, 0, 0.00000000000000000000e+00) (0, 0, 0.00000000000000000000e+00) (0, 0, 0.00000000000000000000e+00) (0, 0, 0.00000000000000000000e+00) (0, 0, 0.00000000000000000000e+00) (0, 0, 0.00000000000000000000e+00) (0, 0, 0.00000000000000000000e+00) (0, 0, 0.00000000000000000000e+00) (0, 0, 0.00000000000000000000e+00) (0, 0, 0.00000000000000000000e+00) (0, 0, 0.00000000000000000000e+00) (0, 0, 0.00000000000000000000e+00) (0, 0, 0.00000000000000000000e+00) (0, 0, 0.00000000000000000000e+00) (0, 0, 0.00000000000000000000e+00) (0, 0, 0.00000000000000000000e+00) (0, 0, 0.00000000000000000000e+00) (0, 0, 0.00000000000000000000e+00) (0, 0, 0.00000000000000000000e+00) (0, 0, 0.00000000000000000000e+00) (0, 0, 0.00000000000000000000e+00) (0, 0, 0.00000000000000000000e+00) (0, 0, 0.00000000000000000000e+00) (0, 0, 0.00000000000000000000e+00) (0, 0, 0.00000000000000000000e+00) (0, 0, 0.00000000000000000000e+00) (0, 0, 0.00000000000000000000e+00) (0, 0, 0.00000000000000000000e+00) (0, 0, 0.00000000000000000000e+00) (0, 0, 0.00000000000000000000e+00) (0, 0, 0.00000000000000000000e+00) (0, 0, 0.00000000000000000000e+00) (0, 0, 0.00000000000000000000e+00) (0, 0, 0.00000000000000000000e+00) (0, 0, 0.00000000000000000000e+00) (0, 0, 0.00000000000000000000e+00) (0, 0, 0.00000000000000000000e+00) (0, 0, 0.00000000000000000000e+00) (0, 0, 0.00000000000000000000e+00) (0, 0, 0.00000000000000000000e+00) (0, 0, 0.00000000000000000000e+00) (0, 0, 0.00000000000000000000e+00) (0, 0, 0.00000000000000000000e+00) (0, 0, 0.00000000000000000000e+00) (0, 0, 0.00000000000000000000e+00) (0, 0, 0.00000000000000000000e+00) (0, 0, 0.00000000000000000000e+00) (0, 0, 0.00000000000000000000e+00) (0, 0, 0.00000000000000000000e+00) (0, 0, 0.00000000000000000000e+00) (0, 0, 0.00000000000000000000e+00) (0, 0, 0.00000000000000000000e+00) (0, 0, 0.00000000000000000000e+00) (0, 0, 0.00000000000000000000e+00) (0, 0, 0.00000000000000000000e+00) (0, 0, 0.00000000000000000000e+00) (0, 0, 0.00000000000000000000e+00) (0, 0, 0.00000000000000000000e+00) (0, 0, 0.00000000000000000000e+00) (0, 0, 0.00000000000000000000e+00) (0, 0, 0.00000000000000000000e+00) (0, 0, 0.00000000000000000000e+00) (0, 0, 0.00000000000000000000e+00) (0, 0, 0.00000000000000000000e+00) (0, 0, 0.00000000000000000000e+00) (0, 0, 0.00000000000000000000e+00) (0, 0, 0.00000000000000000000e+00) (0, 0, 0.00000000000000000000e+00) (0, 0, 0.00000000000000000000e+00) (0, 0, 0.00000000000000000000e+00) (0, 0, 0.00000000000000000000e+00) (0, 0, 0.00000000000000000000e+00) (0, 0, 0.00000000000000000000e+00) (0, 0, 0.00000000000000000000e+00) (0, 0, 0.00000000000000000000e+00) (0, 0, 0.00000000000000000000e+00) (0, 0, 0.00000000000000000000e+00) (0, 0, 0.00000000000000000000e+00) (0, 0, 0.00000000000000000000e+00) (0, 0, 0.00000000000000000000e+00) (0, 0, 0.00000000000000000000e+00) (0, 0, 0.00000000000000000000e+00) (0, 0, 0.00000000000000000000e+00) (0, 0, 0.00000000000000000000e+00) (0, 0, 0.00000000000000000000e+00) (0, 0, 0.00000000000000000000e+00) (0, 0, 0.00000000000000000000e+00) (0, 0, 0.00000000000000000000e+00) (0, 0, 0.00000000000000000000e+00) (0, 0, 0.00000000000000000000e+00) (0, 0, 0.00000000000000000000e+00) (0, 0, 0.00000000000000000000e+00) (0, 0, 0.00000000000000000000e+00) (0, 0, 0.00000000000000000000e+00) (0, 0, 0.00000000000000000000e+00) (0, 0, 0.00000000000000000000e+00) (0, 0, 0.00000000000000000000e+00) (0, 0, 0.00000000000000000000e+00) (0, 0, 0.00000000000000000000e+00) (0, 0, 0.00000000000000000000e+00) (1025, 5, 5.00000000000000000000e-01) (1025, 5, 5.00000000000000000000e-01) (1025, 5, 5.00000000000000000000e-01) (1025, 5, 5.00000000000000000000e-01) (1025, 5, 5.00000000000000000000e-01) (1025, 5, 5.00000000000000000000e-01) (1025, 5, 5.00000000000000000000e-01) (1025, 5, 5.00000000000000000000e-01) (1025, 5, 5.00000000000000000000e-01) (1025, 5, 5.00000000000000000000e-01) (0, 5, 0.00000000000000000000e+00) (11, 5, 5.00000000000000000000e-01) (11, 5, 5.00000000000000000000e-01) (0, 5, 0.00000000000000000000e+00) 
connections (connected_to_neuron, weight)=(0, -2.87339508533477783203e-01) (1, -3.35994631052017211914e-01) (2, -3.19396406412124633789e-01) (3, -3.49941849708557128906e-01) (4, -2.22580447793006896973e-01) (5, -3.06409657001495361328e-01) (6, -2.64017701148986816406e-01) (7, -3.52833837270736694336e-01) (8, -3.39356631040573120117e-01) (9, -2.04592213034629821777e-01) (10, -3.42105090618133544922e-01) (11, -2.01785862445831298828e-01) (12, -1.85278728604316711426e-01) (13, -1.58734515309333801270e-01) (14, -2.96556383371353149414e-01) (15, -2.36313179135322570801e-01) (16, -1.86326161026954650879e-01) (17, -3.24657768011093139648e-01) (18, -3.12029063701629638672e-01) (19, -2.35992506146430969238e-01) (20, -1.83090880513191223145e-01) (21, -1.94361820816993713379e-01) (22, -2.50365823507308959961e-01) (23, -2.13664799928665161133e-01) (24, -2.80932456254959106445e-01) (25, -1.96962952613830566406e-01) (26, -2.91507035493850708008e-01) (27, -2.74375617504119873047e-01) (28, -4.13863211870193481445e-01) (29, -4.06065732240676879883e-01) (30, -2.78730452060699462891e-01) (31, -3.41975450515747070312e-01) (32, -2.91015535593032836914e-01) (33, -3.54608297348022460938e-01) (34, -2.51573413610458374023e-01) (35, -1.57096982002258300781e-01) (36, -3.04614365100860595703e-01) (37, -1.60494729876518249512e-01) (38, -1.56466230750083923340e-01) (39, -2.88519620895385742188e-01) (40, -2.09640234708786010742e-01) (41, -3.45281839370727539062e-01) (42, -3.36845636367797851562e-01) (43, -2.40482583642005920410e-01) (44, -3.48170429468154907227e-01) (45, -2.79173433780670166016e-01) (46, -3.23108345270156860352e-01) (47, -1.82417869567871093750e-01) (48, -2.52020001411437988281e-01) (49, -2.83058762550354003906e-01) (50, -2.67084062099456787109e-01) (51, -2.84256100654602050781e-01) (52, -3.25718611478805541992e-01) (53, -1.66345313191413879395e-01) (54, -3.46509635448455810547e-01) (55, -2.56979137659072875977e-01) (56, -2.09685295820236206055e-01) (57, -2.84020990133285522461e-01) (58, -1.76119923591613769531e-01) (59, -1.83616936206817626953e-01) (60, -2.44983732700347900391e-01) (61, -2.14152529835700988770e-01) (62, -3.71610552072525024414e-01) (63, -2.01372817158699035645e-01) (64, -3.03025335073471069336e-01) (65, -2.72804170846939086914e-01) (66, -2.75707572698593139648e-01) (67, -1.65997266769409179688e-01) (68, -1.91106721758842468262e-01) (69, -1.90877899527549743652e-01) (70, -2.98515945672988891602e-01) (71, -2.45021924376487731934e-01) (72, -1.78994715213775634766e-01) (73, -2.80797660350799560547e-01) (74, -3.30783724784851074219e-01) (75, -1.76882728934288024902e-01) (76, -2.09331288933753967285e-01) (77, -2.98842936754226684570e-01) (78, -2.06920892000198364258e-01) (79, -3.07526081800460815430e-01) (80, -2.31541097164154052734e-01) (81, -3.20545017719268798828e-01) (82, -2.41424128413200378418e-01) (83, -2.07818165421485900879e-01) (84, -3.36474716663360595703e-01) (85, -2.38200634717941284180e-01) (86, -3.13467442989349365234e-01) (87, -1.96152955293655395508e-01) (88, -1.71529203653335571289e-01) (89, -3.37292045354843139648e-01) (90, -3.08371812105178833008e-01) (91, -3.45292508602142333984e-01) (92, -2.80174493789672851562e-01) (93, -4.41966444253921508789e-01) (94, -3.76773297786712646484e-01) (95, -2.75702804327011108398e-01) (96, -1.80276244878768920898e-01) (97, -3.17940264940261840820e-01) (98, -2.57119297981262207031e-01) (99, -2.11862489581108093262e-01) (100, -3.47069561481475830078e-01) (101, -1.95461586117744445801e-01) (102, -2.97361552715301513672e-01) (103, -1.71483367681503295898e-01) (104, -3.19654762744903564453e-01) (105, -2.71620362997055053711e-01) (106, -1.90049514174461364746e-01) (107, -1.70638233423233032227e-01) (108, -3.02281290292739868164e-01) (109, -2.40849569439888000488e-01) (110, -4.10457521677017211914e-01) (111, -2.92466491460800170898e-01) (112, -2.04970002174377441406e-01) (113, -2.98092186450958251953e-01) (114, -4.33152884244918823242e-01) (115, -2.74472892284393310547e-01) (116, -3.74506592750549316406e-01) (117, -3.85065972805023193359e-01) (118, -3.09054136276245117188e-01) (119, -3.91436994075775146484e-01) (120, -3.64335745573043823242e-01) (121, -3.78565013408660888672e-01) (122, -2.94141024351119995117e-01) (123, -4.03994590044021606445e-01) (124, -3.77679139375686645508e-01) (125, -4.30968433618545532227e-01) (126, -2.28295803070068359375e-01) (127, -1.44201174378395080566e-01) (128, -3.02291721105575561523e-01) (129, -3.15537750720977783203e-01) (130, -1.68901294469833374023e-01) (131, -2.94888526201248168945e-01) (132, -3.55441957712173461914e-01) (133, -3.11285018920898437500e-01) (134, -3.09247255325317382812e-01) (135, -4.04593139886856079102e-01) (136, -3.13891798257827758789e-01) (137, -4.30491060018539428711e-01) (138, -4.21052813529968261719e-01) (139, -3.74685615301132202148e-01) (140, -3.11737120151519775391e-01) (141, -3.82963031530380249023e-01) (142, -3.06142091751098632812e-01) (143, -3.63661855459213256836e-01) (144, -3.30666810274124145508e-01) (145, -1.76495969295501708984e-01) (146, -3.64769995212554931641e-01) (147, -3.64192903041839599609e-01) (148, -4.30703163146972656250e-01) (149, -2.51215040683746337891e-01) (150, -3.12375724315643310547e-01) (151, -3.57606053352355957031e-01) (152, -3.82950574159622192383e-01) (153, -3.69163244962692260742e-01) (154, -3.23120445013046264648e-01) (155, -3.17222625017166137695e-01) (156, -2.74608433246612548828e-01) (157, -2.97740548849105834961e-01) (158, -7.41174956783652305603e-03) (159, -1.32669098675251007080e-02) (160, -2.56670802831649780273e-01) (161, -2.05441445112228393555e-01) (162, -3.54754328727722167969e-01) (163, -2.55352526903152465820e-01) (164, -1.59964799880981445312e-01) (165, -3.09041082859039306641e-01) (166, -3.10716241598129272461e-01) (167, -2.09396675229072570801e-01) (168, -3.04844617843627929688e-01) (169, -2.47644335031509399414e-01) (170, -4.12073403596878051758e-01) (171, -4.04053628444671630859e-01) (172, -3.77088576555252075195e-01) (173, -2.64109402894973754883e-01) (174, -3.20658922195434570312e-01) (175, -2.86825805902481079102e-01) (176, -1.64264053106307983398e-01) (177, -1.16379365324974060059e-01) (178, -1.79774105548858642578e-01) (179, -1.99793681502342224121e-01) (180, -2.68019407987594604492e-01) (181, -3.65898668766021728516e-01) (182, -3.43385547399520874023e-01) (183, -3.21237713098526000977e-01) (184, -2.07968980073928833008e-01) (185, -2.22334682941436767578e-01) (186, -1.94546297192573547363e-01) (187, -3.19106131792068481445e-01) (188, -5.73479980230331420898e-02) (189, -4.48903962969779968262e-02) (190, 1.93367525935173034668e-02) (191, -7.41584375500679016113e-02) (192, -2.75554776191711425781e-01) (193, -1.76965445280075073242e-01) (194, -1.60778567194938659668e-01) (195, -2.77774453163146972656e-01) (196, -3.24787348508834838867e-01) (197, -3.21896195411682128906e-01) (198, -3.11065852642059326172e-01) (199, -9.70287472009658813477e-02) (200, -1.59389451146125793457e-01) (201, -2.85622745752334594727e-01) (202, -1.96808338165283203125e-01) (203, -1.55326291918754577637e-01) (204, -1.22801698744297027588e-01) (205, -2.64688372611999511719e-01) (206, -2.82915830612182617188e-01) (207, -2.18166902661323547363e-01) (208, -3.53559821844100952148e-01) (209, -1.94354474544525146484e-01) (210, -2.87436187267303466797e-01) (211, -2.32286080718040466309e-01) (212, -3.02606791257858276367e-01) (213, -1.56647726893424987793e-01) (214, -1.72473907470703125000e-01) (215, -2.51968810334801673889e-03) (216, -1.32913170382380485535e-02) (217, -4.79810824617743492126e-03) (218, -1.57973513007164001465e-01) (219, -1.70039385557174682617e-02) (220, -1.96355190128087997437e-02) (221, 7.88725614547729492188e-02) (222, 1.42125219106674194336e-01) (223, 3.11419039964675903320e-01) (224, -1.75835743546485900879e-01) (225, -3.04922968149185180664e-01) (226, -2.93418496847152709961e-01) (227, -3.45934480428695678711e-01) (228, -1.30270078778266906738e-01) (229, -1.31218537688255310059e-01) (230, -1.95437207818031311035e-01) (231, -3.09724509716033935547e-01) (232, -5.51673054695129394531e-01) (233, -6.86505675315856933594e-01) (234, -4.80226665735244750977e-01) (235, -4.55358117818832397461e-01) (236, -1.23568868637084960938e+00) (237, -1.80725908279418945312e+00) (238, -1.18236851692199707031e+00) (239, -3.93751680850982666016e-01) (240, -3.22567373514175415039e-01) (241, -3.18045765161514282227e-01) (242, -3.34096819162368774414e-01) (243, -8.49584862589836120605e-02) (244, -1.09669551253318786621e-01) (245, 1.45380571484565734863e-01) (246, 1.39386698603630065918e-01) (247, 2.63425558805465698242e-01) (248, 1.15228801965713500977e-01) (249, 1.62649258971214294434e-01) (250, 2.31800422072410583496e-01) (251, 2.29399040341377258301e-01) (252, 1.70437768101692199707e-01) (253, 1.37093842029571533203e-01) (254, 4.23678338527679443359e-01) (255, 3.76966983079910278320e-01) (256, -2.93410956859588623047e-01) (257, -1.65789514780044555664e-01) (258, -3.71451169252395629883e-01) (259, -2.84836769104003906250e-01) (260, -2.30293735861778259277e-01) (261, -2.30072081089019775391e-01) (262, -6.01371407508850097656e-01) (263, -5.50728976726531982422e-01) (264, -5.31025171279907226562e-01) (265, -5.11837482452392578125e-01) (266, -5.49593210220336914062e-01) (267, -7.73094654083251953125e-01) (268, -1.15070486068725585938e+00) (269, -3.52961510419845581055e-01) (270, -2.68250375986099243164e-01) (271, -1.25199124217033386230e-01) (272, -1.05567239224910736084e-01) (273, -7.82632380723953247070e-02) (274, -2.92046725749969482422e-01) (275, -1.49653658270835876465e-01) (276, -1.21704436838626861572e-01) (277, 8.97897556424140930176e-02) (278, 4.42267000675201416016e-01) (279, 2.11910352110862731934e-01) (280, 2.64283776283264160156e-01) (281, 2.54232764244079589844e-01) (282, 1.34747281670570373535e-01) (283, 1.85669183731079101562e-01) (284, 3.71150791645050048828e-01) (285, 3.51492667198181152344e+00) (286, 6.13174498081207275391e-01) (287, 4.01218175888061523438e-01) (288, -2.13969111442565917969e-01) (289, -1.76100850105285644531e-01) (290, -3.95500212907791137695e-01) (291, -2.95904010534286499023e-01) (292, -2.55196183919906616211e-01) (293, -1.08875215053558349609e+00) (294, -4.81596410274505615234e-01) (295, -8.49280580878257751465e-02) (296, 9.67297181487083435059e-02) (297, -5.62192276120185852051e-02) (298, -1.25910893082618713379e-01) (299, 1.02310650050640106201e-01) (300, 8.68652462959289550781e-02) (301, -8.27668383717536926270e-02) (302, 6.91565945744514465332e-02) (303, -1.59987881779670715332e-01) (304, -2.94539302587509155273e-01) (305, -2.39447370171546936035e-01) (306, -1.14582665264606475830e-01) (307, -5.88886365294456481934e-02) (308, -2.58308351039886474609e-02) (309, -2.29825675487518310547e-01) (310, -2.78229027986526489258e-01) (311, -9.98174864798784255981e-03) (312, 1.36207208037376403809e-01) (313, 1.02764642238616943359e+00) (314, 6.88533544540405273438e-01) (315, 6.56469225883483886719e-01) (316, 5.24123907089233398438e-01) (317, -1.13267517089843750000e+00) (318, -2.47957870364189147949e-01) (319, -1.60229533910751342773e-01) (320, -3.14556896686553955078e-01) (321, -4.33515489101409912109e-01) (322, -2.47795894742012023926e-01) (323, -4.56379592418670654297e-01) (324, -3.06981468200683593750e+00) (325, -6.22523307800292968750e-01) (326, -1.64195850491523742676e-01) (327, 1.32289513945579528809e-01) (328, -1.48786082863807678223e-01) (329, -1.00261822342872619629e-01) (330, 1.76250770688056945801e-01) (331, -5.46668946743011474609e-01) (332, -1.33174464106559753418e-01) (333, -2.44700208306312561035e-01) (334, -1.91742241382598876953e-01) (335, -1.78329631686210632324e-01) (336, -2.23300829529762268066e-01) (337, -3.05603504180908203125e-01) (338, -1.22765287756919860840e-01) (339, -2.80213892459869384766e-01) (340, -4.38255250453948974609e-01) (341, -1.26871240139007568359e+00) (342, -8.59128475189208984375e-01) (343, 2.43438780307769775391e-02) (344, -7.78181925415992736816e-02) (345, 2.20522895455360412598e-01) (346, 1.21870720386505126953e+00) (347, 2.77877402305603027344e+00) (348, 3.02318334579467773438e-01) (349, -3.59023883938789367676e-02) (350, -1.05120070278644561768e-01) (351, -2.05136030912399291992e-01) (352, -2.70301669836044311523e-01) (353, -2.77657598257064819336e-01) (354, -3.18644493818283081055e-01) (355, -2.95667314529418945312e+00) (356, -7.47354030609130859375e-01) (357, -3.09703052043914794922e-01) (358, 3.46042700111865997314e-02) (359, 2.15679146349430084229e-02) (360, -7.67632499337196350098e-02) (361, 1.65473699569702148438e-01) (362, -4.74454927444458007812e+00) (363, -5.82886838912963867188e+00) (364, -2.00056195259094238281e-01) (365, -2.07613244652748107910e-01) (366, -1.17498874664306640625e-01) (367, -3.61493974924087524414e-01) (368, -2.45095849037170410156e-01) (369, -1.56760215759277343750e-01) (370, -2.48936831951141357422e-01) (371, -3.17036062479019165039e-01) (372, -6.50418579578399658203e-01) (373, -2.38668799400329589844e+00) (374, -1.35414242744445800781e-01) (375, -2.37487912178039550781e-01) (376, 1.53354346752166748047e-01) (377, -7.79046565294265747070e-02) (378, -2.68133729696273803711e-01) (379, -5.40960609912872314453e-01) (380, 2.85059716552495956421e-02) (381, 1.87420189380645751953e-01) (382, 2.65166461467742919922e-01) (383, -6.50695636868476867676e-02) (384, -2.65192687511444091797e-01) (385, -1.46087735891342163086e-01) (386, -8.63158643245697021484e-01) (387, -1.37460613250732421875e+00) (388, -5.72017908096313476562e-01) (389, -6.41405507922172546387e-02) (390, -1.20255783200263977051e-01) (391, 5.92551776207983493805e-04) (392, -3.14498424530029296875e-01) (393, 8.35264399647712707520e-02) (394, -1.64799416065216064453e+00) (395, -1.95437800884246826172e+00) (396, -2.89045929908752441406e-01) (397, -3.48138183355331420898e-01) (398, -2.82108575105667114258e-01) (399, -1.64765834808349609375e-01) (400, -3.00483852624893188477e-01) (401, -2.08649799227714538574e-01) (402, -2.04546481370925903320e-01) (403, -3.93729805946350097656e-01) (404, -7.34394609928131103516e-01) (405, -6.74591779708862304688e-01) (406, -6.64282590150833129883e-02) (407, -1.15945719182491302490e-01) (408, -2.17082992196083068848e-01) (409, -2.23298370838165283203e-01) (410, -3.74650537967681884766e-01) (411, -3.82053554058074951172e-01) (412, -6.89931297302246093750e+00) (413, -1.43975508213043212891e+00) (414, -1.55821606516838073730e-01) (415, -4.96814966201782226562e-01) (416, -2.90438860654830932617e-01) (417, -3.10670167207717895508e-01) (418, -3.87225890159606933594e+00) (419, -1.06178426742553710938e+00) (420, -5.16272634267807006836e-02) (421, -2.59500950574874877930e-01) (422, -1.67705029249191284180e-01) (423, 1.46541986614465713501e-02) (424, -1.58890992403030395508e-01) (425, -3.57541292905807495117e-01) (426, -5.74407935142517089844e-01) (427, -4.88301336765289306641e-01) (428, -2.37326338887214660645e-01) (429, -3.22647243738174438477e-01) (430, -5.11406064033508300781e-01) (431, -2.28240758180618286133e-01) (432, -1.46853640675544738770e-01) (433, -1.48740977048873901367e-01) (434, -3.15680682659149169922e-01) (435, -1.18585847318172454834e-01) (436, -5.63119232654571533203e-01) (437, -5.05463409423828125000e+00) (438, -1.33756861090660095215e-01) (439, -3.21435302495956420898e-01) (440, -2.54623562097549438477e-01) (441, -1.18808418512344360352e-01) (442, -1.00327930450439453125e+01) (443, -1.04533720016479492188e+00) (444, -1.00301074981689453125e+00) (445, -2.78612613677978515625e+00) (446, -1.52304843068122863770e-01) (447, -2.26932287216186523438e-01) (448, -3.00706416368484497070e-01) (449, -2.21527740359306335449e-01) (450, -4.11069393157958984375e+00) (451, -1.87868452072143554688e+00) (452, -1.42978116869926452637e-01) (453, -2.63268202543258666992e-01) (454, -1.28047898411750793457e-01) (455, -1.14431001245975494385e-01) (456, -2.58565515279769897461e-01) (457, -3.54264110326766967773e-01) (458, -3.29459190368652343750e-01) (459, -2.05736458301544189453e-01) (460, -2.39143669605255126953e-01) (461, -3.26286405324935913086e-01) (462, -2.59518623352050781250e-01) (463, -2.43692964315414428711e-01) (464, -1.02894276380538940430e-01) (465, -2.44291812181472778320e-01) (466, -1.68112862110137939453e+00) (467, -3.05054455995559692383e-01) (468, -3.13167154788970947266e-01) (469, -4.56069260835647583008e-01) (470, -1.58425971865653991699e-01) (471, -3.39347302913665771484e-01) (472, -1.62626951932907104492e-01) (473, -3.06223005056381225586e-01) (474, -1.39407789707183837891e+00) (475, -9.03123378753662109375e-01) (476, -2.28212594985961914062e-01) (477, -2.09522628784179687500e+00) (478, -4.14414584636688232422e-01) (479, -2.11431860923767089844e-01) (480, -3.54910612106323242188e-01) (481, -3.18848043680191040039e-01) (482, -2.38668608665466308594e+00) (483, -1.82522869110107421875e+00) (484, -1.81053295731544494629e-01) (485, -1.00902520120143890381e-01) (486, -8.07615742087364196777e-02) (487, -6.16603419184684753418e-02) (488, -2.60604351758956909180e-01) (489, -3.75918656587600708008e-01) (490, -1.94589778780937194824e-01) (491, -1.67658850550651550293e-01) (492, -2.83883243799209594727e-01) (493, -2.94661194086074829102e-01) (494, -2.53072082996368408203e-01) (495, -2.36148148775100708008e-01) (496, -2.26747363805770874023e-01) (497, -2.88505613803863525391e-01) (498, -7.57291734218597412109e-01) (499, -2.23168298602104187012e-01) (500, -2.01924189925193786621e-01) (501, -2.11093887686729431152e-01) (502, -2.59070485830307006836e-01) (503, -2.43851467967033386230e-01) (504, -1.29883378744125366211e-01) (505, -1.62124037742614746094e-01) (506, -1.37435615062713623047e+00) (507, -3.95579028129577636719e+00) (508, -2.64909029006958007812e-01) (509, -1.57995402812957763672e+00) (510, -1.32260012626647949219e+00) (511, -2.75278836488723754883e-01) (512, -3.21135699748992919922e-01) (513, -2.82988667488098144531e-01) (514, -5.95861375331878662109e-01) (515, -4.88650649785995483398e-01) (516, -6.89878091216087341309e-02) (517, 1.62217412143945693970e-02) (518, -5.03361187875270843506e-02) (519, -1.95650041103363037109e-01) (520, -2.18196734786033630371e-01) (521, -3.74282002449035644531e-01) (522, -3.20999145507812500000e-01) (523, -2.13235333561897277832e-01) (524, -4.36503827571868896484e-01) (525, -2.98815369606018066406e-01) (526, -3.09993535280227661133e-01) (527, -3.55407297611236572266e-01) (528, -1.90656021237373352051e-01) (529, -4.35535132884979248047e-01) (530, -9.42434012889862060547e-01) (531, -2.10736975073814392090e-01) (532, -2.95370250940322875977e-01) (533, -4.20842856168746948242e-01) (534, -3.23026657104492187500e-01) (535, -3.60017865896224975586e-01) (536, -1.97807624936103820801e-01) (537, -2.27773651480674743652e-01) (538, -1.33736538887023925781e+00) (539, -3.63470602035522460938e+00) (540, -2.02008560299873352051e-01) (541, -8.05572271347045898438e-01) (542, -3.68031948804855346680e-01) (543, -1.81707963347434997559e-01) (544, -3.18156212568283081055e-01) (545, -4.27984923124313354492e-01) (546, 2.56433114409446716309e-02) (547, -2.51970916986465454102e-01) (548, -1.99530541896820068359e-01) (549, -6.17767348885536193848e-02) (550, -1.28008782863616943359e-01) (551, -3.21080803871154785156e-01) (552, -3.15074920654296875000e-01) (553, -3.75532358884811401367e-01) (554, -3.20364922285079956055e-01) (555, -2.39643067121505737305e-01) (556, -3.68829965591430664062e-01) (557, -4.09157395362854003906e-01) (558, -3.96641790866851806641e-01) (559, -3.80844563245773315430e-01) (560, -3.19994121789932250977e-01) (561, -4.10146415233612060547e-01) (562, -6.34092748165130615234e-01) (563, -1.40907913446426391602e-01) (564, -2.55801975727081298828e-01) (565, -3.94500672817230224609e-01) (566, -3.06385695934295654297e-01) (567, -4.02898669242858886719e-01) (568, -1.30737558007240295410e-01) (569, -1.57813310623168945312e-01) (570, -2.66042947769165039062e-01) (571, -1.31600713729858398438e+00) (572, -1.74924850463867187500e-01) (573, -1.32004365324974060059e-01) (574, -1.92168056964874267578e-01) (575, -1.74184396862983703613e-01) (576, -3.46311420202255249023e-01) (577, -4.21149104833602905273e-01) (578, 7.65326321125030517578e-01) (579, -2.40572601556777954102e-01) (580, -7.27363944053649902344e-01) (581, -2.83103168010711669922e-01) (582, -4.46717441082000732422e-02) (583, -2.88484305143356323242e-01) (584, -3.68387579917907714844e-01) (585, -2.90785819292068481445e-01) (586, -1.24107563495635986328e+00) (587, -9.18921351432800292969e-01) (588, -2.99320638179779052734e-01) (589, -2.11469128727912902832e-01) (590, -4.75130766630172729492e-01) (591, -1.91501006484031677246e-01) (592, -2.57044941186904907227e-01) (593, -3.55036467313766479492e-01) (594, -1.78677350282669067383e-01) (595, -4.01403695344924926758e-01) (596, -1.81484490633010864258e-01) (597, -3.10291439294815063477e-01) (598, -3.25969487428665161133e-01) (599, -3.81962180137634277344e-01) (600, -3.83113801479339599609e-01) (601, -3.88398230075836181641e-01) (602, -2.91783869266510009766e-01) (603, -1.73812568187713623047e-01) (604, -1.13679639995098114014e-01) (605, -2.90668815374374389648e-01) (606, -2.90018498897552490234e-01) (607, -3.17776739597320556641e-01) (608, -1.81384071707725524902e-01) (609, -2.92266398668289184570e-01) (610, -1.83574527502059936523e-01) (611, -1.08535345643758773804e-02) (612, -2.70626604557037353516e-01) (613, -2.43487939238548278809e-01) (614, -4.17401850223541259766e-01) (615, -1.90690174698829650879e-01) (616, -4.23250913619995117188e-01) (617, -3.85903000831604003906e-01) (618, -3.33150178194046020508e-01) (619, -8.77460598945617675781e-01) (620, -1.40227809548377990723e-01) (621, -2.02116042375564575195e-01) (622, -3.43998044729232788086e-01) (623, -2.12886363267898559570e-01) (624, -2.88297981023788452148e-01) (625, -4.04609888792037963867e-01) (626, -3.78609120845794677734e-01) (627, -5.39484560489654541016e-01) (628, -8.99146318435668945312e-01) (629, -2.04121425747871398926e-01) (630, -1.91632837057113647461e-01) (631, -3.36871415376663208008e-01) (632, -3.04944455623626708984e-01) (633, -3.76287460327148437500e-01) (634, -3.34691047668457031250e-01) (635, -1.60667970776557922363e-01) (636, -3.43243628740310668945e-01) (637, -4.29703116416931152344e-01) (638, -1.74515545368194580078e-01) (639, -2.21536830067634582520e-01) (640, -2.44645029306411743164e-01) (641, -3.05625885725021362305e-01) (642, -2.16754540801048278809e-01) (643, 3.73313784599304199219e-01) (644, 5.37754356861114501953e-01) (645, -1.46215602755546569824e-01) (646, -2.31682330369949340820e-01) (647, -2.20507845282554626465e-01) (648, -2.13979437947273254395e-01) (649, -2.92190611362457275391e-01) (650, -3.91616582870483398438e-01) (651, -4.13104176521301269531e-01) (652, -2.93757110834121704102e-01) (653, -2.94083595275878906250e-01) (654, -2.93264627456665039062e-01) (655, -1.56635046005249023438e-01) (656, -1.79966405034065246582e-01) (657, -3.01936715841293334961e-01) (658, -2.77290910482406616211e-01) (659, -3.94606739282608032227e-01) (660, -3.48950833082199096680e-01) (661, -1.68257072567939758301e-01) (662, -3.13630908727645874023e-01) (663, -4.07576143741607666016e-01) (664, -4.29521173238754272461e-01) (665, -2.06557527184486389160e-01) (666, 1.00292116403579711914e-01) (667, -2.05150082707405090332e-01) (668, -3.03267031908035278320e-01) (669, -2.49460116028785705566e-01) (670, -1.82082861661911010742e-01) (671, -8.48173201084136962891e-02) (672, -1.66117206215858459473e-01) (673, -3.21944385766983032227e-01) (674, -2.95267850160598754883e-01) (675, -3.02889764308929443359e-01) (676, 6.86097890138626098633e-02) (677, 7.22247600555419921875e-01) (678, -7.71471783518791198730e-02) (679, -1.28356441855430603027e-01) (680, 1.40016258228570222855e-03) (681, -3.05301904678344726562e-01) (682, -3.44519466161727905273e-01) (683, -3.48357915878295898438e-01) (684, -3.73240053653717041016e-01) (685, -4.40539836883544921875e-01) (686, -1.32002949714660644531e-01) (687, -1.14368572831153869629e-01) (688, -2.47734934091567993164e-01) (689, -4.36353743076324462891e-01) (690, -2.72411167621612548828e-01) (691, -3.50095242261886596680e-01) (692, -2.67126709222793579102e-01) (693, -4.01899248361587524414e-01) (694, -3.03907632827758789062e-01) (695, -2.59956240653991699219e-01) (696, -1.77549570798873901367e-01) (697, -2.42235176265239715576e-02) (698, 6.61174878478050231934e-02) (699, -3.11769753694534301758e-01) (700, -9.76441204547882080078e-02) (701, 1.31776690483093261719e-01) (702, 1.42881229519844055176e-01) (703, 9.03515145182609558105e-02) (704, -2.55537450313568115234e-01) (705, -3.17557722330093383789e-01) (706, -1.92449063062667846680e-01) (707, -3.59074532985687255859e-01) (708, -2.01508313417434692383e-01) (709, -2.33828142285346984863e-01) (710, 3.78936707973480224609e-01) (711, 5.82104027271270751953e-01) (712, 1.98515087366104125977e-01) (713, -1.31434082984924316406e-01) (714, -2.42579340934753417969e-01) (715, -3.90710860490798950195e-01) (716, -3.60011160373687744141e-01) (717, -1.62439152598381042480e-01) (718, -2.78329737484455108643e-02) (719, -1.19214214384555816650e-01) (720, -3.48880171775817871094e-01) (721, -3.13467532396316528320e-01) (722, -3.10292959213256835938e-01) (723, -1.99426591396331787109e-01) (724, -1.94748565554618835449e-01) (725, -2.53824442625045776367e-01) (726, -2.03588366508483886719e-01) (727, -2.55220830440521240234e-01) (728, -1.74544617533683776855e-01) (729, 2.25733920931816101074e-01) (730, 2.60115355253219604492e-01) (731, 1.63137406110763549805e-01) (732, -2.52866111695766448975e-02) (733, 2.23161831498146057129e-01) (734, 2.48278260231018066406e-01) (735, 2.25636228919029235840e-01) (736, -1.68505623936653137207e-01) (737, -2.41872131824493408203e-01) (738, -2.23757877945899963379e-01) (739, -2.89628624916076660156e-01) (740, -1.40096530318260192871e-01) (741, -4.22984287142753601074e-02) (742, -1.42258852720260620117e-01) (743, 2.94167131185531616211e-01) (744, 5.19391298294067382812e-01) (745, 6.13077402114868164062e-01) (746, 9.25353355705738067627e-03) (747, -8.65046083927154541016e-02) (748, -2.70315319299697875977e-01) (749, -1.95265576243400573730e-01) (750, -4.05092798173427581787e-02) (751, -1.22125118970870971680e-01) (752, -2.52962917089462280273e-01) (753, -2.75293916463851928711e-01) (754, -3.25989127159118652344e-01) (755, -2.99314886331558227539e-01) (756, -2.56906822323799133301e-02) (757, -2.25144065916538238525e-02) (758, -4.59470003843307495117e-02) (759, 2.38748550415039062500e-01) (760, 1.98306247591972351074e-01) (761, 1.99199482798576354980e-01) (762, 1.48767367005348205566e-01) (763, 2.43172019720077514648e-01) (764, 1.48615464568138122559e-01) (765, 7.45209157466888427734e-02) (766, 1.36790245771408081055e-01) (767, 1.22222751379013061523e-01) (768, -2.36361846327781677246e-01) (769, -3.48920226097106933594e-01) (770, -2.41050601005554199219e-01) (771, -3.08881640434265136719e-01) (772, -1.56983137130737304688e-01) (773, -2.98300564289093017578e-01) (774, -1.48154243826866149902e-01) (775, -2.03011900186538696289e-01) (776, 1.33893504738807678223e-01) (777, 1.13444223999977111816e-01) (778, 1.63915529847145080566e-01) (779, 8.94680842757225036621e-02) (780, 9.59809869527816772461e-02) (781, 1.31366685032844543457e-01) (782, 1.80251389741897583008e-01) (783, -3.73404659330844879150e-02) (784, -5.68834692239761352539e-02) (785, -7.39174112677574157715e-02) (786, -1.83511674404144287109e-01) (787, 1.53445720672607421875e-01) (788, 1.51656255125999450684e-01) (789, 2.17715248465538024902e-01) (790, 1.42754226922988891602e-01) (791, 9.61984097957611083984e-02) (792, 1.59680187702178955078e-01) (793, 2.11667269468307495117e-01) (794, 2.45987519621849060059e-01) (795, 2.22055569291114807129e-01) (796, 2.12559387087821960449e-01) (797, 1.13661803305149078369e-01) (798, 2.50587850809097290039e-01) (799, 1.05630174279212951660e-01) (800, -3.24504017829895019531e-01) (801, -2.58806020021438598633e-01) (802, -2.71159648895263671875e-01) (803, -3.24515014886856079102e-01) (804, -1.99839174747467041016e-01) (805, -2.23534554243087768555e-01) (806, -3.00009816884994506836e-01) (807, -1.59651562571525573730e-01) (808, -1.83578163385391235352e-01) (809, -9.79598984122276306152e-03) (810, 1.88886225223541259766e-01) (811, 1.21545530855655670166e-01) (812, 1.20361603796482086182e-01) (813, 1.06099687516689300537e-01) (814, 9.05841514468193054199e-02) (815, 2.61105060577392578125e-01) (816, 2.18526482582092285156e-01) (817, 9.46880504488945007324e-02) (818, 1.50173708796501159668e-01) (819, 1.07227243483066558838e-01) (820, 2.48191997408866882324e-01) (821, 2.18279570341110229492e-01) (822, 1.18717096745967864990e-01) (823, 1.14987753331661224365e-01) (824, 1.33929103612899780273e-01) (825, 2.66026616096496582031e-01) (826, 2.40967541933059692383e-01) (827, 2.52984732389450073242e-01) (828, 2.89209574460983276367e-01) (829, 2.17326059937477111816e-01) (830, 8.87393876910209655762e-02) (831, 1.01416967809200286865e-01) (832, -3.33778291940689086914e-01) (833, -2.69985795021057128906e-01) (834, -2.98321008682250976562e-01) (835, -1.76060855388641357422e-01) (836, -3.34971874952316284180e-01) (837, -2.39184275269508361816e-01) (838, -2.75455236434936523438e-01) (839, -3.32373887300491333008e-01) (840, -2.63421714305877685547e-01) (841, -1.53750076889991760254e-01) (842, -1.17320999503135681152e-01) (843, -5.06779402494430541992e-02) (844, 9.15954560041427612305e-02) (845, 1.53770327568054199219e-01) (846, 1.81036859750747680664e-01) (847, 2.28093206882476806641e-01) (848, 1.58300921320915222168e-01) (849, 2.35679015517234802246e-01) (850, 2.45547488331794738770e-01) (851, 1.16564698517322540283e-01) (852, 1.64393812417984008789e-01) (853, 2.73718208074569702148e-01) (854, 1.42507106065750122070e-01) (855, 2.10111916065216064453e-01) (856, 2.51030117273330688477e-01) (857, 8.82523208856582641602e-02) (858, 1.67925015091896057129e-01) (859, 2.53714233636856079102e-01) (860, 2.21453934907913208008e-01) (861, 1.74934238195419311523e-01) (862, 2.83206313848495483398e-01) (863, 2.32758790254592895508e-01) (864, -1.86222091317176818848e-01) (865, -3.06709736585617065430e-01) (866, -2.24566191434860229492e-01) (867, -1.64216697216033935547e-01) (868, -1.88515305519104003906e-01) (869, -3.44330191612243652344e-01) (870, -3.42490345239639282227e-01) (871, -2.97437608242034912109e-01) (872, -3.42695146799087524414e-01) (873, -2.72547185420989990234e-01) (874, -1.70919895172119140625e-01) (875, -2.36744523048400878906e-01) (876, -2.97696962952613830566e-02) (877, -9.51849147677421569824e-02) (878, -8.20142030715942382812e-03) (879, -1.45518392324447631836e-01) (880, -1.37450277805328369141e-01) (881, -4.43066209554672241211e-02) (882, -1.09273515641689300537e-01) (883, -5.92449381947517395020e-02) (884, -5.27446269989013671875e-02) (885, 1.48996099829673767090e-01) (886, 1.21217079460620880127e-01) (887, 1.68782472610473632812e-01) (888, 2.13744282722473144531e-01) (889, 2.05927550792694091797e-01) (890, 1.29697516560554504395e-01) (891, 1.52768313884735107422e-01) (892, 1.03711158037185668945e-01) (893, 1.37261867523193359375e-01) (894, 1.19817771017551422119e-01) (895, 2.71046221256256103516e-01) (896, -2.59992092847824096680e-01) (897, -1.99375376105308532715e-01) (898, -1.81859850883483886719e-01) (899, -2.91934430599212646484e-01) (900, -1.84179306030273437500e-01) (901, -1.66359066963195800781e-01) (902, -2.34464079141616821289e-01) (903, -1.72370076179504394531e-01) (904, -2.84007608890533447266e-01) (905, -2.50889003276824951172e-01) (906, -3.47462683916091918945e-01) (907, -3.32027673721313476562e-01) (908, -9.28041059523820877075e-04) (909, -5.52635220810770988464e-03) (910, -1.25977113842964172363e-01) (911, -1.57308921217918395996e-01) (912, -6.39312341809272766113e-02) (913, -5.02833947539329528809e-02) (914, -3.01997251808643341064e-02) (915, -1.32926896214485168457e-01) (916, -1.15133613348007202148e-01) (917, -1.78940236568450927734e-01) (918, -3.62739488482475280762e-02) (919, -1.71736225485801696777e-01) (920, -4.50763404369354248047e-02) (921, -1.81289434432983398438e-01) (922, -1.01022578775882720947e-01) (923, 2.32692912220954895020e-01) (924, 1.40701800584793090820e-01) (925, 1.97245627641677856445e-01) (926, 2.32375636696815490723e-01) (927, 2.39867746829986572266e-01) (928, -2.91439682245254516602e-01) (929, -2.41451725363731384277e-01) (930, -3.46944779157638549805e-01) (931, -3.19045931100845336914e-01) (932, -2.50007152557373046875e-01) (933, -2.23816677927970886230e-01) (934, -3.36916595697402954102e-01) (935, -1.79505527019500732422e-01) (936, -3.19807022809982299805e-01) (937, -3.29475790262222290039e-01) (938, -1.55521333217620849609e-01) (939, -3.36169898509979248047e-01) (940, -1.80495619773864746094e-01) (941, -1.26922816038131713867e-01) (942, -1.37304916977882385254e-01) (943, -5.90171813964843750000e-02) (944, 9.87288262695074081421e-03) (945, -1.81073129177093505859e-01) (946, -6.75688683986663818359e-03) (947, -1.20124593377113342285e-01) (948, -1.76067218184471130371e-01) (949, -5.95536977052688598633e-02) (950, -1.10953487455844879150e-01) (951, -3.85729894042015075684e-02) (952, -5.36843016743659973145e-02) (953, -2.59317941963672637939e-02) (954, -7.85680785775184631348e-02) (955, -7.76376575231552124023e-04) (956, 1.51527807116508483887e-01) (957, 1.31992995738983154297e-01) (958, 2.23379895091056823730e-01) (959, 2.23626986145973205566e-01) (960, -1.96335151791572570801e-01) (961, -2.14379429817199707031e-01) (962, -1.87940940260887145996e-01) (963, -2.89370000362396240234e-01) (964, -2.80395090579986572266e-01) (965, -1.67445957660675048828e-01) (966, -3.14775317907333374023e-01) (967, -2.45696574449539184570e-01) (968, -3.42023104429244995117e-01) (969, -3.15398067235946655273e-01) (970, -2.25406929850578308105e-01) (971, -3.38399052619934082031e-01) (972, -8.78187417984008789062e-02) (973, -6.47880276665091514587e-03) (974, -4.09605242311954498291e-02) (975, -9.33452025055885314941e-02) (976, -2.79375910758972167969e-03) (977, -6.15030303597450256348e-02) (978, -2.65375636518001556396e-02) (979, 8.72878916561603546143e-03) (980, -1.35673031210899353027e-01) (981, -1.50895789265632629395e-01) (982, -4.11272086203098297119e-02) (983, -2.25746491923928260803e-03) (984, 1.02724581956863403320e-02) (985, -1.37189373373985290527e-01) (986, -1.64147038012742996216e-02) (987, -1.17830201983451843262e-01) (988, 1.74186170101165771484e-01) (989, 1.92246049642562866211e-01) (990, 9.13747251033782958984e-02) (991, 1.46648347377777099609e-01) (992, -3.09532910585403442383e-01) (993, -1.86676159501075744629e-01) (994, -2.35209226608276367188e-01) (995, -2.34857231378555297852e-01) (996, -1.96750640869140625000e-01) (997, -1.92607045173645019531e-01) (998, -3.26453775167465209961e-01) (999, -1.84269309043884277344e-01) (1000, -3.53505700826644897461e-01) (1001, -1.96957111358642578125e-01) (1002, -1.66212618350982666016e-01) (1003, -2.56803423166275024414e-01) (1004, -5.03141805529594421387e-02) (1005, -5.12197017669677734375e-02) (1006, -6.86041489243507385254e-02) (1007, -6.67529106140136718750e-02) (1008, -1.27580955624580383301e-01) (1009, -3.32248993217945098877e-02) (1010, -7.14306384325027465820e-02) (1011, -7.42174014449119567871e-02) (1012, 4.91829775273799896240e-03) (1013, -1.26124098896980285645e-01) (1014, -8.91555771231651306152e-02) (1015, 2.11084797047078609467e-03) (1016, -7.85835906863212585449e-02) (1017, -1.22134789824485778809e-01) (1018, -1.34242698550224304199e-01) (1019, -1.86074152588844299316e-01) (1020, 4.79806624352931976318e-02) (1021, 1.39868110418319702148e-01) (1022, 1.48390814661979675293e-01) (1023, 9.95988845825195312500e-02) (1024, -3.30233365297317504883e-01) (0, 2.38058403134346008301e-01) (1, 1.86977922916412353516e-01) (2, 2.37935736775398254395e-01) (3, 1.97063133120536804199e-01) (4, 2.15784847736358642578e-01) (5, 2.07762628793716430664e-01) (6, 2.00546264648437500000e-01) (7, 1.73970848321914672852e-01) (8, 1.96049422025680541992e-01) (9, 9.97969657182693481445e-02) (10, 1.06588371098041534424e-01) (11, 1.25204831361770629883e-01) (12, 8.93805399537086486816e-02) (13, 2.24808484315872192383e-01) (14, 1.85318887233734130859e-01) (15, 2.42819935083389282227e-01) (16, 1.41072168946266174316e-01) (17, 9.69414263963699340820e-02) (18, 2.34613507986068725586e-01) (19, 2.02538266777992248535e-01) (20, 1.97256490588188171387e-01) (21, 2.25558638572692871094e-01) (22, 1.15314513444900512695e-01) (23, 6.70592188835144042969e-02) (24, 8.22715088725090026855e-02) (25, 1.25094458460807800293e-01) (26, 2.40826100111007690430e-01) (27, 1.46967172622680664062e-01) (28, 1.96528866887092590332e-01) (29, 6.50625899434089660645e-02) (30, 1.81449159979820251465e-01) (31, 1.81627109646797180176e-01) (32, 1.96358487010002136230e-01) (33, 1.62517875432968139648e-01) (34, 1.28764823079109191895e-01) (35, 1.61216646432876586914e-01) (36, 1.18163831532001495361e-01) (37, 7.81769230961799621582e-02) (38, 8.71794372797012329102e-02) (39, 6.49442374706268310547e-02) (40, 1.26909285783767700195e-01) (41, 1.44556775689125061035e-01) (42, 1.40842333436012268066e-01) (43, 1.67815119028091430664e-01) (44, 1.21297128498554229736e-01) (45, 7.72570297122001647949e-02) (46, 1.61377102136611938477e-01) (47, 2.13477715849876403809e-01) (48, 1.26022771000862121582e-01) (49, 1.48267060518264770508e-01) (50, 1.69480636715888977051e-01) (51, 7.70077109336853027344e-02) (52, 1.25224187970161437988e-01) (53, 2.36148625612258911133e-01) (54, 9.60820913314819335938e-02) (55, 1.62780597805976867676e-01) (56, 1.13029547035694122314e-01) (57, 8.92836153507232666016e-02) (58, 6.05270564556121826172e-02) (59, 5.87826818227767944336e-02) (60, 1.04763165116310119629e-01) (61, 1.88346803188323974609e-01) (62, 1.91779553890228271484e-01) (63, 7.86710679531097412109e-02) (64, 1.01525455713272094727e-01) (65, 7.06264153122901916504e-02) (66, 1.66805669665336608887e-01) (67, 1.70028939843177795410e-01) (68, 9.77952331304550170898e-02) (69, 2.03486964106559753418e-01) (70, 1.83098152279853820801e-01) (71, 1.74034640192985534668e-01) (72, 9.63867977261543273926e-02) (73, 7.71384909749031066895e-02) (74, 9.47863385081291198730e-02) (75, 1.72361686825752258301e-01) (76, 1.07404641807079315186e-01) (77, 2.07610100507736206055e-01) (78, 1.39457315206527709961e-01) (79, 1.88049763441085815430e-01) (80, 1.09835013747215270996e-01) (81, 6.09306469559669494629e-02) (82, 2.18825668096542358398e-01) (83, 1.90344095230102539062e-01) (84, 5.25241605937480926514e-02) (85, 7.05909803509712219238e-02) (86, 1.07138924300670623779e-01) (87, 1.20367370545864105225e-01) (88, 1.13893724977970123291e-01) (89, 1.19224481284618377686e-01) (90, 1.31808057427406311035e-01) (91, 1.68921872973442077637e-01) (92, 6.11550323665142059326e-02) (93, 7.67054259777069091797e-02) (94, 1.74721628427505493164e-01) (95, 1.39422610402107238770e-01) (96, 8.72037336230278015137e-02) (97, 8.13387408852577209473e-02) (98, 2.21805945038795471191e-01) (99, 1.32931023836135864258e-01) (100, 2.31603071093559265137e-01) (101, 1.54158398509025573730e-01) (102, 5.70050850510597229004e-02) (103, 7.97396600246429443359e-02) (104, 1.80938944220542907715e-01) (105, 1.02456092834472656250e-01) (106, 2.02930986881256103516e-01) (107, 2.37283453345298767090e-01) (108, 6.08506165444850921631e-02) (109, 9.18725728988647460938e-02) (110, 1.77667558193206787109e-01) (111, 1.19366876780986785889e-01) (112, 9.95453745126724243164e-02) (113, 1.47765323519706726074e-01) (114, 6.27500638365745544434e-02) (115, 1.05170823633670806885e-01) (116, 1.67140915989875793457e-01) (117, 1.19997642934322357178e-01) (118, 1.77343621850013732910e-01) (119, 2.31457620859146118164e-01) (120, 1.90116167068481445312e-01) (121, 5.99525757133960723877e-02) (122, 1.49917513132095336914e-01) (123, 1.96547970175743103027e-01) (124, 8.02736654877662658691e-02) (125, 7.26041942834854125977e-02) (126, 6.48107156157493591309e-02) (127, -6.95833265781402587891e-02) (128, 9.66461449861526489258e-02) (129, 2.23476529121398925781e-01) (130, 1.96225792169570922852e-01) (131, 8.12444984912872314453e-02) (132, 1.27840712666511535645e-01) (133, 2.06195026636123657227e-01) (134, 1.09714426100254058838e-01) (135, 5.92240728437900543213e-02) (136, 6.27295076847076416016e-02) (137, 6.81591108441352844238e-02) (138, 2.53931492567062377930e-01) (139, 9.88612547516822814941e-02) (140, 1.07517719268798828125e-01) (141, 1.73783257603645324707e-01) (142, 1.39937072992324829102e-01) (143, 1.62791103124618530273e-01) (144, 2.62007843703031539917e-02) (145, 1.08435280621051788330e-01) (146, 2.21607625484466552734e-01) (147, 1.87061280012130737305e-01) (148, 2.18392431735992431641e-01) (149, 1.33861273527145385742e-01) (150, 1.62086516618728637695e-01) (151, 1.55695825815200805664e-01) (152, 1.39049962162971496582e-01) (153, 6.25636726617813110352e-02) (154, 1.02803245186805725098e-01) (155, 1.65138795971870422363e-01) (156, 7.80702754855155944824e-02) (157, 1.02566301822662353516e-01) (158, -2.93939094990491867065e-02) (159, -4.70913410186767578125e-01) (160, 6.99625238776206970215e-02) (161, 1.71300739049911499023e-01) (162, 1.51856794953346252441e-01) (163, 1.46511137485504150391e-01) (164, 1.25893965363502502441e-01) (165, 2.12972119450569152832e-01) (166, 1.82778075337409973145e-01) (167, 1.01354934275150299072e-01) (168, 2.46880635619163513184e-01) (169, 1.77811101078987121582e-01) (170, 1.76665574312210083008e-01) (171, 9.57020446658134460449e-02) (172, 1.01688802242279052734e-01) (173, 2.66846060752868652344e-01) (174, 1.55351310968399047852e-01) (175, 8.52040052413940429688e-02) (176, 6.93733468651771545410e-02) (177, 9.66992676258087158203e-02) (178, 1.45030304789543151855e-01) (179, 4.35181893408298492432e-02) (180, 2.01766535639762878418e-01) (181, 1.06738641858100891113e-01) (182, 1.82613879442214965820e-01) (183, 7.18983784317970275879e-02) (184, 1.09877698123455047607e-01) (185, 2.27222993969917297363e-01) (186, 1.78349941968917846680e-01) (187, 1.28863200545310974121e-01) (188, -9.15871039032936096191e-02) (189, -9.42051410675048828125e-02) (190, -3.93586456775665283203e-01) (191, -4.94065582752227783203e-01) (192, 6.72529637813568115234e-02) (193, 9.79109480977058410645e-02) (194, 1.84103533625602722168e-01) (195, 1.41422733664512634277e-01) (196, 6.43103271722793579102e-02) (197, 1.09566152095794677734e-01) (198, 2.31619045138359069824e-01) (199, 2.24618449807167053223e-01) (200, 2.03906863927841186523e-01) (201, 1.41065299510955810547e-01) (202, 2.71950542926788330078e-01) (203, 2.18971937894821166992e-01) (204, 7.04635456204414367676e-02) (205, 1.20423905551433563232e-01) (206, 1.87619835138320922852e-01) (207, 1.40157341957092285156e-01) (208, 2.51993089914321899414e-01) (209, 1.87944710254669189453e-01) (210, 1.71810060739517211914e-01) (211, 1.67214691638946533203e-01) (212, 1.90202236175537109375e-01) (213, -3.01307905465364456177e-02) (214, -1.35556042194366455078e-01) (215, -2.43029743432998657227e-01) (216, -2.17844769358634948730e-01) (217, -2.13722914457321166992e-01) (218, -1.88024669885635375977e-01) (219, -2.20085844397544860840e-01) (220, -1.76912054419517517090e-01) (221, -4.56425398588180541992e-01) (222, -3.94422113895416259766e-01) (223, -5.73417603969573974609e-01) (224, 1.34918436408042907715e-01) (225, 8.30091461539268493652e-02) (226, 1.06604114174842834473e-01) (227, 1.52070865035057067871e-01) (228, 1.29063308238983154297e-01) (229, 3.43139916658401489258e-02) (230, 1.51227891445159912109e-01) (231, 4.26366865634918212891e-01) (232, 5.19790709018707275391e-01) (233, 4.91060018539428710938e-01) (234, 5.12985885143280029297e-01) (235, 3.27481865882873535156e-01) (236, 9.79973495006561279297e-01) (237, 1.81898486614227294922e+00) (238, 8.79049897193908691406e-01) (239, 3.26057016849517822266e-01) (240, 3.77584807574748992920e-02) (241, 2.83558726310729980469e-01) (242, 1.04763880372047424316e-01) (243, 1.11504457890987396240e-01) (244, -4.46684807538986206055e-01) (245, -2.88404852151870727539e-01) (246, -2.72579193115234375000e-01) (247, -3.54545444250106811523e-01) (248, -1.71844840049743652344e-01) (249, -3.06763589382171630859e-01) (250, -1.98357909917831420898e-01) (251, -2.38439485430717468262e-01) (252, -2.80162185430526733398e-01) (253, -4.64226931333541870117e-01) (254, -1.22271728515625000000e+00) (255, -1.14873349666595458984e+00) (256, 1.30559563636779785156e-01) (257, 2.03494459390640258789e-01) (258, 1.39539271593093872070e-01) (259, 2.08197489380836486816e-01) (260, 2.59333193302154541016e-01) (261, 4.09735441207885742188e-01) (262, 1.44767510890960693359e+00) (263, 7.17774212360382080078e-01) (264, 1.27372801303863525391e-01) (265, 2.14859366416931152344e-01) (266, 2.55597442388534545898e-01) (267, 7.21916079521179199219e-01) (268, 3.22933703660964965820e-01) (269, 6.34391009807586669922e-02) (270, 2.25726023316383361816e-01) (271, 5.48581071197986602783e-02) (272, 8.66587907075881958008e-02) (273, 1.61401152610778808594e-01) (274, 2.75030195713043212891e-01) (275, 2.44447186589241027832e-01) (276, 1.09341122210025787354e-01) (277, -7.78658211231231689453e-01) (278, -8.77252459526062011719e-01) (279, -4.15628373622894287109e-01) (280, -2.94689178466796875000e-01) (281, -3.50906759500503540039e-01) (282, -4.87158387899398803711e-01) (283, -5.28624653816223144531e-01) (284, -1.54021763801574707031e+00) (285, -3.85199284553527832031e+00) (286, -1.80051326751708984375e+00) (287, -1.07162916660308837891e+00) (288, 1.16724222898483276367e-01) (289, 2.30133771896362304688e-01) (290, 9.59507301449775695801e-02) (291, 1.27151891589164733887e-01) (292, 6.52587831020355224609e-01) (293, 2.32081031799316406250e+00) (294, 3.80159020423889160156e-01) (295, 1.64105176925659179688e-01) (296, -1.96483299136161804199e-01) (297, 1.83585792779922485352e-01) (298, 1.97967007756233215332e-01) (299, -2.64603998512029647827e-02) (300, -5.49187734723091125488e-02) (301, -1.43023720011115074158e-03) (302, 1.72362551093101501465e-02) (303, 4.63744290173053741455e-02) (304, 1.51664897799491882324e-01) (305, 1.19424639269709587097e-02) (306, 1.52875214815139770508e-01) (307, 7.97592941671609878540e-03) (308, 1.39256343245506286621e-01) (309, 1.18491306900978088379e-01) (310, 2.62578487396240234375e-01) (311, 2.24158912897109985352e-01) (312, -1.13731789588928222656e+00) (313, -1.10311424732208251953e+00) (314, -1.17767834663391113281e+00) (315, -3.48987436294555664062e+00) (316, -1.08969283103942871094e+00) (317, 1.51090979576110839844e+00) (318, 1.44582286477088928223e-01) (319, -3.18798273801803588867e-01) (320, 2.15642675757408142090e-01) (321, 9.57637652754783630371e-02) (322, 5.84471710026264190674e-02) (323, 5.27474999427795410156e-01) (324, 4.60866928100585937500e+00) (325, 4.93947565555572509766e-01) (326, -1.61653339862823486328e-01) (327, -2.08590164780616760254e-01) (328, -1.03480473160743713379e-01) (329, 2.20577105879783630371e-01) (330, 1.88129708170890808105e-01) (331, 9.98348891735076904297e-01) (332, -9.03819650411605834961e-02) (333, -5.78225478529930114746e-02) (334, -4.67830039560794830322e-02) (335, 2.51323226839303970337e-02) (336, 1.03589497506618499756e-01) (337, 2.10643962025642395020e-01) (338, 1.18297435343265533447e-01) (339, 6.72913193702697753906e-02) (340, 5.88077902793884277344e-01) (341, 1.69470155239105224609e+00) (342, 3.16837358474731445312e+00) (343, -2.42972690612077713013e-02) (344, 2.59471107274293899536e-02) (345, -1.80190965533256530762e-01) (346, -3.86255764961242675781e+00) (347, -9.11810302734375000000e+00) (348, -8.37348818778991699219e-01) (349, -4.40556734800338745117e-01) (350, -3.34141343832015991211e-01) (351, -1.08720595017075538635e-02) (352, 1.36527061462402343750e-01) (353, 2.05555945634841918945e-01) (354, 1.47174954414367675781e-01) (355, 1.05813951492309570312e+01) (356, 1.61665558815002441406e+00) (357, 6.81599304080009460449e-02) (358, -3.02037894725799560547e-01) (359, -3.10942262411117553711e-01) (360, 6.94417059421539306641e-02) (361, 2.81836092472076416016e-02) (362, 2.99538373947143554688e+00) (363, 2.11360340118408203125e+01) (364, -1.30701664602383971214e-06) (365, 7.69357830286026000977e-02) (366, 1.48729279637336730957e-01) (367, 1.98756396770477294922e-01) (368, 1.28978863358497619629e-01) (369, 9.99327003955841064453e-02) (370, 6.53692409396171569824e-02) (371, 1.37760952115058898926e-01) (372, 1.21281254291534423828e+00) (373, 3.91440677642822265625e+00) (374, -2.24618855863809585571e-02) (375, -4.49795611202716827393e-02) (376, -4.84421625733375549316e-02) (377, 6.70993477106094360352e-02) (378, 1.99424296617507934570e-01) (379, 4.02666747570037841797e-01) (380, 1.11243188381195068359e-01) (381, -1.20996546745300292969e+00) (382, -6.00547671318054199219e-01) (383, -4.49786454439163208008e-01) (384, 1.54495745897293090820e-01) (385, 8.62252339720726013184e-02) (386, 6.50583922863006591797e-01) (387, 3.43383216857910156250e+00) (388, 2.15393066406250000000e-01) (389, -8.09135884046554565430e-02) (390, -2.51441985368728637695e-01) (391, -9.27548389881849288940e-03) (392, 1.53234824538230895996e-01) (393, -5.11949062347412109375e-02) (394, 2.73495674133300781250e+00) (395, 2.95561957359313964844e+00) (396, -2.83594289794564247131e-03) (397, 6.53172880411148071289e-02) (398, 2.25170720368623733521e-02) (399, 1.73171967267990112305e-01) (400, 1.49074599146842956543e-01) (401, 1.56506761908531188965e-01) (402, 1.54656141996383666992e-01) (403, 4.63502198457717895508e-01) (404, 7.37406671047210693359e-01) (405, 9.15840923786163330078e-01) (406, 4.07230779528617858887e-02) (407, 8.38861837983131408691e-02) (408, -9.03144553303718566895e-02) (409, -1.06367081403732299805e-01) (410, -6.02795928716659545898e-02) (411, 4.27956461906433105469e-01) (412, 2.32733631134033203125e+01) (413, 1.80969822406768798828e+00) (414, 1.76162421703338623047e-01) (415, 1.60300239920616149902e-01) (416, 1.18310876190662384033e-01) (417, 1.53553813695907592773e-01) (418, 2.32692956924438476562e+00) (419, 6.94144189357757568359e-01) (420, -1.53009161353111267090e-01) (421, 1.42406415939331054688e+00) (422, 4.39022898674011230469e-01) (423, 6.03348016738891601562e-02) (424, 2.23340764641761779785e-01) (425, 1.37968778610229492188e-01) (426, 7.83309161663055419922e-01) (427, 4.73670929670333862305e-01) (428, 7.13831484317779541016e-02) (429, 1.16913758218288421631e-01) (430, 4.09670531749725341797e-01) (431, 3.58215011656284332275e-02) (432, 3.46712246537208557129e-02) (433, 1.11388579010963439941e-01) (434, 1.02619141340255737305e-01) (435, 1.40349775552749633789e-01) (436, 6.85411870479583740234e-01) (437, 7.19902181625366210938e+00) (438, 4.72445823252201080322e-02) (439, 6.22584968805313110352e-02) (440, 6.48099258542060852051e-02) (441, -2.18359772115945816040e-02) (442, 1.86794071197509765625e+01) (443, 1.10418426990509033203e+00) (444, 4.23775851726531982422e-01) (445, 1.32184386253356933594e+00) (446, 2.08386275917291641235e-02) (447, -3.49023565649986267090e-02) (448, 1.22126415371894836426e-01) (449, 2.34516978263854980469e-01) (450, 7.95722818374633789062e+00) (451, 5.12099921703338623047e-01) (452, -2.87216659635305404663e-02) (453, 1.51363039016723632812e+00) (454, 4.29438352584838867188e-01) (455, 1.98620498180389404297e-01) (456, 1.24572724103927612305e-01) (457, 7.41207823157310485840e-02) (458, 4.74477767944335937500e-01) (459, 2.04195052385330200195e-01) (460, 4.53763157129287719727e-02) (461, 1.44557058811187744141e-01) (462, 1.47811278700828552246e-01) (463, 1.05916149914264678955e-02) (464, 3.15901227295398712158e-02) (465, 7.01949670910835266113e-02) (466, 2.34668946266174316406e+00) (467, 2.55483031272888183594e-01) (468, 2.97343581914901733398e-01) (469, 4.46142882108688354492e-01) (470, 8.37928205728530883789e-02) (471, 1.49027004837989807129e-01) (472, -2.37299371510744094849e-02) (473, 1.24098338186740875244e-01) (474, 3.53726291656494140625e+00) (475, 2.77640271186828613281e+00) (476, 6.62469863891601562500e-01) (477, 2.33882951736450195312e+00) (478, 3.93551677465438842773e-01) (479, -2.86193434149026870728e-02) (480, 1.26393795013427734375e-01) (481, 2.72049099206924438477e-01) (482, 7.90432071685791015625e+00) (483, 5.17447292804718017578e-01) (484, 3.54307770729064941406e-01) (485, 1.35219478607177734375e+00) (486, -4.01445865631103515625e-01) (487, 4.35419678688049316406e-02) (488, 1.59861788153648376465e-01) (489, 6.54660686850547790527e-02) (490, 9.83244180679321289062e-02) (491, 9.55958813428878784180e-02) (492, 1.90179169178009033203e-01) (493, 1.81566702667623758316e-03) (494, 9.69140827655792236328e-02) (495, 3.73259955085813999176e-03) (496, 1.04717776179313659668e-01) (497, 1.93129584193229675293e-01) (498, 4.92768794298171997070e-01) (499, 1.36908397078514099121e-01) (500, 1.43929988145828247070e-01) (501, 2.48907238245010375977e-01) (502, 7.59476795792579650879e-02) (503, 9.86082330346107482910e-02) (504, 2.05797664821147918701e-02) (505, 1.86343103647232055664e-01) (506, 6.17421686649322509766e-01) (507, 5.50910949707031250000e+00) (508, 6.12852096557617187500e-01) (509, 1.29724586009979248047e+00) (510, 5.90663313865661621094e-01) (511, 5.61429560184478759766e-02) (512, 2.00565889477729797363e-01) (513, 1.34499818086624145508e-01) (514, 1.19839370250701904297e+00) (515, 4.72261130809783935547e-01) (516, 1.86296105384826660156e-01) (517, 2.73365080356597900391e-01) (518, -3.36420238018035888672e-01) (519, 6.85338005423545837402e-02) (520, 1.37635990977287292480e-01) (521, 2.37675249576568603516e-01) (522, 1.64882421493530273438e-01) (523, 1.59795001149177551270e-01) (524, 2.55620807409286499023e-01) (525, 1.18393398821353912354e-01) (526, 1.36544421315193176270e-01) (527, 1.05367675423622131348e-01) (528, 5.85833713412284851074e-02) (529, 1.65441274642944335938e-01) (530, 2.38166093826293945312e+00) (531, 2.24686805158853530884e-02) (532, 1.48315668106079101562e-01) (533, 1.42460033297538757324e-01) (534, 1.53867766261100769043e-01) (535, 1.29613667726516723633e-01) (536, 4.33072224259376525879e-02) (537, 1.45317867398262023926e-01) (538, 1.82118463516235351562e+00) (539, 5.02936172485351562500e+00) (540, 3.13382446765899658203e-01) (541, 5.66501319408416748047e-01) (542, 2.19020903110504150391e-01) (543, 3.88774871826171875000e-02) (544, 1.64035335183143615723e-01) (545, 2.44945749640464782715e-01) (546, 2.46564134955406188965e-01) (547, 3.74619185924530029297e-01) (548, 5.64289689064025878906e-01) (549, 1.36258578300476074219e+00) (550, -1.24579265713691711426e-01) (551, 1.66898891329765319824e-01) (552, 8.43304991722106933594e-02) (553, 2.41349205374717712402e-01) (554, 2.21495673060417175293e-01) (555, 1.69525474309921264648e-01) (556, 2.06364139914512634277e-01) (557, 1.35007798671722412109e-01) (558, 1.75559207797050476074e-01) (559, 1.75149694085121154785e-01) (560, 2.57815390825271606445e-01) (561, 3.26698482036590576172e-01) (562, 6.08042061328887939453e-01) (563, 1.48762360215187072754e-01) (564, 6.98547586798667907715e-02) (565, 2.17072978615760803223e-01) (566, 3.72367538511753082275e-02) (567, 2.59244859218597412109e-01) (568, 9.34486612677574157715e-02) (569, 2.19033718109130859375e-01) (570, 1.04272373020648956299e-01) (571, 1.57925224304199218750e+00) (572, 1.80245876312255859375e-01) (573, 2.22899198532104492188e-01) (574, 2.02343210577964782715e-01) (575, 1.15928001701831817627e-01) (576, 1.37444570660591125488e-01) (577, 2.51783877611160278320e-01) (578, 6.62124678492546081543e-02) (579, 1.71462640166282653809e-01) (580, 5.70035353302955627441e-02) (581, 1.36805391311645507812e+00) (582, 3.48675325512886047363e-02) (583, 1.32066696882247924805e-01) (584, 1.13382965326309204102e-01) (585, 9.76510569453239440918e-02) (586, 3.11748027801513671875e+00) (587, 2.82656002044677734375e+00) (588, 2.35586062073707580566e-01) (589, -2.81736627221107482910e-03) (590, 6.71749636530876159668e-02) (591, 1.69342100620269775391e-01) (592, 2.53331243991851806641e-01) (593, 1.25505059957504272461e-01) (594, 8.45583975315093994141e-02) (595, 6.53579160571098327637e-02) (596, 1.85176685452461242676e-01) (597, 1.02260306477546691895e-01) (598, 1.51333943009376525879e-01) (599, 2.39974796772003173828e-01) (600, 1.21155701577663421631e-01) (601, 2.29704648256301879883e-01) (602, 3.48168969154357910156e-01) (603, 3.17509949207305908203e-01) (604, 4.83329445123672485352e-02) (605, 2.59023249149322509766e-01) (606, 1.62592425942420959473e-01) (607, -2.36992929130792617798e-02) (608, 1.94915235042572021484e-01) (609, 2.47604593634605407715e-01) (610, 2.13152587413787841797e-01) (611, -9.01894122362136840820e-02) (612, -5.42830303311347961426e-02) (613, 5.63993394374847412109e-01) (614, 2.11140722036361694336e-01) (615, 1.59173130989074707031e-01) (616, 2.44080632925033569336e-01) (617, 2.30803191661834716797e-01) (618, 5.85813164710998535156e-01) (619, 1.28030169010162353516e+00) (620, 1.41767263412475585938e-01) (621, 6.77471682429313659668e-02) (622, 4.25791442394256591797e-02) (623, 1.67809084057807922363e-01) (624, 1.52989611029624938965e-01) (625, 1.56934291124343872070e-01) (626, 7.78058543801307678223e-02) (627, 1.97893276810646057129e-01) (628, 8.77213001251220703125e-01) (629, 1.66681885719299316406e-01) (630, 1.48898605257272720337e-02) (631, 1.00521914660930633545e-01) (632, 1.91733777523040771484e-01) (633, 8.68072360754013061523e-02) (634, 2.88869321346282958984e-01) (635, 5.46072088181972503662e-02) (636, 2.10632681846618652344e-01) (637, 2.77290433645248413086e-01) (638, 4.76214811205863952637e-02) (639, 1.56709849834442138672e-01) (640, 1.83587849140167236328e-01) (641, 2.33595415949821472168e-01) (642, 2.01099112629890441895e-01) (643, 1.46749645471572875977e-01) (644, -8.89105200767517089844e-01) (645, 1.46513193845748901367e-01) (646, 1.69374451041221618652e-01) (647, -4.74288407713174819946e-03) (648, 1.91267848014831542969e-01) (649, 1.89388245344161987305e-01) (650, 1.26706168055534362793e-01) (651, 4.84178453683853149414e-01) (652, 2.16132774949073791504e-01) (653, 1.73853486776351928711e-01) (654, 9.43613573908805847168e-02) (655, 1.02795161306858062744e-01) (656, 1.55789703130722045898e-01) (657, 1.41684308648109436035e-01) (658, 2.62611746788024902344e-01) (659, 1.62154734134674072266e-01) (660, 1.05560898780822753906e-01) (661, 1.58917501568794250488e-01) (662, 8.88244733214378356934e-02) (663, 2.19646692276000976562e-01) (664, 2.71188855171203613281e-01) (665, 1.33872553706169128418e-01) (666, -4.04527820646762847900e-02) (667, 2.38847330212593078613e-01) (668, 1.43601283431053161621e-01) (669, 1.36627674102783203125e-01) (670, 1.26203283667564392090e-01) (671, 9.71667617559432983398e-02) (672, 9.69434157013893127441e-02) (673, 7.45130479335784912109e-02) (674, 2.37427785992622375488e-01) (675, 2.94638782739639282227e-01) (676, -1.48803114891052246094e-01) (677, -1.82124567031860351562e+00) (678, -2.43714690208435058594e-01) (679, -1.15101873874664306641e-01) (680, 6.10240129753947257996e-03) (681, 1.81946322321891784668e-01) (682, 2.55581110715866088867e-01) (683, 3.72709602117538452148e-01) (684, 1.95273697376251220703e-01) (685, 2.23400756716728210449e-01) (686, -8.07283222675323486328e-02) (687, -3.24250571429729461670e-02) (688, 2.49872386455535888672e-01) (689, 1.40821173787117004395e-01) (690, 2.59852081537246704102e-01) (691, 8.78535360097885131836e-02) (692, 1.27658069133758544922e-01) (693, 1.28490239381790161133e-01) (694, 2.70102053880691528320e-01) (695, 1.33771315217018127441e-01) (696, 1.75136595964431762695e-01) (697, 5.48551455140113830566e-02) (698, -2.08202213048934936523e-01) (699, 2.87871897220611572266e-01) (700, -4.09329503774642944336e-01) (701, -2.42903923988342285156e+00) (702, -1.80299520492553710938e+00) (703, -1.25616049766540527344e+00) (704, 2.47878476977348327637e-01) (705, 2.30668902397155761719e-01) (706, 1.41064181923866271973e-01) (707, 1.53492577373981475830e-02) (708, 3.75711858272552490234e-01) (709, 8.63341093063354492188e-01) (710, -7.67574846744537353516e-01) (711, -8.75230729579925537109e-01) (712, -3.39584022760391235352e-01) (713, -1.21494390070438385010e-01) (714, 1.48775637149810791016e-01) (715, 2.21386805176734924316e-01) (716, 2.19545453786849975586e-01) (717, 1.94864034652709960938e-01) (718, 5.55387651547789573669e-03) (719, 9.91606414318084716797e-02) (720, 9.31664779782295227051e-02) (721, 2.01083779335021972656e-01) (722, 2.25555509328842163086e-01) (723, 1.77319139242172241211e-01) (724, 4.75445240736007690430e-02) (725, 1.84615105390548706055e-01) (726, 4.86059710383415222168e-02) (727, 4.27942760288715362549e-02) (728, -1.20493039488792419434e-01) (729, -1.06873810291290283203e-01) (730, -1.60843327641487121582e-01) (731, -3.38923394680023193359e-01) (732, 3.77166122198104858398e-02) (733, -1.24522313475608825684e-01) (734, -1.47798031568527221680e-01) (735, -3.49894434213638305664e-01) (736, 2.19525590538978576660e-01) (737, 5.64625561237335205078e-02) (738, 1.06568880379199981689e-01) (739, 7.46425017714500427246e-02) (740, 1.96924805641174316406e-01) (741, 1.76004990935325622559e-01) (742, 8.61680090427398681641e-01) (743, 2.01375558972358703613e-01) (744, -2.92536783218383789062e+00) (745, -1.73407053947448730469e+00) (746, -5.18718123435974121094e-01) (747, 1.04084149003028869629e-01) (748, -1.98069624602794647217e-02) (749, 1.80056765675544738770e-01) (750, -1.37263774871826171875e-01) (751, 3.83821688592433929443e-02) (752, 1.69052809476852416992e-01) (753, 1.41955584287643432617e-01) (754, 1.09092429280281066895e-01) (755, 1.18296869099140167236e-01) (756, 3.83052155375480651855e-02) (757, -2.69846376031637191772e-02) (758, -1.77667573094367980957e-01) (759, 4.06226934865117073059e-03) (760, -1.90175697207450866699e-01) (761, -2.96608358621597290039e-01) (762, -1.85886397957801818848e-01) (763, -3.79360020160675048828e-01) (764, -2.82060265541076660156e-01) (765, -7.45587646961212158203e-02) (766, -1.34208679199218750000e-01) (767, -1.65193989872932434082e-01) (768, 1.70532003045082092285e-01) (769, 1.61267846822738647461e-01) (770, 1.17846690118312835693e-01) (771, 1.64129137992858886719e-01) (772, 1.74104526638984680176e-01) (773, 1.44539892673492431641e-01) (774, -4.18778024613857269287e-02) (775, 3.20161163806915283203e-01) (776, 2.40823403000831604004e-01) (777, 2.34199851751327514648e-01) (778, 3.31464350223541259766e-01) (779, 5.76935000717639923096e-02) (780, 7.41839483380317687988e-02) (781, -1.44224882125854492188e-01) (782, -1.66508346796035766602e-01) (783, -1.61846607923507690430e-01) (784, 1.15841929800808429718e-03) (785, 1.65923237800598144531e-02) (786, 