FANN_FLO_2.1
num_layers=3
learning_rate=0.700000
connection_rate=1.000000
network_type=0
learning_momentum=0.000000
training_algorithm=2
train_error_function=1
train_stop_function=0
cascade_output_change_fraction=0.010000
quickprop_decay=-0.000100
quickprop_mu=1.750000
rprop_increase_factor=1.200000
rprop_decrease_factor=0.500000
rprop_delta_min=0.000000
rprop_delta_max=50.000000
rprop_delta_zero=0.100000
cascade_output_stagnation_epochs=12
cascade_candidate_change_fraction=0.010000
cascade_candidate_stagnation_epochs=12
cascade_max_out_epochs=150
cascade_min_out_epochs=50
cascade_max_cand_epochs=150
cascade_min_cand_epochs=50
cascade_num_candidate_groups=2
bit_fail_limit=3.49999994039535522461e-01
cascade_candidate_limit=1.00000000000000000000e+03
cascade_weight_multiplier=4.00000005960464477539e-01
cascade_activation_functions_count=10
cascade_activation_functions=3 5 7 8 10 11 14 15 16 17 
cascade_activation_steepnesses_count=4
cascade_activation_steepnesses=2.50000000000000000000e-01 5.00000000000000000000e-01 7.50000000000000000000e-01 1.00000000000000000000e+00 
layer_sizes=1025 11 2 
scale_included=0
neurons (num_inputs, activation_function, activation_steepness)=(0, 0, 0.00000000000000000000e+00) (0, 0, 0.00000000000000000000e+00) (0, 0, 0.00000000000000000000e+00) (0, 0, 0.00000000000000000000e+00) (0, 0, 0.00000000000000000000e+00) (0, 0, 0.00000000000000000000e+00) (0, 0, 0.00000000000000000000e+00) (0, 0, 0.00000000000000000000e+00) (0, 0, 0.00000000000000000000e+00) (0, 0, 0.00000000000000000000e+00) (0, 0, 0.00000000000000000000e+00) (0, 0, 0.00000000000000000000e+00) (0, 0, 0.00000000000000000000e+00) (0, 0, 0.00000000000000000000e+00) (0, 0, 0.00000000000000000000e+00) (0, 0, 0.00000000000000000000e+00) (0, 0, 0.00000000000000000000e+00) (0, 0, 0.00000000000000000000e+00) (0, 0, 0.00000000000000000000e+00) (0, 0, 0.00000000000000000000e+00) (0, 0, 0.00000000000000000000e+00) (0, 0, 0.00000000000000000000e+00) (0, 0, 0.00000000000000000000e+00) (0, 0, 0.00000000000000000000e+00) (0, 0, 0.00000000000000000000e+00) (0, 0, 0.00000000000000000000e+00) (0, 0, 0.00000000000000000000e+00) (0, 0, 0.00000000000000000000e+00) (0, 0, 0.00000000000000000000e+00) (0, 0, 0.00000000000000000000e+00) (0, 0, 0.00000000000000000000e+00) (0, 0, 0.00000000000000000000e+00) (0, 0, 0.00000000000000000000e+00) (0, 0, 0.00000000000000000000e+00) (0, 0, 0.00000000000000000000e+00) (0, 0, 0.00000000000000000000e+00) (0, 0, 0.00000000000000000000e+00) (0, 0, 0.00000000000000000000e+00) (0, 0, 0.00000000000000000000e+00) (0, 0, 0.00000000000000000000e+00) (0, 0, 0.00000000000000000000e+00) (0, 0, 0.00000000000000000000e+00) (0, 0, 0.00000000000000000000e+00) (0, 0, 0.00000000000000000000e+00) (0, 0, 0.00000000000000000000e+00) (0, 0, 0.00000000000000000000e+00) (0, 0, 0.00000000000000000000e+00) (0, 0, 0.00000000000000000000e+00) (0, 0, 0.00000000000000000000e+00) (0, 0, 0.00000000000000000000e+00) (0, 0, 0.00000000000000000000e+00) (0, 0, 0.00000000000000000000e+00) (0, 0, 0.00000000000000000000e+00) (0, 0, 0.00000000000000000000e+00) (0, 0, 0.00000000000000000000e+00) (0, 0, 0.00000000000000000000e+00) (0, 0, 0.00000000000000000000e+00) (0, 0, 0.00000000000000000000e+00) (0, 0, 0.00000000000000000000e+00) (0, 0, 0.00000000000000000000e+00) (0, 0, 0.00000000000000000000e+00) (0, 0, 0.00000000000000000000e+00) (0, 0, 0.00000000000000000000e+00) (0, 0, 0.00000000000000000000e+00) (0, 0, 0.00000000000000000000e+00) (0, 0, 0.00000000000000000000e+00) (0, 0, 0.00000000000000000000e+00) (0, 0, 0.00000000000000000000e+00) (0, 0, 0.00000000000000000000e+00) (0, 0, 0.00000000000000000000e+00) (0, 0, 0.00000000000000000000e+00) (0, 0, 0.00000000000000000000e+00) (0, 0, 0.00000000000000000000e+00) (0, 0, 0.00000000000000000000e+00) (0, 0, 0.00000000000000000000e+00) (0, 0, 0.00000000000000000000e+00) (0, 0, 0.00000000000000000000e+00) (0, 0, 0.00000000000000000000e+00) (0, 0, 0.00000000000000000000e+00) (0, 0, 0.00000000000000000000e+00) (0, 0, 0.00000000000000000000e+00) (0, 0, 0.00000000000000000000e+00) (0, 0, 0.00000000000000000000e+00) (0, 0, 0.00000000000000000000e+00) (0, 0, 0.00000000000000000000e+00) (0, 0, 0.00000000000000000000e+00) (0, 0, 0.00000000000000000000e+00) (0, 0, 0.00000000000000000000e+00) (0, 0, 0.00000000000000000000e+00) (0, 0, 0.00000000000000000000e+00) (0, 0, 0.00000000000000000000e+00) (0, 0, 0.00000000000000000000e+00) (0, 0, 0.00000000000000000000e+00) (0, 0, 0.00000000000000000000e+00) (0, 0, 0.00000000000000000000e+00) (0, 0, 0.00000000000000000000e+00) (0, 0, 0.00000000000000000000e+00) (0, 0, 0.00000000000000000000e+00) (0, 0, 0.00000000000000000000e+00) (0, 0, 0.00000000000000000000e+00) (0, 0, 0.00000000000000000000e+00) (0, 0, 0.00000000000000000000e+00) (0, 0, 0.00000000000000000000e+00) (0, 0, 0.00000000000000000000e+00) (0, 0, 0.00000000000000000000e+00) (0, 0, 0.00000000000000000000e+00) (0, 0, 0.00000000000000000000e+00) (0, 0, 0.00000000000000000000e+00) (0, 0, 0.00000000000000000000e+00) (0, 0, 0.00000000000000000000e+00) (0, 0, 0.00000000000000000000e+00) (0, 0, 0.00000000000000000000e+00) (0, 0, 0.00000000000000000000e+00) (0, 0, 0.00000000000000000000e+00) (0, 0, 0.00000000000000000000e+00) (0, 0, 0.00000000000000000000e+00) (0, 0, 0.00000000000000000000e+00) (0, 0, 0.00000000000000000000e+00) (0, 0, 0.00000000000000000000e+00) (0, 0, 0.00000000000000000000e+00) (0, 0, 0.00000000000000000000e+00) (0, 0, 0.00000000000000000000e+00) (0, 0, 0.00000000000000000000e+00) (0, 0, 0.00000000000000000000e+00) (0, 0, 0.00000000000000000000e+00) (0, 0, 0.00000000000000000000e+00) (0, 0, 0.00000000000000000000e+00) (0, 0, 0.00000000000000000000e+00) (0, 0, 0.00000000000000000000e+00) (0, 0, 0.00000000000000000000e+00) (0, 0, 0.00000000000000000000e+00) (0, 0, 0.00000000000000000000e+00) (0, 0, 0.00000000000000000000e+00) (0, 0, 0.00000000000000000000e+00) (0, 0, 0.00000000000000000000e+00) (0, 0, 0.00000000000000000000e+00) (0, 0, 0.00000000000000000000e+00) (0, 0, 0.00000000000000000000e+00) (0, 0, 0.00000000000000000000e+00) (0, 0, 0.00000000000000000000e+00) (0, 0, 0.00000000000000000000e+00) (0, 0, 0.00000000000000000000e+00) (0, 0, 0.00000000000000000000e+00) (0, 0, 0.00000000000000000000e+00) (0, 0, 0.00000000000000000000e+00) (0, 0, 0.00000000000000000000e+00) (0, 0, 0.00000000000000000000e+00) (0, 0, 0.00000000000000000000e+00) (0, 0, 0.00000000000000000000e+00) (0, 0, 0.00000000000000000000e+00) (0, 0, 0.00000000000000000000e+00) (0, 0, 0.00000000000000000000e+00) (0, 0, 0.00000000000000000000e+00) (0, 0, 0.00000000000000000000e+00) (0, 0, 0.00000000000000000000e+00) (0, 0, 0.00000000000000000000e+00) (0, 0, 0.00000000000000000000e+00) (0, 0, 0.00000000000000000000e+00) (0, 0, 0.00000000000000000000e+00) (0, 0, 0.00000000000000000000e+00) (0, 0, 0.00000000000000000000e+00) (0, 0, 0.00000000000000000000e+00) (0, 0, 0.00000000000000000000e+00) (0, 0, 0.00000000000000000000e+00) (0, 0, 0.00000000000000000000e+00) (0, 0, 0.00000000000000000000e+00) (0, 0, 0.00000000000000000000e+00) (0, 0, 0.00000000000000000000e+00) (0, 0, 0.00000000000000000000e+00) (0, 0, 0.00000000000000000000e+00) (0, 0, 0.00000000000000000000e+00) (0, 0, 0.00000000000000000000e+00) (0, 0, 0.00000000000000000000e+00) (0, 0, 0.00000000000000000000e+00) (0, 0, 0.00000000000000000000e+00) (0, 0, 0.00000000000000000000e+00) (0, 0, 0.00000000000000000000e+00) (0, 0, 0.00000000000000000000e+00) (0, 0, 0.00000000000000000000e+00) (0, 0, 0.00000000000000000000e+00) (0, 0, 0.00000000000000000000e+00) (0, 0, 0.00000000000000000000e+00) (0, 0, 0.00000000000000000000e+00) (0, 0, 0.00000000000000000000e+00) (0, 0, 0.00000000000000000000e+00) (0, 0, 0.00000000000000000000e+00) (0, 0, 0.00000000000000000000e+00) (0, 0, 0.00000000000000000000e+00) (0, 0, 0.00000000000000000000e+00) (0, 0, 0.00000000000000000000e+00) (0, 0, 0.00000000000000000000e+00) (0, 0, 0.00000000000000000000e+00) (0, 0, 0.00000000000000000000e+00) (0, 0, 0.00000000000000000000e+00) (0, 0, 0.00000000000000000000e+00) (0, 0, 0.00000000000000000000e+00) (0, 0, 0.00000000000000000000e+00) (0, 0, 0.00000000000000000000e+00) (0, 0, 0.00000000000000000000e+00) (0, 0, 0.00000000000000000000e+00) (0, 0, 0.00000000000000000000e+00) (0, 0, 0.00000000000000000000e+00) (0, 0, 0.00000000000000000000e+00) (0, 0, 0.00000000000000000000e+00) (0, 0, 0.00000000000000000000e+00) (0, 0, 0.00000000000000000000e+00) (0, 0, 0.00000000000000000000e+00) (0, 0, 0.00000000000000000000e+00) (0, 0, 0.00000000000000000000e+00) (0, 0, 0.00000000000000000000e+00) (0, 0, 0.00000000000000000000e+00) (0, 0, 0.00000000000000000000e+00) (0, 0, 0.00000000000000000000e+00) (0, 0, 0.00000000000000000000e+00) (0, 0, 0.00000000000000000000e+00) (0, 0, 0.00000000000000000000e+00) (0, 0, 0.00000000000000000000e+00) (0, 0, 0.00000000000000000000e+00) (0, 0, 0.00000000000000000000e+00) (0, 0, 0.00000000000000000000e+00) (0, 0, 0.00000000000000000000e+00) (0, 0, 0.00000000000000000000e+00) (0, 0, 0.00000000000000000000e+00) (0, 0, 0.00000000000000000000e+00) (0, 0, 0.00000000000000000000e+00) (0, 0, 0.00000000000000000000e+00) (0, 0, 0.00000000000000000000e+00) (0, 0, 0.00000000000000000000e+00) (0, 0, 0.00000000000000000000e+00) (0, 0, 0.00000000000000000000e+00) (0, 0, 0.00000000000000000000e+00) (0, 0, 0.00000000000000000000e+00) (0, 0, 0.00000000000000000000e+00) (0, 0, 0.00000000000000000000e+00) (0, 0, 0.00000000000000000000e+00) (0, 0, 0.00000000000000000000e+00) (0, 0, 0.00000000000000000000e+00) (0, 0, 0.00000000000000000000e+00) (0, 0, 0.00000000000000000000e+00) (0, 0, 0.00000000000000000000e+00) (0, 0, 0.00000000000000000000e+00) (0, 0, 0.00000000000000000000e+00) (0, 0, 0.00000000000000000000e+00) (0, 0, 0.00000000000000000000e+00) (0, 0, 0.00000000000000000000e+00) (0, 0, 0.00000000000000000000e+00) (0, 0, 0.00000000000000000000e+00) (0, 0, 0.00000000000000000000e+00) (0, 0, 0.00000000000000000000e+00) (0, 0, 0.00000000000000000000e+00) (0, 0, 0.00000000000000000000e+00) (0, 0, 0.00000000000000000000e+00) (0, 0, 0.00000000000000000000e+00) (0, 0, 0.00000000000000000000e+00) (0, 0, 0.00000000000000000000e+00) (0, 0, 0.00000000000000000000e+00) (0, 0, 0.00000000000000000000e+00) (0, 0, 0.00000000000000000000e+00) (0, 0, 0.00000000000000000000e+00) (0, 0, 0.00000000000000000000e+00) (0, 0, 0.00000000000000000000e+00) (0, 0, 0.00000000000000000000e+00) (0, 0, 0.00000000000000000000e+00) (0, 0, 0.00000000000000000000e+00) (0, 0, 0.00000000000000000000e+00) (0, 0, 0.00000000000000000000e+00) (0, 0, 0.00000000000000000000e+00) (0, 0, 0.00000000000000000000e+00) (0, 0, 0.00000000000000000000e+00) (0, 0, 0.00000000000000000000e+00) (0, 0, 0.00000000000000000000e+00) (0, 0, 0.00000000000000000000e+00) (0, 0, 0.00000000000000000000e+00) (0, 0, 0.00000000000000000000e+00) (0, 0, 0.00000000000000000000e+00) (0, 0, 0.00000000000000000000e+00) (0, 0, 0.00000000000000000000e+00) (0, 0, 0.00000000000000000000e+00) (0, 0, 0.00000000000000000000e+00) (0, 0, 0.00000000000000000000e+00) (0, 0, 0.00000000000000000000e+00) (0, 0, 0.00000000000000000000e+00) (0, 0, 0.00000000000000000000e+00) (0, 0, 0.00000000000000000000e+00) (0, 0, 0.00000000000000000000e+00) (0, 0, 0.00000000000000000000e+00) (0, 0, 0.00000000000000000000e+00) (0, 0, 0.00000000000000000000e+00) (0, 0, 0.00000000000000000000e+00) (0, 0, 0.00000000000000000000e+00) (0, 0, 0.00000000000000000000e+00) (0, 0, 0.00000000000000000000e+00) (0, 0, 0.00000000000000000000e+00) (0, 0, 0.00000000000000000000e+00) (0, 0, 0.00000000000000000000e+00) (0, 0, 0.00000000000000000000e+00) (0, 0, 0.00000000000000000000e+00) (0, 0, 0.00000000000000000000e+00) (0, 0, 0.00000000000000000000e+00) (0, 0, 0.00000000000000000000e+00) (0, 0, 0.00000000000000000000e+00) (0, 0, 0.00000000000000000000e+00) (0, 0, 0.00000000000000000000e+00) (0, 0, 0.00000000000000000000e+00) (0, 0, 0.00000000000000000000e+00) (0, 0, 0.00000000000000000000e+00) (0, 0, 0.00000000000000000000e+00) (0, 0, 0.00000000000000000000e+00) (0, 0, 0.00000000000000000000e+00) (0, 0, 0.00000000000000000000e+00) (0, 0, 0.00000000000000000000e+00) (0, 0, 0.00000000000000000000e+00) (0, 0, 0.00000000000000000000e+00) (0, 0, 0.00000000000000000000e+00) (0, 0, 0.00000000000000000000e+00) (0, 0, 0.00000000000000000000e+00) (0, 0, 0.00000000000000000000e+00) (0, 0, 0.00000000000000000000e+00) (0, 0, 0.00000000000000000000e+00) (0, 0, 0.00000000000000000000e+00) (0, 0, 0.00000000000000000000e+00) (0, 0, 0.00000000000000000000e+00) (0, 0, 0.00000000000000000000e+00) (0, 0, 0.00000000000000000000e+00) (0, 0, 0.00000000000000000000e+00) (0, 0, 0.00000000000000000000e+00) (0, 0, 0.00000000000000000000e+00) (0, 0, 0.00000000000000000000e+00) (0, 0, 0.00000000000000000000e+00) (0, 0, 0.00000000000000000000e+00) (0, 0, 0.00000000000000000000e+00) (0, 0, 0.00000000000000000000e+00) (0, 0, 0.00000000000000000000e+00) (0, 0, 0.00000000000000000000e+00) (0, 0, 0.00000000000000000000e+00) (0, 0, 0.00000000000000000000e+00) (0, 0, 0.00000000000000000000e+00) (0, 0, 0.00000000000000000000e+00) (0, 0, 0.00000000000000000000e+00) (0, 0, 0.00000000000000000000e+00) (0, 0, 0.00000000000000000000e+00) (0, 0, 0.00000000000000000000e+00) (0, 0, 0.00000000000000000000e+00) (0, 0, 0.00000000000000000000e+00) (0, 0, 0.00000000000000000000e+00) (0, 0, 0.00000000000000000000e+00) (0, 0, 0.00000000000000000000e+00) (0, 0, 0.00000000000000000000e+00) (0, 0, 0.00000000000000000000e+00) (0, 0, 0.00000000000000000000e+00) (0, 0, 0.00000000000000000000e+00) (0, 0, 0.00000000000000000000e+00) (0, 0, 0.00000000000000000000e+00) (0, 0, 0.00000000000000000000e+00) (0, 0, 0.00000000000000000000e+00) (0, 0, 0.00000000000000000000e+00) (0, 0, 0.00000000000000000000e+00) (0, 0, 0.00000000000000000000e+00) (0, 0, 0.00000000000000000000e+00) (0, 0, 0.00000000000000000000e+00) (0, 0, 0.00000000000000000000e+00) (0, 0, 0.00000000000000000000e+00) (0, 0, 0.00000000000000000000e+00) (0, 0, 0.00000000000000000000e+00) (0, 0, 0.00000000000000000000e+00) (0, 0, 0.00000000000000000000e+00) (0, 0, 0.00000000000000000000e+00) (0, 0, 0.00000000000000000000e+00) (0, 0, 0.00000000000000000000e+00) (0, 0, 0.00000000000000000000e+00) (0, 0, 0.00000000000000000000e+00) (0, 0, 0.00000000000000000000e+00) (0, 0, 0.00000000000000000000e+00) (0, 0, 0.00000000000000000000e+00) (0, 0, 0.00000000000000000000e+00) (0, 0, 0.00000000000000000000e+00) (0, 0, 0.00000000000000000000e+00) (0, 0, 0.00000000000000000000e+00) (0, 0, 0.00000000000000000000e+00) (0, 0, 0.00000000000000000000e+00) (0, 0, 0.00000000000000000000e+00) (0, 0, 0.00000000000000000000e+00) (0, 0, 0.00000000000000000000e+00) (0, 0, 0.00000000000000000000e+00) (0, 0, 0.00000000000000000000e+00) (0, 0, 0.00000000000000000000e+00) (0, 0, 0.00000000000000000000e+00) (0, 0, 0.00000000000000000000e+00) (0, 0, 0.00000000000000000000e+00) (0, 0, 0.00000000000000000000e+00) (0, 0, 0.00000000000000000000e+00) (0, 0, 0.00000000000000000000e+00) (0, 0, 0.00000000000000000000e+00) (0, 0, 0.00000000000000000000e+00) (0, 0, 0.00000000000000000000e+00) (0, 0, 0.00000000000000000000e+00) (0, 0, 0.00000000000000000000e+00) (0, 0, 0.00000000000000000000e+00) (0, 0, 0.00000000000000000000e+00) (0, 0, 0.00000000000000000000e+00) (0, 0, 0.00000000000000000000e+00) (0, 0, 0.00000000000000000000e+00) (0, 0, 0.00000000000000000000e+00) (0, 0, 0.00000000000000000000e+00) (0, 0, 0.00000000000000000000e+00) (0, 0, 0.00000000000000000000e+00) (0, 0, 0.00000000000000000000e+00) (0, 0, 0.00000000000000000000e+00) (0, 0, 0.00000000000000000000e+00) (0, 0, 0.00000000000000000000e+00) (0, 0, 0.00000000000000000000e+00) (0, 0, 0.00000000000000000000e+00) (0, 0, 0.00000000000000000000e+00) (0, 0, 0.00000000000000000000e+00) (0, 0, 0.00000000000000000000e+00) (0, 0, 0.00000000000000000000e+00) (0, 0, 0.00000000000000000000e+00) (0, 0, 0.00000000000000000000e+00) (0, 0, 0.00000000000000000000e+00) (0, 0, 0.00000000000000000000e+00) (0, 0, 0.00000000000000000000e+00) (0, 0, 0.00000000000000000000e+00) (0, 0, 0.00000000000000000000e+00) (0, 0, 0.00000000000000000000e+00) (0, 0, 0.00000000000000000000e+00) (0, 0, 0.00000000000000000000e+00) (0, 0, 0.00000000000000000000e+00) (0, 0, 0.00000000000000000000e+00) (0, 0, 0.00000000000000000000e+00) (0, 0, 0.00000000000000000000e+00) (0, 0, 0.00000000000000000000e+00) (0, 0, 0.00000000000000000000e+00) (0, 0, 0.00000000000000000000e+00) (0, 0, 0.00000000000000000000e+00) (0, 0, 0.00000000000000000000e+00) (0, 0, 0.00000000000000000000e+00) (0, 0, 0.00000000000000000000e+00) (0, 0, 0.00000000000000000000e+00) (0, 0, 0.00000000000000000000e+00) (0, 0, 0.00000000000000000000e+00) (0, 0, 0.00000000000000000000e+00) (0, 0, 0.00000000000000000000e+00) (0, 0, 0.00000000000000000000e+00) (0, 0, 0.00000000000000000000e+00) (0, 0, 0.00000000000000000000e+00) (0, 0, 0.00000000000000000000e+00) (0, 0, 0.00000000000000000000e+00) (0, 0, 0.00000000000000000000e+00) (0, 0, 0.00000000000000000000e+00) (0, 0, 0.00000000000000000000e+00) (0, 0, 0.00000000000000000000e+00) (0, 0, 0.00000000000000000000e+00) (0, 0, 0.00000000000000000000e+00) (0, 0, 0.00000000000000000000e+00) (0, 0, 0.00000000000000000000e+00) (0, 0, 0.00000000000000000000e+00) (0, 0, 0.00000000000000000000e+00) (0, 0, 0.00000000000000000000e+00) (0, 0, 0.00000000000000000000e+00) (0, 0, 0.00000000000000000000e+00) (0, 0, 0.00000000000000000000e+00) (0, 0, 0.00000000000000000000e+00) (0, 0, 0.00000000000000000000e+00) (0, 0, 0.00000000000000000000e+00) (0, 0, 0.00000000000000000000e+00) (0, 0, 0.00000000000000000000e+00) (0, 0, 0.00000000000000000000e+00) (0, 0, 0.00000000000000000000e+00) (0, 0, 0.00000000000000000000e+00) (0, 0, 0.00000000000000000000e+00) (0, 0, 0.00000000000000000000e+00) (0, 0, 0.00000000000000000000e+00) (0, 0, 0.00000000000000000000e+00) (0, 0, 0.00000000000000000000e+00) (0, 0, 0.00000000000000000000e+00) (0, 0, 0.00000000000000000000e+00) (0, 0, 0.00000000000000000000e+00) (0, 0, 0.00000000000000000000e+00) (0, 0, 0.00000000000000000000e+00) (0, 0, 0.00000000000000000000e+00) (0, 0, 0.00000000000000000000e+00) (0, 0, 0.00000000000000000000e+00) (0, 0, 0.00000000000000000000e+00) (0, 0, 0.00000000000000000000e+00) (0, 0, 0.00000000000000000000e+00) (0, 0, 0.00000000000000000000e+00) (0, 0, 0.00000000000000000000e+00) (0, 0, 0.00000000000000000000e+00) (0, 0, 0.00000000000000000000e+00) (0, 0, 0.00000000000000000000e+00) (0, 0, 0.00000000000000000000e+00) (0, 0, 0.00000000000000000000e+00) (0, 0, 0.00000000000000000000e+00) (0, 0, 0.00000000000000000000e+00) (0, 0, 0.00000000000000000000e+00) (0, 0, 0.00000000000000000000e+00) (0, 0, 0.00000000000000000000e+00) (0, 0, 0.00000000000000000000e+00) (0, 0, 0.00000000000000000000e+00) (0, 0, 0.00000000000000000000e+00) (0, 0, 0.00000000000000000000e+00) (0, 0, 0.00000000000000000000e+00) (0, 0, 0.00000000000000000000e+00) (0, 0, 0.00000000000000000000e+00) (0, 0, 0.00000000000000000000e+00) (0, 0, 0.00000000000000000000e+00) (0, 0, 0.00000000000000000000e+00) (0, 0, 0.00000000000000000000e+00) (0, 0, 0.00000000000000000000e+00) (0, 0, 0.00000000000000000000e+00) (0, 0, 0.00000000000000000000e+00) (0, 0, 0.00000000000000000000e+00) (0, 0, 0.00000000000000000000e+00) (0, 0, 0.00000000000000000000e+00) (0, 0, 0.00000000000000000000e+00) (0, 0, 0.00000000000000000000e+00) (0, 0, 0.00000000000000000000e+00) (0, 0, 0.00000000000000000000e+00) (0, 0, 0.00000000000000000000e+00) (0, 0, 0.00000000000000000000e+00) (0, 0, 0.00000000000000000000e+00) (0, 0, 0.00000000000000000000e+00) (0, 0, 0.00000000000000000000e+00) (0, 0, 0.00000000000000000000e+00) (0, 0, 0.00000000000000000000e+00) (0, 0, 0.00000000000000000000e+00) (0, 0, 0.00000000000000000000e+00) (0, 0, 0.00000000000000000000e+00) (0, 0, 0.00000000000000000000e+00) (0, 0, 0.00000000000000000000e+00) (0, 0, 0.00000000000000000000e+00) (0, 0, 0.00000000000000000000e+00) (0, 0, 0.00000000000000000000e+00) (0, 0, 0.00000000000000000000e+00) (0, 0, 0.00000000000000000000e+00) (0, 0, 0.00000000000000000000e+00) (0, 0, 0.00000000000000000000e+00) (0, 0, 0.00000000000000000000e+00) (0, 0, 0.00000000000000000000e+00) (0, 0, 0.00000000000000000000e+00) (0, 0, 0.00000000000000000000e+00) (0, 0, 0.00000000000000000000e+00) (0, 0, 0.00000000000000000000e+00) (0, 0, 0.00000000000000000000e+00) (0, 0, 0.00000000000000000000e+00) (0, 0, 0.00000000000000000000e+00) (0, 0, 0.00000000000000000000e+00) (0, 0, 0.00000000000000000000e+00) (0, 0, 0.00000000000000000000e+00) (0, 0, 0.00000000000000000000e+00) (0, 0, 0.00000000000000000000e+00) (0, 0, 0.00000000000000000000e+00) (0, 0, 0.00000000000000000000e+00) (0, 0, 0.00000000000000000000e+00) (0, 0, 0.00000000000000000000e+00) (0, 0, 0.00000000000000000000e+00) (0, 0, 0.00000000000000000000e+00) (0, 0, 0.00000000000000000000e+00) (0, 0, 0.00000000000000000000e+00) (0, 0, 0.00000000000000000000e+00) (0, 0, 0.00000000000000000000e+00) (0, 0, 0.00000000000000000000e+00) (0, 0, 0.00000000000000000000e+00) (0, 0, 0.00000000000000000000e+00) (0, 0, 0.00000000000000000000e+00) (0, 0, 0.00000000000000000000e+00) (0, 0, 0.00000000000000000000e+00) (0, 0, 0.00000000000000000000e+00) (0, 0, 0.00000000000000000000e+00) (0, 0, 0.00000000000000000000e+00) (0, 0, 0.00000000000000000000e+00) (0, 0, 0.00000000000000000000e+00) (0, 0, 0.00000000000000000000e+00) (0, 0, 0.00000000000000000000e+00) (0, 0, 0.00000000000000000000e+00) (0, 0, 0.00000000000000000000e+00) (0, 0, 0.00000000000000000000e+00) (0, 0, 0.00000000000000000000e+00) (0, 0, 0.00000000000000000000e+00) (0, 0, 0.00000000000000000000e+00) (0, 0, 0.00000000000000000000e+00) (0, 0, 0.00000000000000000000e+00) (0, 0, 0.00000000000000000000e+00) (0, 0, 0.00000000000000000000e+00) (0, 0, 0.00000000000000000000e+00) (0, 0, 0.00000000000000000000e+00) (0, 0, 0.00000000000000000000e+00) (0, 0, 0.00000000000000000000e+00) (0, 0, 0.00000000000000000000e+00) (0, 0, 0.00000000000000000000e+00) (0, 0, 0.00000000000000000000e+00) (0, 0, 0.00000000000000000000e+00) (0, 0, 0.00000000000000000000e+00) (0, 0, 0.00000000000000000000e+00) (0, 0, 0.00000000000000000000e+00) (0, 0, 0.00000000000000000000e+00) (0, 0, 0.00000000000000000000e+00) (0, 0, 0.00000000000000000000e+00) (0, 0, 0.00000000000000000000e+00) (0, 0, 0.00000000000000000000e+00) (0, 0, 0.00000000000000000000e+00) (0, 0, 0.00000000000000000000e+00) (0, 0, 0.00000000000000000000e+00) (0, 0, 0.00000000000000000000e+00) (0, 0, 0.00000000000000000000e+00) (0, 0, 0.00000000000000000000e+00) (0, 0, 0.00000000000000000000e+00) (0, 0, 0.00000000000000000000e+00) (0, 0, 0.00000000000000000000e+00) (0, 0, 0.00000000000000000000e+00) (0, 0, 0.00000000000000000000e+00) (0, 0, 0.00000000000000000000e+00) (0, 0, 0.00000000000000000000e+00) (0, 0, 0.00000000000000000000e+00) (0, 0, 0.00000000000000000000e+00) (0, 0, 0.00000000000000000000e+00) (0, 0, 0.00000000000000000000e+00) (0, 0, 0.00000000000000000000e+00) (0, 0, 0.00000000000000000000e+00) (0, 0, 0.00000000000000000000e+00) (0, 0, 0.00000000000000000000e+00) (0, 0, 0.00000000000000000000e+00) (0, 0, 0.00000000000000000000e+00) (0, 0, 0.00000000000000000000e+00) (0, 0, 0.00000000000000000000e+00) (0, 0, 0.00000000000000000000e+00) (0, 0, 0.00000000000000000000e+00) (0, 0, 0.00000000000000000000e+00) (0, 0, 0.00000000000000000000e+00) (0, 0, 0.00000000000000000000e+00) (0, 0, 0.00000000000000000000e+00) (0, 0, 0.00000000000000000000e+00) (0, 0, 0.00000000000000000000e+00) (0, 0, 0.00000000000000000000e+00) (0, 0, 0.00000000000000000000e+00) (0, 0, 0.00000000000000000000e+00) (0, 0, 0.00000000000000000000e+00) (0, 0, 0.00000000000000000000e+00) (0, 0, 0.00000000000000000000e+00) (0, 0, 0.00000000000000000000e+00) (0, 0, 0.00000000000000000000e+00) (0, 0, 0.00000000000000000000e+00) (0, 0, 0.00000000000000000000e+00) (0, 0, 0.00000000000000000000e+00) (0, 0, 0.00000000000000000000e+00) (0, 0, 0.00000000000000000000e+00) (0, 0, 0.00000000000000000000e+00) (0, 0, 0.00000000000000000000e+00) (0, 0, 0.00000000000000000000e+00) (0, 0, 0.00000000000000000000e+00) (0, 0, 0.00000000000000000000e+00) (0, 0, 0.00000000000000000000e+00) (0, 0, 0.00000000000000000000e+00) (0, 0, 0.00000000000000000000e+00) (0, 0, 0.00000000000000000000e+00) (0, 0, 0.00000000000000000000e+00) (0, 0, 0.00000000000000000000e+00) (0, 0, 0.00000000000000000000e+00) (0, 0, 0.00000000000000000000e+00) (0, 0, 0.00000000000000000000e+00) (0, 0, 0.00000000000000000000e+00) (0, 0, 0.00000000000000000000e+00) (0, 0, 0.00000000000000000000e+00) (0, 0, 0.00000000000000000000e+00) (0, 0, 0.00000000000000000000e+00) (0, 0, 0.00000000000000000000e+00) (0, 0, 0.00000000000000000000e+00) (0, 0, 0.00000000000000000000e+00) (0, 0, 0.00000000000000000000e+00) (0, 0, 0.00000000000000000000e+00) (0, 0, 0.00000000000000000000e+00) (0, 0, 0.00000000000000000000e+00) (0, 0, 0.00000000000000000000e+00) (0, 0, 0.00000000000000000000e+00) (0, 0, 0.00000000000000000000e+00) (0, 0, 0.00000000000000000000e+00) (0, 0, 0.00000000000000000000e+00) (0, 0, 0.00000000000000000000e+00) (0, 0, 0.00000000000000000000e+00) (0, 0, 0.00000000000000000000e+00) (0, 0, 0.00000000000000000000e+00) (0, 0, 0.00000000000000000000e+00) (0, 0, 0.00000000000000000000e+00) (0, 0, 0.00000000000000000000e+00) (0, 0, 0.00000000000000000000e+00) (0, 0, 0.00000000000000000000e+00) (0, 0, 0.00000000000000000000e+00) (0, 0, 0.00000000000000000000e+00) (0, 0, 0.00000000000000000000e+00) (0, 0, 0.00000000000000000000e+00) (0, 0, 0.00000000000000000000e+00) (0, 0, 0.00000000000000000000e+00) (0, 0, 0.00000000000000000000e+00) (0, 0, 0.00000000000000000000e+00) (0, 0, 0.00000000000000000000e+00) (0, 0, 0.00000000000000000000e+00) (0, 0, 0.00000000000000000000e+00) (0, 0, 0.00000000000000000000e+00) (0, 0, 0.00000000000000000000e+00) (0, 0, 0.00000000000000000000e+00) (0, 0, 0.00000000000000000000e+00) (0, 0, 0.00000000000000000000e+00) (0, 0, 0.00000000000000000000e+00) (0, 0, 0.00000000000000000000e+00) (0, 0, 0.00000000000000000000e+00) (0, 0, 0.00000000000000000000e+00) (0, 0, 0.00000000000000000000e+00) (0, 0, 0.00000000000000000000e+00) (0, 0, 0.00000000000000000000e+00) (0, 0, 0.00000000000000000000e+00) (0, 0, 0.00000000000000000000e+00) (0, 0, 0.00000000000000000000e+00) (0, 0, 0.00000000000000000000e+00) (0, 0, 0.00000000000000000000e+00) (0, 0, 0.00000000000000000000e+00) (0, 0, 0.00000000000000000000e+00) (0, 0, 0.00000000000000000000e+00) (0, 0, 0.00000000000000000000e+00) (0, 0, 0.00000000000000000000e+00) (0, 0, 0.00000000000000000000e+00) (0, 0, 0.00000000000000000000e+00) (0, 0, 0.00000000000000000000e+00) (0, 0, 0.00000000000000000000e+00) (0, 0, 0.00000000000000000000e+00) (0, 0, 0.00000000000000000000e+00) (0, 0, 0.00000000000000000000e+00) (0, 0, 0.00000000000000000000e+00) (0, 0, 0.00000000000000000000e+00) (0, 0, 0.00000000000000000000e+00) (0, 0, 0.00000000000000000000e+00) (0, 0, 0.00000000000000000000e+00) (0, 0, 0.00000000000000000000e+00) (0, 0, 0.00000000000000000000e+00) (0, 0, 0.00000000000000000000e+00) (0, 0, 0.00000000000000000000e+00) (0, 0, 0.00000000000000000000e+00) (0, 0, 0.00000000000000000000e+00) (0, 0, 0.00000000000000000000e+00) (0, 0, 0.00000000000000000000e+00) (0, 0, 0.00000000000000000000e+00) (0, 0, 0.00000000000000000000e+00) (0, 0, 0.00000000000000000000e+00) (0, 0, 0.00000000000000000000e+00) (0, 0, 0.00000000000000000000e+00) (0, 0, 0.00000000000000000000e+00) (0, 0, 0.00000000000000000000e+00) (0, 0, 0.00000000000000000000e+00) (0, 0, 0.00000000000000000000e+00) (0, 0, 0.00000000000000000000e+00) (0, 0, 0.00000000000000000000e+00) (0, 0, 0.00000000000000000000e+00) (0, 0, 0.00000000000000000000e+00) (0, 0, 0.00000000000000000000e+00) (0, 0, 0.00000000000000000000e+00) (0, 0, 0.00000000000000000000e+00) (0, 0, 0.00000000000000000000e+00) (0, 0, 0.00000000000000000000e+00) (0, 0, 0.00000000000000000000e+00) (0, 0, 0.00000000000000000000e+00) (0, 0, 0.00000000000000000000e+00) (0, 0, 0.00000000000000000000e+00) (0, 0, 0.00000000000000000000e+00) (0, 0, 0.00000000000000000000e+00) (0, 0, 0.00000000000000000000e+00) (0, 0, 0.00000000000000000000e+00) (0, 0, 0.00000000000000000000e+00) (0, 0, 0.00000000000000000000e+00) (0, 0, 0.00000000000000000000e+00) (0, 0, 0.00000000000000000000e+00) (0, 0, 0.00000000000000000000e+00) (0, 0, 0.00000000000000000000e+00) (0, 0, 0.00000000000000000000e+00) (0, 0, 0.00000000000000000000e+00) (0, 0, 0.00000000000000000000e+00) (0, 0, 0.00000000000000000000e+00) (0, 0, 0.00000000000000000000e+00) (0, 0, 0.00000000000000000000e+00) (0, 0, 0.00000000000000000000e+00) (0, 0, 0.00000000000000000000e+00) (0, 0, 0.00000000000000000000e+00) (0, 0, 0.00000000000000000000e+00) (0, 0, 0.00000000000000000000e+00) (0, 0, 0.00000000000000000000e+00) (0, 0, 0.00000000000000000000e+00) (0, 0, 0.00000000000000000000e+00) (0, 0, 0.00000000000000000000e+00) (0, 0, 0.00000000000000000000e+00) (0, 0, 0.00000000000000000000e+00) (0, 0, 0.00000000000000000000e+00) (0, 0, 0.00000000000000000000e+00) (0, 0, 0.00000000000000000000e+00) (0, 0, 0.00000000000000000000e+00) (0, 0, 0.00000000000000000000e+00) (0, 0, 0.00000000000000000000e+00) (0, 0, 0.00000000000000000000e+00) (0, 0, 0.00000000000000000000e+00) (0, 0, 0.00000000000000000000e+00) (0, 0, 0.00000000000000000000e+00) (0, 0, 0.00000000000000000000e+00) (0, 0, 0.00000000000000000000e+00) (0, 0, 0.00000000000000000000e+00) (0, 0, 0.00000000000000000000e+00) (0, 0, 0.00000000000000000000e+00) (0, 0, 0.00000000000000000000e+00) (0, 0, 0.00000000000000000000e+00) (0, 0, 0.00000000000000000000e+00) (0, 0, 0.00000000000000000000e+00) (0, 0, 0.00000000000000000000e+00) (0, 0, 0.00000000000000000000e+00) (0, 0, 0.00000000000000000000e+00) (0, 0, 0.00000000000000000000e+00) (0, 0, 0.00000000000000000000e+00) (0, 0, 0.00000000000000000000e+00) (0, 0, 0.00000000000000000000e+00) (0, 0, 0.00000000000000000000e+00) (0, 0, 0.00000000000000000000e+00) (0, 0, 0.00000000000000000000e+00) (0, 0, 0.00000000000000000000e+00) (0, 0, 0.00000000000000000000e+00) (0, 0, 0.00000000000000000000e+00) (0, 0, 0.00000000000000000000e+00) (0, 0, 0.00000000000000000000e+00) (0, 0, 0.00000000000000000000e+00) (0, 0, 0.00000000000000000000e+00) (0, 0, 0.00000000000000000000e+00) (0, 0, 0.00000000000000000000e+00) (0, 0, 0.00000000000000000000e+00) (0, 0, 0.00000000000000000000e+00) (0, 0, 0.00000000000000000000e+00) (0, 0, 0.00000000000000000000e+00) (0, 0, 0.00000000000000000000e+00) (0, 0, 0.00000000000000000000e+00) (0, 0, 0.00000000000000000000e+00) (0, 0, 0.00000000000000000000e+00) (0, 0, 0.00000000000000000000e+00) (0, 0, 0.00000000000000000000e+00) (0, 0, 0.00000000000000000000e+00) (0, 0, 0.00000000000000000000e+00) (0, 0, 0.00000000000000000000e+00) (0, 0, 0.00000000000000000000e+00) (0, 0, 0.00000000000000000000e+00) (0, 0, 0.00000000000000000000e+00) (0, 0, 0.00000000000000000000e+00) (0, 0, 0.00000000000000000000e+00) (0, 0, 0.00000000000000000000e+00) (0, 0, 0.00000000000000000000e+00) (0, 0, 0.00000000000000000000e+00) (0, 0, 0.00000000000000000000e+00) (0, 0, 0.00000000000000000000e+00) (0, 0, 0.00000000000000000000e+00) (0, 0, 0.00000000000000000000e+00) (0, 0, 0.00000000000000000000e+00) (0, 0, 0.00000000000000000000e+00) (0, 0, 0.00000000000000000000e+00) (0, 0, 0.00000000000000000000e+00) (0, 0, 0.00000000000000000000e+00) (0, 0, 0.00000000000000000000e+00) (0, 0, 0.00000000000000000000e+00) (0, 0, 0.00000000000000000000e+00) (0, 0, 0.00000000000000000000e+00) (0, 0, 0.00000000000000000000e+00) (0, 0, 0.00000000000000000000e+00) (0, 0, 0.00000000000000000000e+00) (0, 0, 0.00000000000000000000e+00) (0, 0, 0.00000000000000000000e+00) (0, 0, 0.00000000000000000000e+00) (0, 0, 0.00000000000000000000e+00) (0, 0, 0.00000000000000000000e+00) (0, 0, 0.00000000000000000000e+00) (0, 0, 0.00000000000000000000e+00) (0, 0, 0.00000000000000000000e+00) (0, 0, 0.00000000000000000000e+00) (0, 0, 0.00000000000000000000e+00) (0, 0, 0.00000000000000000000e+00) (0, 0, 0.00000000000000000000e+00) (0, 0, 0.00000000000000000000e+00) (0, 0, 0.00000000000000000000e+00) (0, 0, 0.00000000000000000000e+00) (0, 0, 0.00000000000000000000e+00) (0, 0, 0.00000000000000000000e+00) (0, 0, 0.00000000000000000000e+00) (0, 0, 0.00000000000000000000e+00) (0, 0, 0.00000000000000000000e+00) (0, 0, 0.00000000000000000000e+00) (0, 0, 0.00000000000000000000e+00) (0, 0, 0.00000000000000000000e+00) (0, 0, 0.00000000000000000000e+00) (0, 0, 0.00000000000000000000e+00) (0, 0, 0.00000000000000000000e+00) (0, 0, 0.00000000000000000000e+00) (0, 0, 0.00000000000000000000e+00) (0, 0, 0.00000000000000000000e+00) (0, 0, 0.00000000000000000000e+00) (0, 0, 0.00000000000000000000e+00) (0, 0, 0.00000000000000000000e+00) (0, 0, 0.00000000000000000000e+00) (0, 0, 0.00000000000000000000e+00) (0, 0, 0.00000000000000000000e+00) (0, 0, 0.00000000000000000000e+00) (0, 0, 0.00000000000000000000e+00) (0, 0, 0.00000000000000000000e+00) (0, 0, 0.00000000000000000000e+00) (0, 0, 0.00000000000000000000e+00) (0, 0, 0.00000000000000000000e+00) (0, 0, 0.00000000000000000000e+00) (0, 0, 0.00000000000000000000e+00) (0, 0, 0.00000000000000000000e+00) (0, 0, 0.00000000000000000000e+00) (0, 0, 0.00000000000000000000e+00) (0, 0, 0.00000000000000000000e+00) (0, 0, 0.00000000000000000000e+00) (0, 0, 0.00000000000000000000e+00) (0, 0, 0.00000000000000000000e+00) (0, 0, 0.00000000000000000000e+00) (0, 0, 0.00000000000000000000e+00) (0, 0, 0.00000000000000000000e+00) (0, 0, 0.00000000000000000000e+00) (0, 0, 0.00000000000000000000e+00) (0, 0, 0.00000000000000000000e+00) (0, 0, 0.00000000000000000000e+00) (0, 0, 0.00000000000000000000e+00) (0, 0, 0.00000000000000000000e+00) (0, 0, 0.00000000000000000000e+00) (0, 0, 0.00000000000000000000e+00) (0, 0, 0.00000000000000000000e+00) (0, 0, 0.00000000000000000000e+00) (0, 0, 0.00000000000000000000e+00) (0, 0, 0.00000000000000000000e+00) (0, 0, 0.00000000000000000000e+00) (0, 0, 0.00000000000000000000e+00) (0, 0, 0.00000000000000000000e+00) (0, 0, 0.00000000000000000000e+00) (0, 0, 0.00000000000000000000e+00) (0, 0, 0.00000000000000000000e+00) (0, 0, 0.00000000000000000000e+00) (0, 0, 0.00000000000000000000e+00) (0, 0, 0.00000000000000000000e+00) (0, 0, 0.00000000000000000000e+00) (0, 0, 0.00000000000000000000e+00) (0, 0, 0.00000000000000000000e+00) (0, 0, 0.00000000000000000000e+00) (0, 0, 0.00000000000000000000e+00) (0, 0, 0.00000000000000000000e+00) (0, 0, 0.00000000000000000000e+00) (0, 0, 0.00000000000000000000e+00) (0, 0, 0.00000000000000000000e+00) (0, 0, 0.00000000000000000000e+00) (0, 0, 0.00000000000000000000e+00) (0, 0, 0.00000000000000000000e+00) (0, 0, 0.00000000000000000000e+00) (0, 0, 0.00000000000000000000e+00) (0, 0, 0.00000000000000000000e+00) (0, 0, 0.00000000000000000000e+00) (0, 0, 0.00000000000000000000e+00) (0, 0, 0.00000000000000000000e+00) (0, 0, 0.00000000000000000000e+00) (0, 0, 0.00000000000000000000e+00) (0, 0, 0.00000000000000000000e+00) (0, 0, 0.00000000000000000000e+00) (0, 0, 0.00000000000000000000e+00) (0, 0, 0.00000000000000000000e+00) (0, 0, 0.00000000000000000000e+00) (0, 0, 0.00000000000000000000e+00) (0, 0, 0.00000000000000000000e+00) (0, 0, 0.00000000000000000000e+00) (0, 0, 0.00000000000000000000e+00) (0, 0, 0.00000000000000000000e+00) (0, 0, 0.00000000000000000000e+00) (0, 0, 0.00000000000000000000e+00) (0, 0, 0.00000000000000000000e+00) (0, 0, 0.00000000000000000000e+00) (0, 0, 0.00000000000000000000e+00) (0, 0, 0.00000000000000000000e+00) (0, 0, 0.00000000000000000000e+00) (0, 0, 0.00000000000000000000e+00) (0, 0, 0.00000000000000000000e+00) (0, 0, 0.00000000000000000000e+00) (0, 0, 0.00000000000000000000e+00) (0, 0, 0.00000000000000000000e+00) (0, 0, 0.00000000000000000000e+00) (0, 0, 0.00000000000000000000e+00) (0, 0, 0.00000000000000000000e+00) (0, 0, 0.00000000000000000000e+00) (0, 0, 0.00000000000000000000e+00) (0, 0, 0.00000000000000000000e+00) (0, 0, 0.00000000000000000000e+00) (0, 0, 0.00000000000000000000e+00) (0, 0, 0.00000000000000000000e+00) (0, 0, 0.00000000000000000000e+00) (0, 0, 0.00000000000000000000e+00) (0, 0, 0.00000000000000000000e+00) (0, 0, 0.00000000000000000000e+00) (0, 0, 0.00000000000000000000e+00) (0, 0, 0.00000000000000000000e+00) (0, 0, 0.00000000000000000000e+00) (0, 0, 0.00000000000000000000e+00) (0, 0, 0.00000000000000000000e+00) (0, 0, 0.00000000000000000000e+00) (0, 0, 0.00000000000000000000e+00) (0, 0, 0.00000000000000000000e+00) (0, 0, 0.00000000000000000000e+00) (0, 0, 0.00000000000000000000e+00) (0, 0, 0.00000000000000000000e+00) (0, 0, 0.00000000000000000000e+00) (0, 0, 0.00000000000000000000e+00) (0, 0, 0.00000000000000000000e+00) (0, 0, 0.00000000000000000000e+00) (0, 0, 0.00000000000000000000e+00) (0, 0, 0.00000000000000000000e+00) (0, 0, 0.00000000000000000000e+00) (0, 0, 0.00000000000000000000e+00) (0, 0, 0.00000000000000000000e+00) (0, 0, 0.00000000000000000000e+00) (0, 0, 0.00000000000000000000e+00) (0, 0, 0.00000000000000000000e+00) (0, 0, 0.00000000000000000000e+00) (0, 0, 0.00000000000000000000e+00) (0, 0, 0.00000000000000000000e+00) (0, 0, 0.00000000000000000000e+00) (0, 0, 0.00000000000000000000e+00) (0, 0, 0.00000000000000000000e+00) (0, 0, 0.00000000000000000000e+00) (0, 0, 0.00000000000000000000e+00) (0, 0, 0.00000000000000000000e+00) (0, 0, 0.00000000000000000000e+00) (1025, 5, 5.00000000000000000000e-01) (1025, 5, 5.00000000000000000000e-01) (1025, 5, 5.00000000000000000000e-01) (1025, 5, 5.00000000000000000000e-01) (1025, 5, 5.00000000000000000000e-01) (1025, 5, 5.00000000000000000000e-01) (1025, 5, 5.00000000000000000000e-01) (1025, 5, 5.00000000000000000000e-01) (1025, 5, 5.00000000000000000000e-01) (1025, 5, 5.00000000000000000000e-01) (0, 5, 0.00000000000000000000e+00) (11, 5, 5.00000000000000000000e-01) (0, 5, 0.00000000000000000000e+00) 
connections (connected_to_neuron, weight)=(0, -2.21067577600479125977e-01) (1, -2.00980454683303833008e-01) (2, 6.29126057028770446777e-02) (3, 6.20413124561309814453e-01) (4, -7.25322216749191284180e-02) (5, -1.35906925424933433533e-02) (6, 4.96435947716236114502e-02) (7, 2.26911492645740509033e-02) (8, 1.13144675269722938538e-02) (9, 9.25927311182022094727e-02) (10, 5.85437603294849395752e-02) (11, 8.42854529619216918945e-02) (12, -3.34892794489860534668e-02) (13, 6.26097977161407470703e-01) (14, 6.50006756186485290527e-02) (15, 1.64540559053421020508e-02) (16, 5.20896501839160919189e-02) (17, 3.03761549293994903564e-02) (18, -4.78334315121173858643e-02) (19, 7.19248801469802856445e-02) (20, 2.07046456634998321533e-02) (21, -8.37570335716009140015e-03) (22, 8.97222906351089477539e-02) (23, -7.17974156141281127930e-02) (24, 5.72783537209033966064e-02) (25, -1.82863309979438781738e-01) (26, -3.53272110223770141602e-01) (27, -5.12365400791168212891e-01) (28, -5.37000060081481933594e-01) (29, -5.70516526699066162109e-01) (30, -4.06558394432067871094e-01) (31, -5.32832205295562744141e-01) (32, -1.72416120767593383789e-01) (33, -9.54887345433235168457e-02) (34, -9.00686457753181457520e-02) (35, 2.43877097964286804199e-01) (36, 1.16156026721000671387e-01) (37, -1.51896467432379722595e-02) (38, 7.72900134325027465820e-02) (39, 1.78225431591272354126e-03) (40, -4.82851155102252960205e-02) (41, 1.01455608382821083069e-02) (42, -3.96205112338066101074e-02) (43, -7.46261980384588241577e-03) (44, 7.10555315017700195312e-01) (45, 7.25498735904693603516e-01) (46, 7.09109961986541748047e-01) (47, 6.36956751346588134766e-01) (48, 6.30186676979064941406e-01) (49, 7.35588312149047851562e-01) (50, 5.83193361759185791016e-01) (51, 7.25203156471252441406e-01) (52, -2.42823958396911621094e-02) (53, 1.21420696377754211426e-01) (54, 1.01910725235939025879e-01) (55, 1.07307747006416320801e-01) (56, -1.81348323822021484375e-02) (57, -6.99517577886581420898e-02) (58, -1.74972847104072570801e-01) (59, -2.63151913881301879883e-01) (60, -4.11370068788528442383e-01) (61, -5.38223624229431152344e-01) (62, -4.14574444293975830078e-01) (63, 1.14318886771798133850e-02) (64, -2.53690510988235473633e-01) (65, -3.24621409177780151367e-01) (66, -3.03951948881149291992e-01) (67, -2.63222754001617431641e-01) (68, -2.65499293804168701172e-01) (69, -3.52350145578384399414e-01) (70, -3.87128680944442749023e-01) (71, -3.76587837934494018555e-01) (72, -2.05007955431938171387e-01) (73, -2.89552599191665649414e-01) (74, -3.09738665819168090820e-01) (75, -2.45947703719139099121e-01) (76, -3.15548866987228393555e-01) (77, -4.50258776545524597168e-02) (78, -2.22384154796600341797e-01) (79, -2.36857160925865173340e-01) (80, -3.68030399084091186523e-01) (81, -3.28787595033645629883e-01) (82, -2.63149112462997436523e-01) (83, -3.18001002073287963867e-01) (84, -3.33055168390274047852e-01) (85, -2.86926597356796264648e-01) (86, -3.36381524801254272461e-01) (87, -2.76878207921981811523e-01) (88, -2.82566577196121215820e-01) (89, -2.68046587705612182617e-01) (90, -3.58620494604110717773e-01) (91, -2.49642178416252136230e-01) (92, -3.29017579555511474609e-01) (93, -4.95942384004592895508e-01) (94, -3.63898605108261108398e-01) (95, 7.16319203376770019531e-01) (96, -9.82670262455940246582e-02) (97, -6.73819258809089660645e-02) (98, -7.93395116925239562988e-02) (99, -1.19471855461597442627e-01) (100, -1.75437659025192260742e-01) (101, -4.41232770681381225586e-01) (102, -3.33709090948104858398e-01) (103, -4.18095082044601440430e-01) (104, -3.49375754594802856445e-01) (105, -1.99153289198875427246e-01) (106, -2.19748347997665405273e-01) (107, -2.20630198717117309570e-01) (108, -3.69867473840713500977e-01) (109, -1.98824718594551086426e-01) (110, -2.76077836751937866211e-01) (111, -3.56488198041915893555e-01) (112, -3.46202760934829711914e-01) (113, -3.57817322015762329102e-01) (114, -2.93079644441604614258e-01) (115, -2.97848314046859741211e-01) (116, -2.63334244489669799805e-01) (117, -2.48051449656486511230e-01) (118, -1.93316832184791564941e-01) (119, -3.64491254091262817383e-01) (120, -3.34688514471054077148e-01) (121, -3.70527833700180053711e-01) (122, -2.32723817229270935059e-01) (123, -3.60468238592147827148e-01) (124, -4.85060632228851318359e-01) (125, -2.15212792158126831055e-01) (126, 1.11453816294670104980e-01) (127, 4.55601871013641357422e-01) (128, 3.13328564167022705078e-01) (129, -9.35739353299140930176e-02) (130, -1.74326330423355102539e-01) (131, -5.13874404132366180420e-02) (132, -9.05122831463813781738e-02) (133, -1.44698217511177062988e-01) (134, -4.44247096776962280273e-01) (135, -4.14652615785598754883e-01) (136, -4.55330073833465576172e-01) (137, -9.34005141258239746094e-01) (138, -9.05292630195617675781e-01) (139, -9.40420866012573242188e-01) (140, -9.51420307159423828125e-01) (141, -4.07484948635101318359e-01) (142, -4.18866515159606933594e-01) (143, -9.16213512420654296875e-01) (144, -3.13653635978698730469e+00) (145, -3.18733739852905273438e+00) (146, -1.95085632801055908203e+00) (147, -4.65817272663116455078e-01) (148, -5.01335442066192626953e-01) (149, -4.52083587646484375000e-01) (150, -4.48898911476135253906e-01) (151, -4.54614400863647460938e-01) (152, -4.41201746463775634766e-01) (153, -5.00213086605072021484e-01) (154, -3.11844736337661743164e-01) (155, -3.01196366548538208008e-01) (156, -2.12188094854354858398e-01) (157, -1.89813375473022460938e-02) (158, 5.13156771659851074219e-01) (159, 5.81069707870483398438e-01) (160, -3.82434539496898651123e-02) (161, -1.48967459797859191895e-01) (162, -1.58115714788436889648e-01) (163, -1.03520333766937255859e-01) (164, -1.87473028898239135742e-01) (165, -3.77127379179000854492e-01) (166, -9.44356918334960937500e-01) (167, -7.61260318756103515625e+00) (168, -7.76524066925048828125e+00) (169, -2.87410354614257812500e+00) (170, -2.87907576560974121094e+00) (171, -2.84271264076232910156e+00) (172, -7.75658512115478515625e+00) (173, -7.67709636688232421875e+00) (174, -7.64144706726074218750e+00) (175, -7.63724040985107421875e+00) (176, -2.83031725883483886719e+00) (177, -3.00015068054199218750e+00) (178, -7.59982013702392578125e+00) (179, -7.60664939880371093750e+00) (180, -1.94703280925750732422e+00) (181, -3.32773953676223754883e-01) (182, -3.45319420099258422852e-01) (183, 5.46094365417957305908e-02) (184, -2.26513743400573730469e-02) (185, 6.57150089740753173828e-01) (186, 3.19590747356414794922e-01) (187, 3.31338137388229370117e-01) (188, 4.71441805362701416016e-01) (189, 5.22291243076324462891e-01) (190, 1.50454878807067871094e+00) (191, 1.53837263584136962891e+00) (192, -1.14474184811115264893e-01) (193, -4.39621321856975555420e-02) (194, -1.55542865395545959473e-01) (195, 3.37801933288574218750e-01) (196, -3.95854085683822631836e-01) (197, -3.23483228683471679688e+00) (198, -2.88584494590759277344e+00) (199, -2.93856573104858398438e+00) (200, -2.85305428504943847656e+00) (201, -2.94903898239135742188e+00) (202, -2.96539664268493652344e+00) (203, -3.01552343368530273438e+00) (204, -2.83201885223388671875e+00) (205, -7.79096221923828125000e+00) (206, -7.63688182830810546875e+00) (207, -7.62468910217285156250e+00) (208, -7.77523136138916015625e+00) (209, -2.86435031890869140625e+00) (210, -7.63722229003906250000e+00) (211, -1.52742850780487060547e+00) (212, 1.89445182681083679199e-01) (213, 5.03440439701080322266e-01) (214, 3.25147807598114013672e-01) (215, 1.01660227775573730469e+00) (216, 1.06341421604156494141e+00) (217, 9.88601028919219970703e-01) (218, 2.51136970520019531250e+00) (219, 2.49828505516052246094e+00) (220, 3.51846814155578613281e+00) (221, 3.64701151847839355469e+00) (222, 3.46775078773498535156e+00) (223, 3.62922930717468261719e+00) (224, -5.70994131267070770264e-02) (225, -1.47940710186958312988e-01) (226, -1.07631266117095947266e-01) (227, -4.27718073129653930664e-01) (228, -7.69577217102050781250e+00) (229, -2.96824073791503906250e+00) (230, -2.92198944091796875000e+00) (231, -2.95471024513244628906e+00) (232, -2.90139818191528320312e+00) (233, -2.87150430679321289062e+00) (234, -2.95435190200805664062e+00) (235, -2.91753554344177246094e+00) (236, -7.64658451080322265625e+00) (237, -7.77535247802734375000e+00) (238, -3.18810820579528808594e+00) (239, -1.84750127792358398438e+00) (240, -1.84362244606018066406e+00) (241, -1.98925054073333740234e+00) (242, -2.21245884895324707031e-02) (243, 4.80918765068054199219e-01) (244, 1.40804684162139892578e+00) (245, 3.52702736854553222656e+00) (246, 3.48243832588195800781e+00) (247, 3.57643961906433105469e+00) (248, 3.55085349082946777344e+00) (249, 3.55514788627624511719e+00) (250, 3.63606429100036621094e+00) (251, 3.60917258262634277344e+00) (252, 3.54201054573059082031e+00) (253, 3.64366650581359863281e+00) (254, 4.61822795867919921875e+00) (255, 4.55012130737304687500e+00) (256, -1.64422959089279174805e-01) (257, -1.89526766538619995117e-01) (258, -5.32506823539733886719e-01) (259, -3.09672522544860839844e+00) (260, -2.93253207206726074219e+00) (261, -2.85541534423828125000e+00) (262, -2.99555349349975585938e+00) (263, -2.81804871559143066406e+00) (264, -7.68927288055419921875e+00) (265, -7.32841551303863525391e-01) (266, -3.48115235567092895508e-01) (267, -7.07756698131561279297e-01) (268, -6.59509718418121337891e-01) (269, -5.96179187297821044922e-01) (270, -3.15719723701477050781e-01) (271, -3.25043469667434692383e-01) (272, -3.84682834148406982422e-01) (273, -6.89152657985687255859e-01) (274, -3.54581028223037719727e-01) (275, -1.62563681602478027344e-01) (276, 1.54829597473144531250e+00) (277, 1.88738799095153808594e+00) (278, 4.62268638610839843750e+00) (279, 4.52868652343750000000e+00) (280, 4.65879249572753906250e+00) (281, 4.59860134124755859375e+00) (282, 4.67771053314208984375e+00) (283, 4.54065418243408203125e+00) (284, 4.58211898803710937500e+00) (285, 4.59581470489501953125e+00) (286, 4.59065151214599609375e+00) (287, 3.60295701026916503906e+00) (288, -9.38353613018989562988e-02) (289, -2.87192314863204956055e-01) (290, -3.15391683578491210938e+00) (291, -3.00113201141357421875e+00) (292, -2.89831328392028808594e+00) (293, -2.89358878135681152344e+00) (294, -7.78153419494628906250e+00) (295, 1.81944578886032104492e-01) (296, 3.46429944038391113281e+00) (297, 5.96559703350067138672e-01) (298, -3.21173936128616333008e-01) (299, -3.38369655609130859375e+00) (300, -3.41575527191162109375e+00) (301, -1.12828302383422851562e+00) (302, -3.31277894973754882812e+00) (303, -3.42713546752929687500e+00) (304, -4.44971799850463867188e+00) (305, -4.59720563888549804688e+00) (306, -3.42086362838745117188e+00) (307, -3.38605308532714843750e+00) (308, -3.40772867202758789062e+00) (309, -3.29830121994018554688e+00) (310, -8.44305604696273803711e-02) (311, 7.07758963108062744141e-01) (312, 1.91236484050750732422e+00) (313, 4.60869026184082031250e+00) (314, 4.58006381988525390625e+00) (315, 4.67076587677001953125e+00) (316, 6.72606885433197021484e-01) (317, 6.58266425132751464844e-01) (318, 6.01248919963836669922e-01) (319, 1.52605307102203369141e+00) (320, -9.76648405194282531738e-02) (321, -5.83665072917938232422e-01) (322, -7.64370918273925781250e+00) (323, -2.97074270248413085938e+00) (324, -2.87817287445068359375e+00) (325, -2.85289168357849121094e+00) (326, 1.03232598304748535156e+00) (327, 3.60200810432434082031e+00) (328, 5.59549570083618164062e-01) (329, -1.65179044008255004883e-01) (330, -3.44183731079101562500e+00) (331, -1.54648256301879882812e+00) (332, -2.97996401786804199219e+00) (333, -2.99355840682983398438e+00) (334, -7.78831577301025390625e+00) (335, -7.79364013671875000000e+00) (336, -7.75472259521484375000e+00) (337, -7.72070980072021484375e+00) (338, -2.91298866271972656250e+00) (339, -2.89574623107910156250e+00) (340, -2.95230650901794433594e+00) (341, -1.65707588195800781250e+00) (342, -1.53140354156494140625e+00) (343, -1.53872656822204589844e+00) (344, -2.91270828247070312500e+00) (345, 7.07834541797637939453e-01) (346, 4.62298774719238281250e+00) (347, 4.64682006835937500000e+00) (348, 4.51007747650146484375e+00) (349, 4.53643894195556640625e+00) (350, 1.47274982929229736328e+00) (351, 6.25322461128234863281e-01) (352, -1.73503965139389038086e-01) (353, -3.22311973571777343750e+00) (354, -2.83321809768676757812e+00) (355, -2.82644128799438476562e+00) (356, -2.82012987136840820312e+00) (357, 3.60670626163482666016e-01) (358, 3.59144854545593261719e+00) (359, 1.45789849758148193359e+00) (360, 2.95582503080368041992e-01) (361, -5.82199633121490478516e-01) (362, -3.47650027275085449219e+00) (363, -2.98741149902343750000e+00) (364, -3.01562595367431640625e+00) (365, -2.99811196327209472656e+00) (366, -7.76517009735107421875e+00) (367, -8.26040565967559814453e-01) (368, -7.70293998718261718750e+00) (369, -7.66227722167968750000e+00) (370, -2.85609626770019531250e+00) (371, -2.86112999916076660156e+00) (372, -2.85016965866088867188e+00) (373, -2.89655113220214843750e+00) (374, -2.90890812873840332031e+00) (375, -2.90773057937622070312e+00) (376, -1.53213262557983398438e+00) (377, -1.19202423095703125000e+00) (378, -1.88828185200691223145e-01) (379, 2.71799743175506591797e-01) (380, 7.34503030776977539062e-01) (381, 4.63732624053955078125e+00) (382, 3.56644320487976074219e+00) (383, 3.57803416252136230469e+00) (384, -2.74330168962478637695e-01) (385, -7.70515918731689453125e+00) (386, -2.90855622291564941406e+00) (387, -2.85016560554504394531e+00) (388, -6.75527453422546386719e-01) (389, 3.49877381324768066406e+00) (390, 3.49336791038513183594e+00) (391, 6.19522511959075927734e-01) (392, -3.01399827003479003906e-01) (393, -1.41667389869689941406e+00) (394, -1.53075385093688964844e+00) (395, -2.99906826019287109375e+00) (396, -2.95292329788208007812e+00) (397, -2.82674074172973632812e+00) (398, -1.40539908409118652344e+00) (399, -1.30772781372070312500e+00) (400, -7.67313575744628906250e+00) (401, -7.77786827087402343750e+00) (402, -2.90699553489685058594e+00) (403, -2.92918920516967773438e+00) (404, -2.88030242919921875000e+00) (405, -3.00002193450927734375e+00) (406, -2.82103824615478515625e+00) (407, -2.92148685455322265625e+00) (408, -2.97018361091613769531e+00) (409, -2.96619057655334472656e+00) (410, -1.62778401374816894531e+00) (411, -2.90402960777282714844e+00) (412, -1.50405502319335937500e+00) (413, -3.31901073455810546875e+00) (414, -7.30394542217254638672e-01) (415, -4.16445225477218627930e-01) (416, -3.85877877473831176758e-01) (417, -7.65705394744873046875e+00) (418, -2.89330792427062988281e+00) (419, -7.59652805328369140625e+00) (420, 4.86144542694091796875e-01) (421, 2.59445357322692871094e+00) (422, 1.51970827579498291016e+00) (423, 6.80043816566467285156e-01) (424, -3.16975772380828857422e-01) (425, -6.70624196529388427734e-01) (426, -3.00682258605957031250e+00) (427, -2.95194172859191894531e+00) (428, -2.93723297119140625000e+00) (429, -2.95035910606384277344e+00) (430, -5.55228352546691894531e-01) (431, -1.26223349571228027344e+00) (432, -7.71234512329101562500e+00) (433, -2.88892078399658203125e+00) (434, -2.92956042289733886719e+00) (435, -2.99853134155273437500e+00) (436, -2.87306094169616699219e+00) (437, -2.93471693992614746094e+00) (438, -2.90413641929626464844e+00) (439, -2.82736277580261230469e+00) (440, -2.88502573966979980469e+00) (441, -2.84097170829772949219e+00) (442, -2.91551089286804199219e+00) (443, -2.89813232421875000000e+00) (444, -2.87151288986206054688e+00) (445, -2.88577342033386230469e+00) (446, -2.94127464294433593750e+00) (447, -3.01309633255004882812e+00) (448, -3.77123385667800903320e-01) (449, -2.81870079040527343750e+00) (450, -3.01550769805908203125e+00) (451, -7.71840214729309082031e-01) (452, 3.12506467103958129883e-01) (453, 2.56834745407104492188e+00) (454, 1.42550027370452880859e+00) (455, 4.64411795139312744141e-01) (456, -5.51171787083148956299e-02) (457, -1.41769814491271972656e+00) (458, -2.99798607826232910156e+00) (459, -2.91803860664367675781e+00) (460, -2.90619492530822753906e+00) (461, -2.97991156578063964844e+00) (462, -4.51680469512939453125e+00) (463, -4.42281866073608398438e+00) (464, -2.85295057296752929688e+00) (465, -2.83208823204040527344e+00) (466, -3.00707364082336425781e+00) (467, -2.91013002395629882812e+00) (468, -2.95092368125915527344e+00) (469, -2.89532828330993652344e+00) (470, -2.92161130905151367188e+00) (471, -2.82006764411926269531e+00) (472, -2.92041850090026855469e+00) (473, -2.82124042510986328125e+00) (474, -2.90231847763061523438e+00) (475, -2.97604990005493164062e+00) (476, -2.89113235473632812500e+00) (477, -2.82771134376525878906e+00) (478, -2.97326445579528808594e+00) (479, -2.82396149635314941406e+00) (480, -2.58943438529968261719e-01) (481, -2.97289061546325683594e+00) (482, -2.98110222816467285156e+00) (483, -2.91929095983505249023e-01) (484, 3.32210570573806762695e-01) (485, 2.50854492187500000000e+00) (486, 1.48267555236816406250e+00) (487, 6.79670512676239013672e-01) (488, 3.97370643913745880127e-02) (489, -7.55514800548553466797e-01) (490, -7.70440101623535156250e+00) (491, -2.99214601516723632812e+00) (492, -2.86973547935485839844e+00) (493, -2.82869386672973632812e+00) (494, -4.59908342361450195312e+00) (495, -4.50519943237304687500e+00) (496, -7.62313556671142578125e+00) (497, -7.77011489868164062500e+00) (498, -3.00105285644531250000e+00) (499, -2.97994256019592285156e+00) (500, -2.87132692337036132812e+00) (501, -2.90678238868713378906e+00) (502, -2.98412847518920898438e+00) (503, -2.97586393356323242188e+00) (504, -2.91214132308959960938e+00) (505, -2.87056517601013183594e+00) (506, -2.93603205680847167969e+00) (507, -2.98739218711853027344e+00) (508, -2.88239502906799316406e+00) (509, -2.89341473579406738281e+00) (510, -2.99547195434570312500e+00) (511, -2.89704394340515136719e+00) (512, -2.78836578130722045898e-01) (513, -7.73892688751220703125e+00) (514, -2.95871925354003906250e+00) (515, 1.95547670125961303711e-01) (516, 7.27632224559783935547e-01) (517, 3.60959172248840332031e+00) (518, 1.52040350437164306641e+00) (519, 5.26920557022094726562e-01) (520, -1.46931996569037437439e-02) (521, -3.61685663461685180664e-01) (522, -7.73125839233398437500e+00) (523, -3.01011705398559570312e+00) (524, -3.00897002220153808594e+00) (525, -7.71606540679931640625e+00) (526, -7.67927455902099609375e+00) (527, -3.07798886299133300781e+00) (528, -3.15382862091064453125e+00) (529, -7.66444587707519531250e+00) (530, -3.00204968452453613281e+00) (531, -2.96927380561828613281e+00) (532, -2.97711181640625000000e+00) (533, -2.97029662132263183594e+00) (534, -2.92925596237182617188e+00) (535, -7.65160655975341796875e+00) (536, -2.82498025894165039062e+00) (537, -2.84940624237060546875e+00) (538, -2.84488177299499511719e+00) (539, -2.89149355888366699219e+00) (540, -2.92693948745727539062e+00) (541, -2.82447195053100585938e+00) (542, -2.97265601158142089844e+00) (543, -2.96148180961608886719e+00) (544, 2.35877141356468200684e-01) (545, -3.15549373626708984375e+00) (546, -7.60158061981201171875e+00) (547, 3.31205338239669799805e-01) (548, 2.09363311529159545898e-01) (549, 3.58269286155700683594e+00) (550, 4.98593300580978393555e-01) (551, 6.60944283008575439453e-01) (552, -1.75689473748207092285e-01) (553, -4.29584324359893798828e-01) (554, -7.67890262603759765625e+00) (555, -2.86670184135437011719e+00) (556, -2.86417651176452636719e+00) (557, -7.76406097412109375000e+00) (558, -3.12880921363830566406e+00) (559, -3.20212364196777343750e+00) (560, -9.35987472534179687500e-01) (561, -3.11497712135314941406e+00) (562, -7.69375038146972656250e+00) (563, -7.59562015533447265625e+00) (564, -7.60762691497802734375e+00) (565, -2.82888984680175781250e+00) (566, -7.65311050415039062500e+00) (567, -1.28447127342224121094e+00) (568, -3.33500289916992187500e+00) (569, -7.68210983276367187500e+00) (570, -7.69233703613281250000e+00) (571, -2.97347259521484375000e+00) (572, -2.91246581077575683594e+00) (573, -2.87087678909301757812e+00) (574, -2.91907262802124023438e+00) (575, -2.86586689949035644531e+00) (576, 5.96887707710266113281e-01) (577, -7.25354850292205810547e-01) (578, -3.13419413566589355469e+00) (579, 2.54756003618240356445e-01) (580, 1.71421200037002563477e-01) (581, 1.52287805080413818359e+00) (582, 3.15128922462463378906e-01) (583, 7.98447877168655395508e-02) (584, -3.75273257493972778320e-01) (585, -4.79194164276123046875e-01) (586, -7.69078063964843750000e+00) (587, -2.85804009437561035156e+00) (588, -2.86593937873840332031e+00) (589, -7.76370811462402343750e+00) (590, -1.08411419391632080078e+00) (591, -2.08288922905921936035e-01) (592, -5.39220087230205535889e-02) (593, -9.83748018741607666016e-01) (594, -7.68595218658447265625e+00) (595, -1.30405926704406738281e+00) (596, -4.51531934738159179688e+00) (597, -2.96671056747436523438e+00) (598, -7.65892219543457031250e+00) (599, -8.13266336917877197266e-01) (600, -1.30068516731262207031e+00) (601, -3.21890830993652343750e+00) (602, -7.69928359985351562500e+00) (603, -2.95128846168518066406e+00) (604, -2.83390331268310546875e+00) (605, -2.82423925399780273438e+00) (606, -3.00127363204956054688e+00) (607, -2.98851084709167480469e+00) (608, 6.32481932640075683594e-01) (609, 3.25573861598968505859e-01) (610, -6.92105174064636230469e-01) (611, 2.52408087253570556641e-01) (612, 3.79234731197357177734e-01) (613, 4.37723219394683837891e-01) (614, 3.57488304376602172852e-01) (615, -1.50320604443550109863e-01) (616, -3.97140949964523315430e-01) (617, -4.48712468147277832031e-01) (618, -7.76136016845703125000e+00) (619, -2.81878590583801269531e+00) (620, -2.83510446548461914062e+00) (621, -2.97152566909790039062e+00) (622, -4.92316573858261108398e-01) (623, 7.03585505485534667969e-01) (624, 8.20097476243972778320e-02) (625, -4.29365545511245727539e-01) (626, -1.90402436256408691406e+00) (627, -1.95863902568817138672e+00) (628, -7.73001670837402343750e+00) (629, -2.97079372406005859375e+00) (630, -7.68641376495361328125e+00) (631, -1.43658518791198730469e+00) (632, -1.37980103492736816406e+00) (633, -1.45932602882385253906e+00) (634, -7.75820076465606689453e-01) (635, -1.39782285690307617188e+00) (636, -7.59993743896484375000e+00) (637, -7.68963813781738281250e+00) (638, -3.39705944061279296875e+00) (639, -6.84966504573822021484e-01) (640, 5.92269122600555419922e-01) (641, 5.65499663352966308594e-01) (642, 3.27573686838150024414e-01) (643, 2.69085198640823364258e-01) (644, 1.10604667663574218750e+00) (645, 3.25529366731643676758e-01) (646, 4.94923651218414306641e-01) (647, 4.98881399631500244141e-01) (648, -5.97940199077129364014e-02) (649, -4.27070826292037963867e-01) (650, -3.07036089897155761719e+00) (651, -2.86966323852539062500e+00) (652, -7.73253726959228515625e+00) (653, -4.72111797332763671875e+00) (654, 6.49803936481475830078e-01) (655, 5.69396018981933593750e-01) (656, -2.10743486881256103516e-01) (657, -5.90878307819366455078e-01) (658, -3.71114581823348999023e-01) (659, -4.01989042758941650391e-01) (660, -1.96062767505645751953e+00) (661, -7.61323356628417968750e+00) (662, -7.59752559661865234375e+00) (663, -7.65876483917236328125e+00) (664, -1.27844309806823730469e+00) (665, 1.21499458327889442444e-02) (666, 5.09847640991210937500e-01) (667, 4.88054335117340087891e-01) (668, -3.82362663745880126953e-01) (669, -1.53263330459594726562e-01) (670, 1.02987873554229736328e+00) (671, 5.19512355327606201172e-01) (672, 6.56301379203796386719e-01) (673, 5.72299659252166748047e-01) (674, 4.51723277568817138672e-01) (675, 2.05610603094100952148e-01) (676, 6.38436138629913330078e-01) (677, 2.56439471244812011719e+00) (678, 9.99278247356414794922e-01) (679, 9.66094195842742919922e-01) (680, 4.53414201736450195312e-01) (681, -5.42878396809101104736e-02) (682, -1.46566128730773925781e+00) (683, -7.78957939147949218750e+00) (684, -7.68180751800537109375e+00) (685, -3.35563093423843383789e-01) (686, 5.10236382484436035156e-01) (687, 3.29979181289672851562e-01) (688, -3.27360540628433227539e-01) (689, -1.91829991340637207031e+00) (690, -9.04876947402954101562e-01) (691, -2.74070173501968383789e-01) (692, -3.04908365011215209961e-01) (693, -1.93981602787971496582e-01) (694, -1.05302262306213378906e+00) (695, -1.03579318523406982422e+00) (696, 6.25384688377380371094e-01) (697, 5.29880464076995849609e-01) (698, 3.49766755104064941406e+00) (699, 3.52497887611389160156e+00) (700, 4.63300800323486328125e+00) (701, 1.91400027275085449219e+00) (702, 1.92026233673095703125e+00) (703, 4.53781414031982421875e+00) (704, 6.62582039833068847656e-01) (705, 5.89306294918060302734e-01) (706, 6.35263621807098388672e-01) (707, 4.57421064376831054688e-01) (708, 3.23078304529190063477e-01) (709, 1.68761157989501953125e+00) (710, 2.58694434165954589844e+00) (711, 3.56665253639221191406e+00) (712, 3.59844422340393066406e+00) (713, 4.06277894973754882812e-01) (714, 6.62536025047302246094e-01) (715, -3.20527696609497070312e+00) (716, -1.47153079509735107422e+00) (717, 6.84974431991577148438e-01) (718, 5.57925522327423095703e-01) (719, 5.06173491477966308594e-01) (720, -2.88859784603118896484e-01) (721, -5.38116514682769775391e-01) (722, -2.78353005647659301758e-01) (723, 3.12870927155017852783e-02) (724, 5.99887251853942871094e-01) (725, 6.97242856025695800781e-01) (726, 7.17014491558074951172e-01) (727, 4.32738244533538818359e-01) (728, 1.57822549343109130859e+00) (729, 4.50316143035888671875e+00) (730, 4.68723487854003906250e+00) (731, 4.62083816528320312500e+00) (732, 4.59344387054443359375e+00) (733, 4.58377933502197265625e+00) (734, 4.65852832794189453125e+00) (735, 4.50453090667724609375e+00) (736, 6.72962546348571777344e-01) (737, 5.93668639659881591797e-01) (738, 7.02867329120635986328e-01) (739, 3.95469486713409423828e-01) (740, 4.70901668071746826172e-01) (741, 2.59188890457153320312e-01) (742, 1.76085662841796875000e+00) (743, 2.53740143775939941406e+00) (744, 3.65562653541564941406e+00) (745, 3.56270670890808105469e+00) (746, 3.60949444770812988281e+00) (747, 2.96678692102432250977e-01) (748, 1.95569753646850585938e-01) (749, 1.79005861282348632812e-01) (750, 4.43319499492645263672e-01) (751, 3.75591099262237548828e-01) (752, 6.31932616233825683594e-01) (753, -1.89315587282180786133e-01) (754, 4.81189966201782226562e-01) (755, 4.39286172389984130859e-01) (756, 4.92123961448669433594e-01) (757, 4.46709513664245605469e-01) (758, 1.44150710105895996094e+00) (759, 4.66962146759033203125e+00) (760, 4.63941478729248046875e+00) (761, 4.53834724426269531250e+00) (762, 4.59033584594726562500e+00) (763, 4.53273487091064453125e+00) (764, 4.62200355529785156250e+00) (765, 4.54874134063720703125e+00) (766, 4.53714275360107421875e+00) (767, 4.54347133636474609375e+00) (768, 6.42286300659179687500e-01) (769, 7.39886701107025146484e-01) (770, 6.79855644702911376953e-01) (771, 3.61692965030670166016e-01) (772, 3.98504257202148437500e-01) (773, 4.30333673954010009766e-01) (774, 4.60434019565582275391e-01) (775, 1.65286564826965332031e+00) (776, 2.46109557151794433594e+00) (777, 3.55947232246398925781e+00) (778, 3.48082089424133300781e+00) (779, 3.51862120628356933594e+00) (780, 3.57894539833068847656e+00) (781, 3.61368393898010253906e+00) (782, 3.58375573158264160156e+00) (783, 3.65938305854797363281e+00) (784, 4.99911308288574218750e-01) (785, 4.04797136783599853516e-01) (786, 1.09283924102783203125e+00) (787, 3.63127160072326660156e+00) (788, 3.49074292182922363281e+00) (789, 4.67929935455322265625e+00) (790, 4.64074420928955078125e+00) (791, 4.67000865936279296875e+00) (792, 4.51752281188964843750e+00) (793, 4.53095626831054687500e+00) (794, 4.50262069702148437500e+00) (795, 4.63940334320068359375e+00) (796, 4.57957458496093750000e+00) (797, 4.53964042663574218750e+00) (798, 4.68275070190429687500e+00) (799, 4.67036533355712890625e+00) (800, 5.79403400421142578125e-01) (801, 6.62482738494873046875e-01) (802, 5.72973787784576416016e-01) (803, 4.26412701606750488281e-01) (804, 3.41321408748626708984e-01) (805, 4.81912791728973388672e-01) (806, 5.09938657283782958984e-01) (807, 3.63756597042083740234e-01) (808, 1.03555500507354736328e+00) (809, 2.45881462097167968750e+00) (810, 2.55043315887451171875e+00) (811, 3.64972567558288574219e+00) (812, 3.63383793830871582031e+00) (813, 3.49552845954895019531e+00) (814, 3.64895987510681152344e+00) (815, 3.62329316139221191406e+00) (816, 3.58986926078796386719e+00) (817, 3.57702374458312988281e+00) (818, 3.59441590309143066406e+00) (819, 3.62046360969543457031e+00) (820, 3.55619978904724121094e+00) (821, 3.53503632545471191406e+00) (822, 3.59034895896911621094e+00) (823, 3.57359957695007324219e+00) (824, 3.56586956977844238281e+00) (825, 3.59284615516662597656e+00) (826, 3.51287913322448730469e+00) (827, 3.64532065391540527344e+00) (828, 3.63236308097839355469e+00) (829, 4.53548145294189453125e+00) (830, 3.61556267738342285156e+00) (831, 3.46027159690856933594e+00) (832, 6.97840392589569091797e-01) (833, 7.28387773036956787109e-01) (834, 6.67574107646942138672e-01) (835, 4.87666785717010498047e-01) (836, 4.58805620670318603516e-01) (837, 4.26017701625823974609e-01) (838, 3.40967088937759399414e-01) (839, 3.29585552215576171875e-01) (840, 4.46171939373016357422e-01) (841, 4.52739775180816650391e-01) (842, 3.19162189960479736328e-01) (843, 2.54806542396545410156e+00) (844, 2.61632370948791503906e+00) (845, 3.65766549110412597656e+00) (846, 3.53269791603088378906e+00) (847, 3.56753277778625488281e+00) (848, 2.55305242538452148438e+00) (849, 3.46696543693542480469e+00) (850, 3.52784752845764160156e+00) (851, 3.47059178352355957031e+00) (852, 3.54185318946838378906e+00) (853, 3.65804791450500488281e+00) (854, 3.58404278755187988281e+00) (855, 3.64757418632507324219e+00) (856, 3.59074521064758300781e+00) (857, 3.63677334785461425781e+00) (858, 3.63274598121643066406e+00) (859, 3.56295943260192871094e+00) (860, 3.47213101387023925781e+00) (861, 3.58815979957580566406e+00) (862, 3.56308197975158691406e+00) (863, 3.61847615242004394531e+00) (864, 6.56399011611938476562e-01) (865, 5.70507526397705078125e-01) (866, 6.87033116817474365234e-01) (867, 3.63709568977355957031e-01) (868, 4.45030272006988525391e-01) (869, 4.76505160331726074219e-01) (870, 3.82838845252990722656e-01) (871, 3.80745887756347656250e-01) (872, 4.18788611888885498047e-01) (873, 3.91544789075851440430e-01) (874, 4.90150868892669677734e-01) (875, 3.96451890468597412109e-01) (876, 3.89061659574508666992e-01) (877, 1.01701903343200683594e+00) (878, 1.15815460681915283203e+00) (879, 1.15777242183685302734e+00) (880, 1.02383553981781005859e+00) (881, 1.02585327625274658203e+00) (882, 9.68215644359588623047e-01) (883, 1.10553979873657226562e+00) (884, 2.49763774871826171875e+00) (885, 2.56599521636962890625e+00) (886, 2.56685066223144531250e+00) (887, 3.64972233772277832031e+00) (888, 2.54261970520019531250e+00) (889, 2.53944778442382812500e+00) (890, 2.53104496002197265625e+00) (891, 3.57609009742736816406e+00) (892, 3.48894715309143066406e+00) (893, 3.65546679496765136719e+00) (894, 3.53441786766052246094e+00) (895, 3.59385132789611816406e+00) (896, 3.24786752462387084961e-01) (897, 5.61302185058593750000e-01) (898, 7.38450944423675537109e-01) (899, 4.59360718727111816406e-01) (900, 4.86312329769134521484e-01) (901, 3.69794785976409912109e-01) (902, 3.29650342464447021484e-01) (903, 3.94644677639007568359e-01) (904, 4.50883328914642333984e-01) (905, 5.09344995021820068359e-01) (906, 4.80640292167663574219e-01) (907, 3.29488664865493774414e-01) (908, 3.61588925123214721680e-01) (909, 4.74019885063171386719e-01) (910, 3.22486072778701782227e-01) (911, 4.20649409294128417969e-01) (912, 3.35098177194595336914e-01) (913, 3.25926631689071655273e-01) (914, 3.61414223909378051758e-01) (915, 3.94075453281402587891e-01) (916, 4.53261315822601318359e-01) (917, 4.89604413509368896484e-01) (918, 3.83649170398712158203e-01) (919, 1.01153934001922607422e+00) (920, 1.04471051692962646484e+00) (921, 1.13035237789154052734e+00) (922, 2.60136628150939941406e+00) (923, 3.56888270378112792969e+00) (924, 3.62104392051696777344e+00) (925, 3.49712347984313964844e+00) (926, 3.50258564949035644531e+00) (927, 3.63537430763244628906e+00) (928, 3.57238382101058959961e-01) (929, 5.80887734889984130859e-01) (930, 6.75625205039978027344e-01) (931, 3.33094418048858642578e-01) (932, 3.99187564849853515625e-01) (933, 4.53780531883239746094e-01) (934, 4.17282819747924804688e-01) (935, 3.39614570140838623047e-01) (936, 4.52669203281402587891e-01) (937, 3.87466847896575927734e-01) (938, 3.58646959066390991211e-01) (939, 5.03801882266998291016e-01) (940, 3.51030439138412475586e-01) (941, 3.70676755905151367188e-01) (942, 4.13994997739791870117e-01) (943, 3.75672370195388793945e-01) (944, 3.86147141456604003906e-01) (945, 4.64952945709228515625e-01) (946, 4.59291517734527587891e-01) (947, 3.28952163457870483398e-01) (948, 4.44101095199584960938e-01) (949, 3.32484394311904907227e-01) (950, 3.75716447830200195312e-01) (951, 3.24036628007888793945e-01) (952, 4.98061776161193847656e-01) (953, 3.38422268629074096680e-01) (954, 4.32770788669586181641e-01) (955, 1.11327576637268066406e+00) (956, 3.52508950233459472656e+00) (957, 3.62490010261535644531e+00) (958, 3.58387541770935058594e+00) (959, 3.57187199592590332031e+00) (960, 5.04600346088409423828e-01) (961, 5.99351644515991210938e-01) (962, 6.85856223106384277344e-01) (963, 3.93331646919250488281e-01) (964, 5.01637220382690429688e-01) (965, 3.51644009351730346680e-01) (966, 4.22489941120147705078e-01) (967, 4.43850100040435791016e-01) (968, 4.28654611110687255859e-01) (969, 4.70680594444274902344e-01) (970, 4.37195718288421630859e-01) (971, 4.69228744506835937500e-01) (972, 3.30901086330413818359e-01) (973, 3.40734392404556274414e-01) (974, 3.34444850683212280273e-01) (975, 4.06591951847076416016e-01) (976, 4.95231091976165771484e-01) (977, 4.83280122280120849609e-01) (978, 4.25087809562683105469e-01) (979, 4.28875923156738281250e-01) (980, 5.05308210849761962891e-01) (981, 4.90347981452941894531e-01) (982, 4.42456245422363281250e-01) (983, 4.92913663387298583984e-01) (984, 3.18313986063003540039e-01) (985, 3.64770770072937011719e-01) (986, 4.41414415836334228516e-01) (987, 3.83254945278167724609e-01) (988, 3.47921442985534667969e+00) (989, 3.51483321189880371094e+00) (990, 3.64467024803161621094e+00) (991, 3.47335886955261230469e+00) (992, 4.12997543811798095703e-01) (993, 4.29339110851287841797e-01) (994, 4.06541526317596435547e-01) (995, 4.04178470373153686523e-01) (996, 4.70526874065399169922e-01) (997, 3.18575143814086914062e-01) (998, 3.37572306394577026367e-01) (999, 3.88725161552429199219e-01) (1000, 4.78799521923065185547e-01) (1001, 4.64311718940734863281e-01) (1002, 3.47497642040252685547e-01) (1003, 4.99244332313537597656e-01) (1004, 4.94589865207672119141e-01) (1005, 3.71486216783523559570e-01) (1006, 3.95379960536956787109e-01) (1007, 4.79364633560180664062e-01) (1008, 3.44310015439987182617e-01) (1009, 5.10011553764343261719e-01) (1010, 3.97784262895584106445e-01) (1011, 3.39161962270736694336e-01) (1012, 4.89903211593627929688e-01) (1013, 3.29784214496612548828e-01) (1014, 3.21619361639022827148e-01) (1015, 4.97760951519012451172e-01) (1016, 3.84098708629608154297e-01) (1017, 4.52577531337738037109e-01) (1018, 3.70559573173522949219e-01) (1019, 4.03164505958557128906e-01) (1020, 3.65695452690124511719e+00) (1021, 3.50477385520935058594e+00) (1022, 3.56606698036193847656e+00) (1023, 3.55949568748474121094e+00) (1024, 8.91960412263870239258e-02) (0, -3.04189264774322509766e-01) (1, -1.13123357295989990234e-01) (2, -1.82614281773567199707e-01) (3, 1.99400529265403747559e-01) (4, -2.05050140619277954102e-01) (5, -3.04345369338989257812e-01) (6, -1.27727150917053222656e-01) (7, -1.32151886820793151855e-01) (8, -2.67304033041000366211e-01) (9, -1.38939142227172851562e-01) (10, -6.70611336827278137207e-02) (11, -1.25316873192787170410e-01) (12, -1.73058301210403442383e-01) (13, 3.16360950469970703125e-01) (14, -9.14630964398384094238e-02) (15, -2.54460304975509643555e-01) (16, -2.91782021522521972656e-01) (17, -1.43714621663093566895e-01) (18, -2.75013327598571777344e-01) (19, -2.72454112768173217773e-01) (20, -1.32551535964012145996e-01) (21, -4.25810486078262329102e-01) (22, -3.36913436651229858398e-01) (23, -3.28532069921493530273e-01) (24, -3.65707188844680786133e-01) (25, -5.98991572856903076172e-01) (26, -4.86512631177902221680e-01) (27, -4.75868582725524902344e-01) (28, -4.93073433637619018555e-01) (29, -5.87165653705596923828e-01) (30, -7.27979481220245361328e-01) (31, -7.06688761711120605469e-01) (32, -3.01208138465881347656e-01) (33, -2.95894324779510498047e-01) (34, -1.88059642910957336426e-01) (35, 2.14448079466819763184e-01) (36, -2.13089853525161743164e-01) (37, -1.28636971116065979004e-01) (38, -2.60248892009258270264e-02) (39, -1.74201220273971557617e-01) (40, -1.61383479833602905273e-01) (41, -6.78505972027778625488e-02) (42, -7.42825940251350402832e-02) (43, -1.09206318855285644531e-01) (44, 2.73745775222778320312e-01) (45, 2.74003446102142333984e-01) (46, 3.57039749622344970703e-01) (47, 2.88156390190124511719e-01) (48, 2.36481413245201110840e-01) (49, 3.88219058513641357422e-01) (50, 3.21894943714141845703e-01) (51, 2.10122510790824890137e-01) (52, -2.07810729742050170898e-01) (53, -1.85237795114517211914e-01) (54, -8.86288359761238098145e-02) (55, -2.10180774331092834473e-01) (56, -2.66105800867080688477e-01) (57, -2.57017940282821655273e-01) (58, -4.25070375204086303711e-01) (59, -4.52986478805541992188e-01) (60, -5.37990927696228027344e-01) (61, -4.93136733770370483398e-01) (62, -5.44975876808166503906e-01) (63, -2.40118220448493957520e-01) (64, -4.82838392257690429688e-01) (65, -4.26842808723449707031e-01) (66, -5.07836580276489257812e-01) (67, -4.70692813396453857422e-01) (68, -5.30244410037994384766e-01) (69, -5.08626043796539306641e-01) (70, -4.19658541679382324219e-01) (71, -4.66392397880554199219e-01) (72, -5.51241278648376464844e-01) (73, -4.68705773353576660156e-01) (74, -5.50363421440124511719e-01) (75, -4.66773748397827148438e-01) (76, -4.29194301366806030273e-01) (77, -4.27815526723861694336e-01) (78, -4.13109332323074340820e-01) (79, -3.81991177797317504883e-01) (80, -4.28874760866165161133e-01) (81, -2.80492693185806274414e-01) (82, -5.15933334827423095703e-01) (83, -4.11450117826461791992e-01) (84, -5.95281422138214111328e-01) (85, -5.79326808452606201172e-01) (86, -4.70224559307098388672e-01) (87, -5.55194616317749023438e-01) (88, -5.30151963233947753906e-01) (89, -4.51000452041625976562e-01) (90, -4.09100234508514404297e-01) (91, -4.69061970710754394531e-01) (92, -5.45056581497192382812e-01) (93, -5.54995417594909667969e-01) (94, -4.02987480163574218750e-01) (95, 3.59544932842254638672e-01) (96, -4.27971035242080688477e-01) (97, -3.56956988573074340820e-01) (98, -3.45639854669570922852e-01) (99, -3.59134584665298461914e-01) (100, -1.28400444984436035156e-01) (101, -3.66217643022537231445e-01) (102, -4.26446229219436645508e-01) (103, -5.73449075222015380859e-01) (104, -5.90629041194915771484e-01) (105, -5.32515168190002441406e-01) (106, -4.41141963005065917969e-01) (107, -5.75529038906097412109e-01) (108, -5.16036272048950195312e-01) (109, -4.09956872463226318359e-01) (110, -5.13225734233856201172e-01) (111, -5.00616669654846191406e-01) (112, -4.46155130863189697266e-01) (113, -4.30078148841857910156e-01) (114, -4.67772245407104492188e-01) (115, -4.42355751991271972656e-01) (116, -4.10324096679687500000e-01) (117, -5.38916170597076416016e-01) (118, -5.98469555377960205078e-01) (119, -5.41395425796508789062e-01) (120, -5.90835869312286376953e-01) (121, -4.08489048480987548828e-01) (122, -4.11376476287841796875e-01) (123, -5.36811590194702148438e-01) (124, -5.64403712749481201172e-01) (125, -4.15283262729644775391e-01) (126, 5.84030807018280029297e-01) (127, 3.61456841230392456055e-01) (128, 2.60413169860839843750e-01) (129, -9.40449908375740051270e-02) (130, -1.70032277703285217285e-01) (131, -2.57265597581863403320e-01) (132, -4.35027211904525756836e-01) (133, -2.90285855531692504883e-01) (134, -5.24521946907043457031e-01) (135, -5.81361949443817138672e-01) (136, -5.78506648540496826172e-01) (137, -1.58070123195648193359e+00) (138, -1.57192814350128173828e+00) (139, -1.50958013534545898438e+00) (140, -1.07409238815307617188e+00) (141, -4.71954882144927978516e-01) (142, -5.96997916698455810547e-01) (143, -9.21166658401489257812e-01) (144, -3.15975332260131835938e+00) (145, -3.12249040603637695312e+00) (146, -3.12460970878601074219e+00) (147, -5.14195680618286132812e-01) (148, -4.05524730682373046875e-01) (149, -4.67197477817535400391e-01) (150, -4.56510186195373535156e-01) (151, -5.97279846668243408203e-01) (152, -4.76605772972106933594e-01) (153, -4.68805968761444091797e-01) (154, -5.35010635852813720703e-01) (155, -4.41928625106811523438e-01) (156, -3.30222219228744506836e-01) (157, 2.22942419350147247314e-02) (158, 4.95950669050216674805e-01) (159, 6.73005044460296630859e-01) (160, -2.78396189212799072266e-01) (161, -1.61879613995552062988e-01) (162, -2.72058516740798950195e-01) (163, -2.69129008054733276367e-01) (164, -3.45972806215286254883e-01) (165, -4.90387767553329467773e-01) (166, -1.55841624736785888672e+00) (167, -7.67522048950195312500e+00) (168, -7.65292549133300781250e+00) (169, -2.91982841491699218750e+00) (170, -2.99336719512939453125e+00) (171, -2.85306954383850097656e+00) (172, -7.77093696594238281250e+00) (173, -7.76951885223388671875e+00) (174, -7.65675735473632812500e+00) (175, -7.67480850219726562500e+00) (176, -2.85789299011230468750e+00) (177, -2.94725036621093750000e+00) (178, -7.78992366790771484375e+00) (179, -7.64257144927978515625e+00) (180, -3.25536727905273437500e+00) (181, -4.52317476272583007812e-01) (182, -2.90948778390884399414e-01) (183, -3.21305006742477416992e-01) (184, -1.48197367787361145020e-01) (185, 2.06694111227989196777e-01) (186, 3.90597820281982421875e-01) (187, 5.01566529273986816406e-01) (188, 4.24478113651275634766e-01) (189, 5.76092183589935302734e-01) (190, 1.56671249866485595703e+00) (191, 1.53221356868743896484e+00) (192, -2.73585379123687744141e-01) (193, -2.95741200447082519531e-01) (194, -1.27310693264007568359e-01) (195, 3.20207178592681884766e-01) (196, -4.79936301708221435547e-01) (197, -3.22221732139587402344e+00) (198, -2.96605706214904785156e+00) (199, -2.95554661750793457031e+00) (200, -2.88616371154785156250e+00) (201, -2.94354248046875000000e+00) (202, -2.99273443222045898438e+00) (203, -2.86298441886901855469e+00) (204, -2.91894531250000000000e+00) (205, -7.63360977172851562500e+00) (206, -7.72191143035888671875e+00) (207, -7.73919105529785156250e+00) (208, -7.76497936248779296875e+00) (209, -2.93948411941528320312e+00) (210, -7.78764629364013671875e+00) (211, -3.22622966766357421875e+00) (212, 2.12439045310020446777e-01) (213, 3.19348126649856567383e-01) (214, 4.63097810745239257812e-01) (215, 1.06497383117675781250e+00) (216, 1.14200627803802490234e+00) (217, 9.97558057308197021484e-01) (218, 2.52996945381164550781e+00) (219, 2.52991366386413574219e+00) (220, 3.58122611045837402344e+00) (221, 3.52777504920959472656e+00) (222, 3.49322009086608886719e+00) (223, 3.61383318901062011719e+00) (224, -2.28114858269691467285e-01) (225, -2.94239282608032226562e-01) (226, -3.59681099653244018555e-01) (227, -4.01858448982238769531e-01) (228, -7.74849891662597656250e+00) (229, -2.88144373893737792969e+00) (230, -2.95832419395446777344e+00) (231, -2.84054589271545410156e+00) (232, -3.00910449028015136719e+00) (233, -2.93517708778381347656e+00) (234, -2.88764882087707519531e+00) (235, -2.91216826438903808594e+00) (236, -7.75290584564208984375e+00) (237, -7.79367923736572265625e+00) (238, -3.09724307060241699219e+00) (239, -3.18553304672241210938e+00) (240, -3.17904663085937500000e+00) (241, -1.84880971908569335938e+00) (242, 2.56888456642627716064e-02) (243, 4.10452067852020263672e-01) (244, 1.08969891071319580078e+00) (245, 3.51279091835021972656e+00) (246, 3.46034312248229980469e+00) (247, 3.56230378150939941406e+00) (248, 3.54557394981384277344e+00) (249, 3.55165219306945800781e+00) (250, 3.65355706214904785156e+00) (251, 3.46665120124816894531e+00) (252, 3.61927866935729980469e+00) (253, 3.48662829399108886719e+00) (254, 3.62033581733703613281e+00) (255, 4.53733158111572265625e+00) (256, -2.67759531736373901367e-01) (257, -3.99494200944900512695e-01) (258, -5.64650833606719970703e-01) (259, -3.17183065414428710938e+00) (260, -2.83664345741271972656e+00) (261, -2.92389416694641113281e+00) (262, -2.95649480819702148438e+00) (263, -2.82986640930175781250e+00) (264, -7.62142467498779296875e+00) (265, -6.27079904079437255859e-01) (266, -5.09352028369903564453e-01) (267, -1.44795966148376464844e+00) (268, -5.72074830532073974609e-01) (269, -7.11764514446258544922e-01) (270, -6.75880372524261474609e-01) (271, -5.08410811424255371094e-01) (272, -7.46656119823455810547e-01) (273, -5.75879752635955810547e-01) (274, -5.95244109630584716797e-01) (275, -9.38877761363983154297e-02) (276, 1.01400947570800781250e+00) (277, 1.98880052566528320312e+00) (278, 4.54067802429199218750e+00) (279, 4.62244319915771484375e+00) (280, 4.55670928955078125000e+00) (281, 4.53408718109130859375e+00) (282, 4.62894535064697265625e+00) (283, 4.51583957672119140625e+00) (284, 4.56056690216064453125e+00) (285, 4.58913230895996093750e+00) (286, 3.51307272911071777344e+00) (287, 3.55902504920959472656e+00) (288, -1.72383621335029602051e-01) (289, -5.11726915836334228516e-01) (290, -3.07295441627502441406e+00) (291, -2.90283441543579101562e+00) (292, -2.83654022216796875000e+00) (293, -2.97356772422790527344e+00) (294, -7.69505405426025390625e+00) (295, 3.11565905809402465820e-01) (296, 3.49008250236511230469e+00) (297, 6.76589190959930419922e-01) (298, -4.07366722822189331055e-01) (299, -3.47047877311706542969e+00) (300, -3.45131111145019531250e+00) (301, -1.64076089859008789062e+00) (302, -4.53139400482177734375e+00) (303, -7.74348163604736328125e+00) (304, -7.75967693328857421875e+00) (305, -7.74634552001953125000e+00) (306, -4.42524242401123046875e+00) (307, -3.41713571548461914062e+00) (308, -3.47561621665954589844e+00) (309, -3.45888018608093261719e+00) (310, -2.17566415667533874512e-02) (311, 7.37788558006286621094e-01) (312, 1.88727056980133056641e+00) (313, 4.62259864807128906250e+00) (314, 4.58527851104736328125e+00) (315, 4.62411880493164062500e+00) (316, 6.79833352565765380859e-01) (317, 6.25877380371093750000e-01) (318, 5.10669887065887451172e-01) (319, 1.53568851947784423828e+00) (320, -2.80759334564208984375e-01) (321, -5.93281626701354980469e-01) (322, -7.73577594757080078125e+00) (323, -3.01110696792602539062e+00) (324, -2.96776843070983886719e+00) (325, -2.85847854614257812500e+00) (326, 1.12158286571502685547e+00) (327, 3.53819537162780761719e+00) (328, 6.33992195129394531250e-01) (329, -2.58665591478347778320e-01) (330, -3.39243268966674804688e+00) (331, -1.50759577751159667969e+00) (332, -2.84294986724853515625e+00) (333, -2.83696150779724121094e+00) (334, -7.76012897491455078125e+00) (335, -7.78674507141113281250e+00) (336, -7.76742553710937500000e+00) (337, -7.77109527587890625000e+00) (338, -2.93717622756958007812e+00) (339, -2.97633743286132812500e+00) (340, -2.96327066421508789062e+00) (341, -2.94352269172668457031e+00) (342, -1.58196496963500976562e+00) (343, -1.57478499412536621094e+00) (344, -2.86031293869018554688e+00) (345, 8.62488210201263427734e-01) (346, 4.54028224945068359375e+00) (347, 4.50644207000732421875e+00) (348, 4.63234233856201171875e+00) (349, 4.56315422058105468750e+00) (350, 1.54200720787048339844e+00) (351, 6.45449697971343994141e-01) (352, -2.37362280488014221191e-01) (353, -3.24592924118041992188e+00) (354, -2.85345530509948730469e+00) (355, -2.89893817901611328125e+00) (356, -2.84852623939514160156e+00) (357, 2.78766840696334838867e-01) (358, 3.65513873100280761719e+00) (359, 1.50394487380981445312e+00) (360, 1.45008176565170288086e-01) (361, -1.37083506584167480469e+00) (362, -4.51737403869628906250e+00) (363, -3.00097179412841796875e+00) (364, -2.94593405723571777344e+00) (365, -2.88499188423156738281e+00) (366, -7.77183532714843750000e+00) (367, -7.69052088260650634766e-01) (368, -7.64020538330078125000e+00) (369, -7.69312953948974609375e+00) (370, -2.87969899177551269531e+00) (371, -3.00935935974121093750e+00) (372, -2.84253549575805664062e+00) (373, -2.97071552276611328125e+00) (374, -2.89319562911987304688e+00) (375, -2.84770107269287109375e+00) (376, -1.65164351463317871094e+00) (377, -1.05901730060577392578e+00) (378, -6.91767930984497070312e-02) (379, 2.74553596973419189453e-01) (380, 6.94225430488586425781e-01) (381, 4.62623500823974609375e+00) (382, 3.58932423591613769531e+00) (383, 3.55485558509826660156e+00) (384, -4.63017046451568603516e-01) (385, -7.70251464843750000000e+00) (386, -3.00423145294189453125e+00) (387, -2.91246247291564941406e+00) (388, -8.03863584995269775391e-01) (389, 3.46678900718688964844e+00) (390, 3.47711730003356933594e+00) (391, 5.40612101554870605469e-01) (392, -2.83741801977157592773e-01) (393, -1.34799122810363769531e+00) (394, -1.62322449684143066406e+00) (395, -2.84826612472534179688e+00) (396, -2.97112059593200683594e+00) (397, -2.92587614059448242188e+00) (398, -1.94966399669647216797e+00) (399, -1.81524562835693359375e+00) (400, -7.60312366485595703125e+00) (401, -7.79368019104003906250e+00) (402, -3.01068687438964843750e+00) (403, -2.85154294967651367188e+00) (404, -2.97027897834777832031e+00) (405, -2.88800096511840820312e+00) (406, -2.88336253166198730469e+00) (407, -2.93097376823425292969e+00) (408, -2.92515611648559570312e+00) (409, -2.90886330604553222656e+00) (410, -2.95945024490356445312e+00) (411, -2.89927959442138671875e+00) (412, -1.65781903266906738281e+00) (413, -3.30286312103271484375e+00) (414, -7.48823344707489013672e-01) (415, -5.90938746929168701172e-01) (416, -5.21872222423553466797e-01) (417, -7.77115821838378906250e+00) (418, -2.94326949119567871094e+00) (419, -7.70607185363769531250e+00) (420, 3.40055346488952636719e-01) (421, 2.52824139595031738281e+00) (422, 1.10563361644744873047e+00) (423, 4.37723159790039062500e-01) (424, -3.77957433462142944336e-01) (425, -1.45327973365783691406e+00) (426, -2.92099928855895996094e+00) (427, -2.96766853332519531250e+00) (428, -2.91729331016540527344e+00) (429, -2.85674548149108886719e+00) (430, -5.26417493820190429688e-01) (431, -1.37228155136108398438e+00) (432, -7.63454341888427734375e+00) (433, -2.96380138397216796875e+00) (434, -2.96196222305297851562e+00) (435, -3.01070618629455566406e+00) (436, -2.83592081069946289062e+00) (437, -2.82944297790527343750e+00) (438, -2.92579841613769531250e+00) (439, -2.94519519805908203125e+00) (440, -2.92242479324340820312e+00) (441, -2.86936664581298828125e+00) (442, -2.82859325408935546875e+00) (443, -2.88929510116577148438e+00) (444, -2.88375973701477050781e+00) (445, -2.81728458404541015625e+00) (446, -2.92010211944580078125e+00) (447, -3.00655126571655273438e+00) (448, -5.77525079250335693359e-01) (449, -2.84748959541320800781e+00) (450, -2.91850686073303222656e+00) (451, -7.63544619083404541016e-01) (452, 2.17505514621734619141e-01) (453, 1.60757327079772949219e+00) (454, 1.14319670200347900391e+00) (455, 3.71881395578384399414e-01) (456, -2.74956226348876953125e-02) (457, -1.38855862617492675781e+00) (458, -2.90624332427978515625e+00) (459, -2.87047696113586425781e+00) (460, -2.98344159126281738281e+00) (461, -2.85935783386230468750e+00) (462, -7.75913143157958984375e+00) (463, -7.60210323333740234375e+00) (464, -3.00727772712707519531e+00) (465, -2.92697668075561523438e+00) (466, -2.81869316101074218750e+00) (467, -2.82731676101684570312e+00) (468, -2.94053792953491210938e+00) (469, -2.92860984802246093750e+00) (470, -2.95663046836853027344e+00) (471, -2.84708094596862792969e+00) (472, -2.98209500312805175781e+00) (473, -2.96934199333190917969e+00) (474, -2.92049455642700195312e+00) (475, -2.84997320175170898438e+00) (476, -2.97074508666992187500e+00) (477, -2.82471489906311035156e+00) (478, -2.84064292907714843750e+00) (479, -2.94918918609619140625e+00) (480, -4.39522206783294677734e-01) (481, -2.94326829910278320312e+00) (482, -2.89803433418273925781e+00) (483, -4.12722408771514892578e-01) (484, 2.70379513502120971680e-01) (485, 2.53492951393127441406e+00) (486, 1.46935188770294189453e+00) (487, 4.68119323253631591797e-01) (488, -1.48384407162666320801e-01) (489, -1.27326750755310058594e+00) (490, -7.69104862213134765625e+00) (491, -3.01386833190917968750e+00) (492, -2.87076282501220703125e+00) (493, -2.87782859802246093750e+00) (494, -7.60009002685546875000e+00) (495, -7.64039325714111328125e+00) (496, -7.76715850830078125000e+00) (497, -7.60290145874023437500e+00) (498, -2.87359404563903808594e+00) (499, -2.91358017921447753906e+00) (500, -2.93739533424377441406e+00) (501, -3.01434302330017089844e+00) (502, -2.94477939605712890625e+00) (503, -2.90360856056213378906e+00) (504, -2.96780323982238769531e+00) (505, -2.84939241409301757812e+00) (506, -2.93770027160644531250e+00) (507, -2.92266654968261718750e+00) (508, -2.85822582244873046875e+00) (509, -2.96246170997619628906e+00) (510, -2.85597419738769531250e+00) (511, -2.89866709709167480469e+00) (512, -4.73047256469726562500e-01) (513, -7.71636199951171875000e+00) (514, -2.88113570213317871094e+00) (515, 9.42922383546829223633e-02) (516, 7.76582181453704833984e-01) (517, 2.45236301422119140625e+00) (518, 1.58493852615356445312e+00) (519, 4.54053163528442382812e-01) (520, -3.15659999847412109375e-01) (521, -5.01469910144805908203e-01) (522, -7.64850616455078125000e+00) (523, -2.86846542358398437500e+00) (524, -2.98021769523620605469e+00) (525, -7.65447998046875000000e+00) (526, -7.69297790527343750000e+00) (527, -3.19325995445251464844e+00) (528, -3.12503099441528320312e+00) (529, -7.75069046020507812500e+00) (530, -2.85095810890197753906e+00) (531, -3.00654458999633789062e+00) (532, -2.97091650962829589844e+00) (533, -2.97985601425170898438e+00) (534, -2.89427161216735839844e+00) (535, -7.70107269287109375000e+00) (536, -3.01336669921875000000e+00) (537, -2.81609010696411132812e+00) (538, -2.82962298393249511719e+00) (539, -2.85571074485778808594e+00) (540, -2.96267032623291015625e+00) (541, -2.86971569061279296875e+00) (542, -2.93849635124206542969e+00) (543, -2.83663678169250488281e+00) (544, 2.13199064135551452637e-01) (545, -3.24375057220458984375e+00) (546, -7.77799129486083984375e+00) (547, 3.57477277517318725586e-01) (548, 1.85366272926330566406e-01) (549, 3.47081732749938964844e+00) (550, 6.29339456558227539062e-01) (551, 5.79626083374023437500e-01) (552, -2.73130208253860473633e-01) (553, -5.11929214000701904297e-01) (554, -7.61856937408447265625e+00) (555, -2.87193822860717773438e+00) (556, -2.98909378051757812500e+00) (557, -7.71743011474609375000e+00) (558, -3.24931669235229492188e+00) (559, -3.09824299812316894531e+00) (560, -1.49308633804321289062e+00) (561, -3.08439302444458007812e+00) (562, -7.62714099884033203125e+00) (563, -7.62903881072998046875e+00) (564, -7.78660202026367187500e+00) (565, -2.92729592323303222656e+00) (566, -7.73599529266357421875e+00) (567, -2.00388860702514648438e+00) (568, -7.70573902130126953125e+00) (569, -7.74973678588867187500e+00) (570, -7.62391662597656250000e+00) (571, -2.87429308891296386719e+00) (572, -2.82533574104309082031e+00) (573, -2.96829652786254882812e+00) (574, -2.89504814147949218750e+00) (575, -3.00141501426696777344e+00) (576, 2.48994514346122741699e-01) (577, -6.77740871906280517578e-01) (578, -3.24347066879272460938e+00) (579, 2.45082527399063110352e-01) (580, 3.07159751653671264648e-01) (581, 1.11872768402099609375e+00) (582, 4.24137294292449951172e-01) (583, -1.84052586555480957031e-02) (584, -4.03190225362777709961e-01) (585, -5.09852528572082519531e-01) (586, -7.59426689147949218750e+00) (587, -2.94798970222473144531e+00) (588, -2.84996724128723144531e+00) (589, -7.78770160675048828125e+00) (590, -1.98838746547698974609e+00) (591, -3.58267456293106079102e-01) (592, -2.66390860080718994141e-01) (593, -1.42069256305694580078e+00) (594, -7.74301147460937500000e+00) (595, -1.82850027084350585938e+00) (596, -7.71302413940429687500e+00) (597, -2.90665578842163085938e+00) (598, -7.59866905212402343750e+00) (599, -1.84444904327392578125e+00) (600, -1.30825686454772949219e+00) (601, -3.09023475646972656250e+00) (602, -7.68305873870849609375e+00) (603, -2.87173008918762207031e+00) (604, -3.00264954566955566406e+00) (605, -2.98399066925048828125e+00) (606, -2.85726356506347656250e+00) (607, -2.94293332099914550781e+00) (608, 3.58127892017364501953e-01) (609, 3.60307395458221435547e-01) (610, -6.56201243400573730469e-01) (611, 2.76009351015090942383e-01) (612, 2.84514337778091430664e-01) (613, 3.82635504007339477539e-01) (614, 4.82839524745941162109e-01) (615, -5.91494552791118621826e-02) (616, -4.37673270702362060547e-01) (617, -4.26847636699676513672e-01) (618, -7.76013851165771484375e+00) (619, -2.88855981826782226562e+00) (620, -2.83723354339599609375e+00) (621, -2.95637321472167968750e+00) (622, -5.85732102394104003906e-01) (623, 7.08046734333038330078e-01) (624, -2.22969651222229003906e-02) (625, -5.34627377986907958984e-01) (626, -1.87194848060607910156e+00) (627, -1.88081121444702148438e+00) (628, -7.62043762207031250000e+00) (629, -2.87846493721008300781e+00) (630, -7.69154071807861328125e+00) (631, -1.88663315773010253906e+00) (632, -1.91085457801818847656e+00) (633, -2.00028443336486816406e+00) (634, -7.94254243373870849609e-01) (635, -1.34556698799133300781e+00) (636, -7.74859237670898437500e+00) (637, -7.76406192779541015625e+00) (638, -4.42503261566162109375e+00) (639, -1.44748854637145996094e+00) (640, 1.90361604094505310059e-01) (641, 3.37020456790924072266e-01) (642, 2.90383368730545043945e-01) (643, 1.83476984500885009766e-01) (644, 9.84696447849273681641e-01) (645, 4.13690239191055297852e-01) (646, 2.51683622598648071289e-01) (647, 3.40861469507217407227e-01) (648, -1.49768367409706115723e-01) (649, -4.72951769828796386719e-01) (650, -3.14723110198974609375e+00) (651, -2.96176648139953613281e+00) (652, -7.60847854614257812500e+00) (653, -7.67211723327636718750e+00) (654, 5.62161803245544433594e-01) (655, 5.89147269725799560547e-01) (656, -1.94956704974174499512e-01) (657, -4.46444332599639892578e-01) (658, -4.28321659564971923828e-01) (659, -9.35581564903259277344e-01) (660, -1.92386496067047119141e+00) (661, -7.72078132629394531250e+00) (662, -7.70669937133789062500e+00) (663, -7.60099983215332031250e+00) (664, -1.92694938182830810547e+00) (665, 8.45416933298110961914e-02) (666, 4.19868409633636474609e-01) (667, 4.42949235439300537109e-01) (668, -3.84395182132720947266e-01) (669, -2.19301342964172363281e-01) (670, 1.12398219108581542969e+00) (671, 6.77789092063903808594e-01) (672, 2.35676452517509460449e-01) (673, 2.66996026039123535156e-01) (674, 2.75588840246200561523e-01) (675, 2.25852131843566894531e-01) (676, 7.83510029315948486328e-01) (677, 2.44686770439147949219e+00) (678, 1.01242339611053466797e+00) (679, 1.02119374275207519531e+00) (680, 4.44792389869689941406e-01) (681, -6.89364150166511535645e-02) (682, -3.14534783363342285156e+00) (683, -7.67414283752441406250e+00) (684, -7.71581840515136718750e+00) (685, -3.23093742132186889648e-01) (686, 4.68082189559936523438e-01) (687, 3.75207513570785522461e-01) (688, -3.07572573423385620117e-01) (689, -1.88553309440612792969e+00) (690, -1.07083046436309814453e+00) (691, -4.35190737247467041016e-01) (692, -3.79689604043960571289e-01) (693, -4.86780256032943725586e-01) (694, -9.38707232475280761719e-01) (695, -1.00702524185180664062e+00) (696, 6.22649013996124267578e-01) (697, 3.76874923706054687500e-01) (698, 3.48133015632629394531e+00) (699, 3.52021050453186035156e+00) (700, 4.66519832611083984375e+00) (701, 1.99176645278930664062e+00) (702, 1.87377083301544189453e+00) (703, 4.51159667968750000000e+00) (704, 2.35044404864311218262e-01) (705, 3.55387330055236816406e-01) (706, 2.67070710659027099609e-01) (707, 1.86250448226928710938e-01) (708, 3.33848804235458374023e-01) (709, 1.69478058815002441406e+00) (710, 2.52179694175720214844e+00) (711, 3.56880116462707519531e+00) (712, 3.54188847541809082031e+00) (713, 5.04126667976379394531e-01) (714, 2.17904195189476013184e-01) (715, -3.09584355354309082031e+00) (716, -3.14101052284240722656e+00) (717, 7.37746834754943847656e-01) (718, 5.12587249279022216797e-01) (719, 4.99164402484893798828e-01) (720, -2.66772776842117309570e-01) (721, -5.49408137798309326172e-01) (722, -2.91696339845657348633e-01) (723, 4.20450158417224884033e-02) (724, 7.13468194007873535156e-01) (725, 6.61099672317504882812e-01) (726, 1.94323584437370300293e-01) (727, 3.43583464622497558594e-01) (728, 1.56641852855682373047e+00) (729, 4.52635002136230468750e+00) (730, 4.59331226348876953125e+00) (731, 4.64122104644775390625e+00) (732, 4.69439888000488281250e+00) (733, 4.64336490631103515625e+00) (734, 3.61271977424621582031e+00) (735, 3.50019001960754394531e+00) (736, 2.98629045486450195312e-01) (737, 2.19641491770744323730e-01) (738, 2.56037533283233642578e-01) (739, 2.43199527263641357422e-01) (740, 3.15336614847183227539e-01) (741, 3.09428423643112182617e-01) (742, 1.76165914535522460938e+00) (743, 2.47620415687561035156e+00) (744, 3.60371518135070800781e+00) (745, 3.48109412193298339844e+00) (746, 2.63624215126037597656e+00) (747, 2.17969864606857299805e-01) (748, 1.66729569435119628906e-01) (749, 1.81903630495071411133e-01) (750, 3.57601612806320190430e-01) (751, 4.32290077209472656250e-01) (752, 2.61322021484375000000e-01) (753, 3.89021754264831542969e-01) (754, 1.97723209857940673828e-01) (755, 1.93549543619155883789e-01) (756, 4.19804364442825317383e-01) (757, 3.53692203760147094727e-01) (758, 1.45753931999206542969e+00) (759, 4.58549499511718750000e+00) (760, 4.56958580017089843750e+00) (761, 4.66045665740966796875e+00) (762, 4.52659320831298828125e+00) (763, 4.56386089324951171875e+00) (764, 4.60369777679443359375e+00) (765, 4.67916393280029296875e+00) (766, 4.60390281677246093750e+00) (767, 4.51304912567138671875e+00) (768, 1.98681697249412536621e-01) (769, 3.59816789627075195312e-01) (770, 2.85870730876922607422e-01) (771, 3.24740022420883178711e-01) (772, 2.79966920614242553711e-01) (773, 2.48444318771362304688e-01) (774, 1.62283599376678466797e-01) (775, 1.63334035873413085938e+00) (776, 1.67919659614562988281e+00) (777, 2.43899321556091308594e+00) (778, 3.58258652687072753906e+00) (779, 3.57720255851745605469e+00) (780, 3.48285269737243652344e+00) (781, 3.62973189353942871094e+00) (782, 3.49903655052185058594e+00) (783, 2.53340792655944824219e+00) (784, 4.79782760143280029297e-01) 