FANN_FLO_2.1
num_layers=3
learning_rate=0.700000
connection_rate=1.000000
network_type=0
learning_momentum=0.000000
training_algorithm=2
train_error_function=1
train_stop_function=0
cascade_output_change_fraction=0.010000
quickprop_decay=-0.000100
quickprop_mu=1.750000
rprop_increase_factor=1.200000
rprop_decrease_factor=0.500000
rprop_delta_min=0.000000
rprop_delta_max=50.000000
rprop_delta_zero=0.100000
cascade_output_stagnation_epochs=12
cascade_candidate_change_fraction=0.010000
cascade_candidate_stagnation_epochs=12
cascade_max_out_epochs=150
cascade_min_out_epochs=50
cascade_max_cand_epochs=150
cascade_min_cand_epochs=50
cascade_num_candidate_groups=2
bit_fail_limit=3.49999994039535522461e-01
cascade_candidate_limit=1.00000000000000000000e+03
cascade_weight_multiplier=4.00000005960464477539e-01
cascade_activation_functions_count=10
cascade_activation_functions=3 5 7 8 10 11 14 15 16 17 
cascade_activation_steepnesses_count=4
cascade_activation_steepnesses=2.50000000000000000000e-01 5.00000000000000000000e-01 7.50000000000000000000e-01 1.00000000000000000000e+00 
layer_sizes=1025 26 4 
scale_included=0
neurons (num_inputs, activation_function, activation_steepness)=(0, 0, 0.00000000000000000000e+00) (0, 0, 0.00000000000000000000e+00) (0, 0, 0.00000000000000000000e+00) (0, 0, 0.00000000000000000000e+00) (0, 0, 0.00000000000000000000e+00) (0, 0, 0.00000000000000000000e+00) (0, 0, 0.00000000000000000000e+00) (0, 0, 0.00000000000000000000e+00) (0, 0, 0.00000000000000000000e+00) (0, 0, 0.00000000000000000000e+00) (0, 0, 0.00000000000000000000e+00) (0, 0, 0.00000000000000000000e+00) (0, 0, 0.00000000000000000000e+00) (0, 0, 0.00000000000000000000e+00) (0, 0, 0.00000000000000000000e+00) (0, 0, 0.00000000000000000000e+00) (0, 0, 0.00000000000000000000e+00) (0, 0, 0.00000000000000000000e+00) (0, 0, 0.00000000000000000000e+00) (0, 0, 0.00000000000000000000e+00) (0, 0, 0.00000000000000000000e+00) (0, 0, 0.00000000000000000000e+00) (0, 0, 0.00000000000000000000e+00) (0, 0, 0.00000000000000000000e+00) (0, 0, 0.00000000000000000000e+00) (0, 0, 0.00000000000000000000e+00) (0, 0, 0.00000000000000000000e+00) (0, 0, 0.00000000000000000000e+00) (0, 0, 0.00000000000000000000e+00) (0, 0, 0.00000000000000000000e+00) (0, 0, 0.00000000000000000000e+00) (0, 0, 0.00000000000000000000e+00) (0, 0, 0.00000000000000000000e+00) (0, 0, 0.00000000000000000000e+00) (0, 0, 0.00000000000000000000e+00) (0, 0, 0.00000000000000000000e+00) (0, 0, 0.00000000000000000000e+00) (0, 0, 0.00000000000000000000e+00) (0, 0, 0.00000000000000000000e+00) (0, 0, 0.00000000000000000000e+00) (0, 0, 0.00000000000000000000e+00) (0, 0, 0.00000000000000000000e+00) (0, 0, 0.00000000000000000000e+00) (0, 0, 0.00000000000000000000e+00) (0, 0, 0.00000000000000000000e+00) (0, 0, 0.00000000000000000000e+00) (0, 0, 0.00000000000000000000e+00) (0, 0, 0.00000000000000000000e+00) (0, 0, 0.00000000000000000000e+00) (0, 0, 0.00000000000000000000e+00) (0, 0, 0.00000000000000000000e+00) (0, 0, 0.00000000000000000000e+00) (0, 0, 0.00000000000000000000e+00) (0, 0, 0.00000000000000000000e+00) (0, 0, 0.00000000000000000000e+00) (0, 0, 0.00000000000000000000e+00) (0, 0, 0.00000000000000000000e+00) (0, 0, 0.00000000000000000000e+00) (0, 0, 0.00000000000000000000e+00) (0, 0, 0.00000000000000000000e+00) (0, 0, 0.00000000000000000000e+00) (0, 0, 0.00000000000000000000e+00) (0, 0, 0.00000000000000000000e+00) (0, 0, 0.00000000000000000000e+00) (0, 0, 0.00000000000000000000e+00) (0, 0, 0.00000000000000000000e+00) (0, 0, 0.00000000000000000000e+00) (0, 0, 0.00000000000000000000e+00) (0, 0, 0.00000000000000000000e+00) (0, 0, 0.00000000000000000000e+00) (0, 0, 0.00000000000000000000e+00) (0, 0, 0.00000000000000000000e+00) (0, 0, 0.00000000000000000000e+00) (0, 0, 0.00000000000000000000e+00) (0, 0, 0.00000000000000000000e+00) (0, 0, 0.00000000000000000000e+00) (0, 0, 0.00000000000000000000e+00) (0, 0, 0.00000000000000000000e+00) (0, 0, 0.00000000000000000000e+00) (0, 0, 0.00000000000000000000e+00) (0, 0, 0.00000000000000000000e+00) (0, 0, 0.00000000000000000000e+00) (0, 0, 0.00000000000000000000e+00) (0, 0, 0.00000000000000000000e+00) (0, 0, 0.00000000000000000000e+00) (0, 0, 0.00000000000000000000e+00) (0, 0, 0.00000000000000000000e+00) (0, 0, 0.00000000000000000000e+00) (0, 0, 0.00000000000000000000e+00) (0, 0, 0.00000000000000000000e+00) (0, 0, 0.00000000000000000000e+00) (0, 0, 0.00000000000000000000e+00) (0, 0, 0.00000000000000000000e+00) (0, 0, 0.00000000000000000000e+00) (0, 0, 0.00000000000000000000e+00) (0, 0, 0.00000000000000000000e+00) (0, 0, 0.00000000000000000000e+00) (0, 0, 0.00000000000000000000e+00) (0, 0, 0.00000000000000000000e+00) (0, 0, 0.00000000000000000000e+00) (0, 0, 0.00000000000000000000e+00) (0, 0, 0.00000000000000000000e+00) (0, 0, 0.00000000000000000000e+00) (0, 0, 0.00000000000000000000e+00) (0, 0, 0.00000000000000000000e+00) (0, 0, 0.00000000000000000000e+00) (0, 0, 0.00000000000000000000e+00) (0, 0, 0.00000000000000000000e+00) (0, 0, 0.00000000000000000000e+00) (0, 0, 0.00000000000000000000e+00) (0, 0, 0.00000000000000000000e+00) (0, 0, 0.00000000000000000000e+00) (0, 0, 0.00000000000000000000e+00) (0, 0, 0.00000000000000000000e+00) (0, 0, 0.00000000000000000000e+00) (0, 0, 0.00000000000000000000e+00) (0, 0, 0.00000000000000000000e+00) (0, 0, 0.00000000000000000000e+00) (0, 0, 0.00000000000000000000e+00) (0, 0, 0.00000000000000000000e+00) (0, 0, 0.00000000000000000000e+00) (0, 0, 0.00000000000000000000e+00) (0, 0, 0.00000000000000000000e+00) (0, 0, 0.00000000000000000000e+00) (0, 0, 0.00000000000000000000e+00) (0, 0, 0.00000000000000000000e+00) (0, 0, 0.00000000000000000000e+00) (0, 0, 0.00000000000000000000e+00) (0, 0, 0.00000000000000000000e+00) (0, 0, 0.00000000000000000000e+00) (0, 0, 0.00000000000000000000e+00) (0, 0, 0.00000000000000000000e+00) (0, 0, 0.00000000000000000000e+00) (0, 0, 0.00000000000000000000e+00) (0, 0, 0.00000000000000000000e+00) (0, 0, 0.00000000000000000000e+00) (0, 0, 0.00000000000000000000e+00) (0, 0, 0.00000000000000000000e+00) (0, 0, 0.00000000000000000000e+00) (0, 0, 0.00000000000000000000e+00) (0, 0, 0.00000000000000000000e+00) (0, 0, 0.00000000000000000000e+00) (0, 0, 0.00000000000000000000e+00) (0, 0, 0.00000000000000000000e+00) (0, 0, 0.00000000000000000000e+00) (0, 0, 0.00000000000000000000e+00) (0, 0, 0.00000000000000000000e+00) (0, 0, 0.00000000000000000000e+00) (0, 0, 0.00000000000000000000e+00) (0, 0, 0.00000000000000000000e+00) (0, 0, 0.00000000000000000000e+00) (0, 0, 0.00000000000000000000e+00) (0, 0, 0.00000000000000000000e+00) (0, 0, 0.00000000000000000000e+00) (0, 0, 0.00000000000000000000e+00) (0, 0, 0.00000000000000000000e+00) (0, 0, 0.00000000000000000000e+00) (0, 0, 0.00000000000000000000e+00) (0, 0, 0.00000000000000000000e+00) (0, 0, 0.00000000000000000000e+00) (0, 0, 0.00000000000000000000e+00) (0, 0, 0.00000000000000000000e+00) (0, 0, 0.00000000000000000000e+00) (0, 0, 0.00000000000000000000e+00) (0, 0, 0.00000000000000000000e+00) (0, 0, 0.00000000000000000000e+00) (0, 0, 0.00000000000000000000e+00) (0, 0, 0.00000000000000000000e+00) (0, 0, 0.00000000000000000000e+00) (0, 0, 0.00000000000000000000e+00) (0, 0, 0.00000000000000000000e+00) (0, 0, 0.00000000000000000000e+00) (0, 0, 0.00000000000000000000e+00) (0, 0, 0.00000000000000000000e+00) (0, 0, 0.00000000000000000000e+00) (0, 0, 0.00000000000000000000e+00) (0, 0, 0.00000000000000000000e+00) (0, 0, 0.00000000000000000000e+00) (0, 0, 0.00000000000000000000e+00) (0, 0, 0.00000000000000000000e+00) (0, 0, 0.00000000000000000000e+00) (0, 0, 0.00000000000000000000e+00) (0, 0, 0.00000000000000000000e+00) (0, 0, 0.00000000000000000000e+00) (0, 0, 0.00000000000000000000e+00) (0, 0, 0.00000000000000000000e+00) (0, 0, 0.00000000000000000000e+00) (0, 0, 0.00000000000000000000e+00) (0, 0, 0.00000000000000000000e+00) (0, 0, 0.00000000000000000000e+00) (0, 0, 0.00000000000000000000e+00) (0, 0, 0.00000000000000000000e+00) (0, 0, 0.00000000000000000000e+00) (0, 0, 0.00000000000000000000e+00) (0, 0, 0.00000000000000000000e+00) (0, 0, 0.00000000000000000000e+00) (0, 0, 0.00000000000000000000e+00) (0, 0, 0.00000000000000000000e+00) (0, 0, 0.00000000000000000000e+00) (0, 0, 0.00000000000000000000e+00) (0, 0, 0.00000000000000000000e+00) (0, 0, 0.00000000000000000000e+00) (0, 0, 0.00000000000000000000e+00) (0, 0, 0.00000000000000000000e+00) (0, 0, 0.00000000000000000000e+00) (0, 0, 0.00000000000000000000e+00) (0, 0, 0.00000000000000000000e+00) (0, 0, 0.00000000000000000000e+00) (0, 0, 0.00000000000000000000e+00) (0, 0, 0.00000000000000000000e+00) (0, 0, 0.00000000000000000000e+00) (0, 0, 0.00000000000000000000e+00) (0, 0, 0.00000000000000000000e+00) (0, 0, 0.00000000000000000000e+00) (0, 0, 0.00000000000000000000e+00) (0, 0, 0.00000000000000000000e+00) (0, 0, 0.00000000000000000000e+00) (0, 0, 0.00000000000000000000e+00) (0, 0, 0.00000000000000000000e+00) (0, 0, 0.00000000000000000000e+00) (0, 0, 0.00000000000000000000e+00) (0, 0, 0.00000000000000000000e+00) (0, 0, 0.00000000000000000000e+00) (0, 0, 0.00000000000000000000e+00) (0, 0, 0.00000000000000000000e+00) (0, 0, 0.00000000000000000000e+00) (0, 0, 0.00000000000000000000e+00) (0, 0, 0.00000000000000000000e+00) (0, 0, 0.00000000000000000000e+00) (0, 0, 0.00000000000000000000e+00) (0, 0, 0.00000000000000000000e+00) (0, 0, 0.00000000000000000000e+00) (0, 0, 0.00000000000000000000e+00) (0, 0, 0.00000000000000000000e+00) (0, 0, 0.00000000000000000000e+00) (0, 0, 0.00000000000000000000e+00) (0, 0, 0.00000000000000000000e+00) (0, 0, 0.00000000000000000000e+00) (0, 0, 0.00000000000000000000e+00) (0, 0, 0.00000000000000000000e+00) (0, 0, 0.00000000000000000000e+00) (0, 0, 0.00000000000000000000e+00) (0, 0, 0.00000000000000000000e+00) (0, 0, 0.00000000000000000000e+00) (0, 0, 0.00000000000000000000e+00) (0, 0, 0.00000000000000000000e+00) (0, 0, 0.00000000000000000000e+00) (0, 0, 0.00000000000000000000e+00) (0, 0, 0.00000000000000000000e+00) (0, 0, 0.00000000000000000000e+00) (0, 0, 0.00000000000000000000e+00) (0, 0, 0.00000000000000000000e+00) (0, 0, 0.00000000000000000000e+00) (0, 0, 0.00000000000000000000e+00) (0, 0, 0.00000000000000000000e+00) (0, 0, 0.00000000000000000000e+00) (0, 0, 0.00000000000000000000e+00) (0, 0, 0.00000000000000000000e+00) (0, 0, 0.00000000000000000000e+00) (0, 0, 0.00000000000000000000e+00) (0, 0, 0.00000000000000000000e+00) (0, 0, 0.00000000000000000000e+00) (0, 0, 0.00000000000000000000e+00) (0, 0, 0.00000000000000000000e+00) (0, 0, 0.00000000000000000000e+00) (0, 0, 0.00000000000000000000e+00) (0, 0, 0.00000000000000000000e+00) (0, 0, 0.00000000000000000000e+00) (0, 0, 0.00000000000000000000e+00) (0, 0, 0.00000000000000000000e+00) (0, 0, 0.00000000000000000000e+00) (0, 0, 0.00000000000000000000e+00) (0, 0, 0.00000000000000000000e+00) (0, 0, 0.00000000000000000000e+00) (0, 0, 0.00000000000000000000e+00) (0, 0, 0.00000000000000000000e+00) (0, 0, 0.00000000000000000000e+00) (0, 0, 0.00000000000000000000e+00) (0, 0, 0.00000000000000000000e+00) (0, 0, 0.00000000000000000000e+00) (0, 0, 0.00000000000000000000e+00) (0, 0, 0.00000000000000000000e+00) (0, 0, 0.00000000000000000000e+00) (0, 0, 0.00000000000000000000e+00) (0, 0, 0.00000000000000000000e+00) (0, 0, 0.00000000000000000000e+00) (0, 0, 0.00000000000000000000e+00) (0, 0, 0.00000000000000000000e+00) (0, 0, 0.00000000000000000000e+00) (0, 0, 0.00000000000000000000e+00) (0, 0, 0.00000000000000000000e+00) (0, 0, 0.00000000000000000000e+00) (0, 0, 0.00000000000000000000e+00) (0, 0, 0.00000000000000000000e+00) (0, 0, 0.00000000000000000000e+00) (0, 0, 0.00000000000000000000e+00) (0, 0, 0.00000000000000000000e+00) (0, 0, 0.00000000000000000000e+00) (0, 0, 0.00000000000000000000e+00) (0, 0, 0.00000000000000000000e+00) (0, 0, 0.00000000000000000000e+00) (0, 0, 0.00000000000000000000e+00) (0, 0, 0.00000000000000000000e+00) (0, 0, 0.00000000000000000000e+00) (0, 0, 0.00000000000000000000e+00) (0, 0, 0.00000000000000000000e+00) (0, 0, 0.00000000000000000000e+00) (0, 0, 0.00000000000000000000e+00) (0, 0, 0.00000000000000000000e+00) (0, 0, 0.00000000000000000000e+00) (0, 0, 0.00000000000000000000e+00) (0, 0, 0.00000000000000000000e+00) (0, 0, 0.00000000000000000000e+00) (0, 0, 0.00000000000000000000e+00) (0, 0, 0.00000000000000000000e+00) (0, 0, 0.00000000000000000000e+00) (0, 0, 0.00000000000000000000e+00) (0, 0, 0.00000000000000000000e+00) (0, 0, 0.00000000000000000000e+00) (0, 0, 0.00000000000000000000e+00) (0, 0, 0.00000000000000000000e+00) (0, 0, 0.00000000000000000000e+00) (0, 0, 0.00000000000000000000e+00) (0, 0, 0.00000000000000000000e+00) (0, 0, 0.00000000000000000000e+00) (0, 0, 0.00000000000000000000e+00) (0, 0, 0.00000000000000000000e+00) (0, 0, 0.00000000000000000000e+00) (0, 0, 0.00000000000000000000e+00) (0, 0, 0.00000000000000000000e+00) (0, 0, 0.00000000000000000000e+00) (0, 0, 0.00000000000000000000e+00) (0, 0, 0.00000000000000000000e+00) (0, 0, 0.00000000000000000000e+00) (0, 0, 0.00000000000000000000e+00) (0, 0, 0.00000000000000000000e+00) (0, 0, 0.00000000000000000000e+00) (0, 0, 0.00000000000000000000e+00) (0, 0, 0.00000000000000000000e+00) (0, 0, 0.00000000000000000000e+00) (0, 0, 0.00000000000000000000e+00) (0, 0, 0.00000000000000000000e+00) (0, 0, 0.00000000000000000000e+00) (0, 0, 0.00000000000000000000e+00) (0, 0, 0.00000000000000000000e+00) (0, 0, 0.00000000000000000000e+00) (0, 0, 0.00000000000000000000e+00) (0, 0, 0.00000000000000000000e+00) (0, 0, 0.00000000000000000000e+00) (0, 0, 0.00000000000000000000e+00) (0, 0, 0.00000000000000000000e+00) (0, 0, 0.00000000000000000000e+00) (0, 0, 0.00000000000000000000e+00) (0, 0, 0.00000000000000000000e+00) (0, 0, 0.00000000000000000000e+00) (0, 0, 0.00000000000000000000e+00) (0, 0, 0.00000000000000000000e+00) (0, 0, 0.00000000000000000000e+00) (0, 0, 0.00000000000000000000e+00) (0, 0, 0.00000000000000000000e+00) (0, 0, 0.00000000000000000000e+00) (0, 0, 0.00000000000000000000e+00) (0, 0, 0.00000000000000000000e+00) (0, 0, 0.00000000000000000000e+00) (0, 0, 0.00000000000000000000e+00) (0, 0, 0.00000000000000000000e+00) (0, 0, 0.00000000000000000000e+00) (0, 0, 0.00000000000000000000e+00) (0, 0, 0.00000000000000000000e+00) (0, 0, 0.00000000000000000000e+00) (0, 0, 0.00000000000000000000e+00) (0, 0, 0.00000000000000000000e+00) (0, 0, 0.00000000000000000000e+00) (0, 0, 0.00000000000000000000e+00) (0, 0, 0.00000000000000000000e+00) (0, 0, 0.00000000000000000000e+00) (0, 0, 0.00000000000000000000e+00) (0, 0, 0.00000000000000000000e+00) (0, 0, 0.00000000000000000000e+00) (0, 0, 0.00000000000000000000e+00) (0, 0, 0.00000000000000000000e+00) (0, 0, 0.00000000000000000000e+00) (0, 0, 0.00000000000000000000e+00) (0, 0, 0.00000000000000000000e+00) (0, 0, 0.00000000000000000000e+00) (0, 0, 0.00000000000000000000e+00) (0, 0, 0.00000000000000000000e+00) (0, 0, 0.00000000000000000000e+00) (0, 0, 0.00000000000000000000e+00) (0, 0, 0.00000000000000000000e+00) (0, 0, 0.00000000000000000000e+00) (0, 0, 0.00000000000000000000e+00) (0, 0, 0.00000000000000000000e+00) (0, 0, 0.00000000000000000000e+00) (0, 0, 0.00000000000000000000e+00) (0, 0, 0.00000000000000000000e+00) (0, 0, 0.00000000000000000000e+00) (0, 0, 0.00000000000000000000e+00) (0, 0, 0.00000000000000000000e+00) (0, 0, 0.00000000000000000000e+00) (0, 0, 0.00000000000000000000e+00) (0, 0, 0.00000000000000000000e+00) (0, 0, 0.00000000000000000000e+00) (0, 0, 0.00000000000000000000e+00) (0, 0, 0.00000000000000000000e+00) (0, 0, 0.00000000000000000000e+00) (0, 0, 0.00000000000000000000e+00) (0, 0, 0.00000000000000000000e+00) (0, 0, 0.00000000000000000000e+00) (0, 0, 0.00000000000000000000e+00) (0, 0, 0.00000000000000000000e+00) (0, 0, 0.00000000000000000000e+00) (0, 0, 0.00000000000000000000e+00) (0, 0, 0.00000000000000000000e+00) (0, 0, 0.00000000000000000000e+00) (0, 0, 0.00000000000000000000e+00) (0, 0, 0.00000000000000000000e+00) (0, 0, 0.00000000000000000000e+00) (0, 0, 0.00000000000000000000e+00) (0, 0, 0.00000000000000000000e+00) (0, 0, 0.00000000000000000000e+00) (0, 0, 0.00000000000000000000e+00) (0, 0, 0.00000000000000000000e+00) (0, 0, 0.00000000000000000000e+00) (0, 0, 0.00000000000000000000e+00) (0, 0, 0.00000000000000000000e+00) (0, 0, 0.00000000000000000000e+00) (0, 0, 0.00000000000000000000e+00) (0, 0, 0.00000000000000000000e+00) (0, 0, 0.00000000000000000000e+00) (0, 0, 0.00000000000000000000e+00) (0, 0, 0.00000000000000000000e+00) (0, 0, 0.00000000000000000000e+00) (0, 0, 0.00000000000000000000e+00) (0, 0, 0.00000000000000000000e+00) (0, 0, 0.00000000000000000000e+00) (0, 0, 0.00000000000000000000e+00) (0, 0, 0.00000000000000000000e+00) (0, 0, 0.00000000000000000000e+00) (0, 0, 0.00000000000000000000e+00) (0, 0, 0.00000000000000000000e+00) (0, 0, 0.00000000000000000000e+00) (0, 0, 0.00000000000000000000e+00) (0, 0, 0.00000000000000000000e+00) (0, 0, 0.00000000000000000000e+00) (0, 0, 0.00000000000000000000e+00) (0, 0, 0.00000000000000000000e+00) (0, 0, 0.00000000000000000000e+00) (0, 0, 0.00000000000000000000e+00) (0, 0, 0.00000000000000000000e+00) (0, 0, 0.00000000000000000000e+00) (0, 0, 0.00000000000000000000e+00) (0, 0, 0.00000000000000000000e+00) (0, 0, 0.00000000000000000000e+00) (0, 0, 0.00000000000000000000e+00) (0, 0, 0.00000000000000000000e+00) (0, 0, 0.00000000000000000000e+00) (0, 0, 0.00000000000000000000e+00) (0, 0, 0.00000000000000000000e+00) (0, 0, 0.00000000000000000000e+00) (0, 0, 0.00000000000000000000e+00) (0, 0, 0.00000000000000000000e+00) (0, 0, 0.00000000000000000000e+00) (0, 0, 0.00000000000000000000e+00) (0, 0, 0.00000000000000000000e+00) (0, 0, 0.00000000000000000000e+00) (0, 0, 0.00000000000000000000e+00) (0, 0, 0.00000000000000000000e+00) (0, 0, 0.00000000000000000000e+00) (0, 0, 0.00000000000000000000e+00) (0, 0, 0.00000000000000000000e+00) (0, 0, 0.00000000000000000000e+00) (0, 0, 0.00000000000000000000e+00) (0, 0, 0.00000000000000000000e+00) (0, 0, 0.00000000000000000000e+00) (0, 0, 0.00000000000000000000e+00) (0, 0, 0.00000000000000000000e+00) (0, 0, 0.00000000000000000000e+00) (0, 0, 0.00000000000000000000e+00) (0, 0, 0.00000000000000000000e+00) (0, 0, 0.00000000000000000000e+00) (0, 0, 0.00000000000000000000e+00) (0, 0, 0.00000000000000000000e+00) (0, 0, 0.00000000000000000000e+00) (0, 0, 0.00000000000000000000e+00) (0, 0, 0.00000000000000000000e+00) (0, 0, 0.00000000000000000000e+00) (0, 0, 0.00000000000000000000e+00) (0, 0, 0.00000000000000000000e+00) (0, 0, 0.00000000000000000000e+00) (0, 0, 0.00000000000000000000e+00) (0, 0, 0.00000000000000000000e+00) (0, 0, 0.00000000000000000000e+00) (0, 0, 0.00000000000000000000e+00) (0, 0, 0.00000000000000000000e+00) (0, 0, 0.00000000000000000000e+00) (0, 0, 0.00000000000000000000e+00) (0, 0, 0.00000000000000000000e+00) (0, 0, 0.00000000000000000000e+00) (0, 0, 0.00000000000000000000e+00) (0, 0, 0.00000000000000000000e+00) (0, 0, 0.00000000000000000000e+00) (0, 0, 0.00000000000000000000e+00) (0, 0, 0.00000000000000000000e+00) (0, 0, 0.00000000000000000000e+00) (0, 0, 0.00000000000000000000e+00) (0, 0, 0.00000000000000000000e+00) (0, 0, 0.00000000000000000000e+00) (0, 0, 0.00000000000000000000e+00) (0, 0, 0.00000000000000000000e+00) (0, 0, 0.00000000000000000000e+00) (0, 0, 0.00000000000000000000e+00) (0, 0, 0.00000000000000000000e+00) (0, 0, 0.00000000000000000000e+00) (0, 0, 0.00000000000000000000e+00) (0, 0, 0.00000000000000000000e+00) (0, 0, 0.00000000000000000000e+00) (0, 0, 0.00000000000000000000e+00) (0, 0, 0.00000000000000000000e+00) (0, 0, 0.00000000000000000000e+00) (0, 0, 0.00000000000000000000e+00) (0, 0, 0.00000000000000000000e+00) (0, 0, 0.00000000000000000000e+00) (0, 0, 0.00000000000000000000e+00) (0, 0, 0.00000000000000000000e+00) (0, 0, 0.00000000000000000000e+00) (0, 0, 0.00000000000000000000e+00) (0, 0, 0.00000000000000000000e+00) (0, 0, 0.00000000000000000000e+00) (0, 0, 0.00000000000000000000e+00) (0, 0, 0.00000000000000000000e+00) (0, 0, 0.00000000000000000000e+00) (0, 0, 0.00000000000000000000e+00) (0, 0, 0.00000000000000000000e+00) (0, 0, 0.00000000000000000000e+00) (0, 0, 0.00000000000000000000e+00) (0, 0, 0.00000000000000000000e+00) (0, 0, 0.00000000000000000000e+00) (0, 0, 0.00000000000000000000e+00) (0, 0, 0.00000000000000000000e+00) (0, 0, 0.00000000000000000000e+00) (0, 0, 0.00000000000000000000e+00) (0, 0, 0.00000000000000000000e+00) (0, 0, 0.00000000000000000000e+00) (0, 0, 0.00000000000000000000e+00) (0, 0, 0.00000000000000000000e+00) (0, 0, 0.00000000000000000000e+00) (0, 0, 0.00000000000000000000e+00) (0, 0, 0.00000000000000000000e+00) (0, 0, 0.00000000000000000000e+00) (0, 0, 0.00000000000000000000e+00) (0, 0, 0.00000000000000000000e+00) (0, 0, 0.00000000000000000000e+00) (0, 0, 0.00000000000000000000e+00) (0, 0, 0.00000000000000000000e+00) (0, 0, 0.00000000000000000000e+00) (0, 0, 0.00000000000000000000e+00) (0, 0, 0.00000000000000000000e+00) (0, 0, 0.00000000000000000000e+00) (0, 0, 0.00000000000000000000e+00) (0, 0, 0.00000000000000000000e+00) (0, 0, 0.00000000000000000000e+00) (0, 0, 0.00000000000000000000e+00) (0, 0, 0.00000000000000000000e+00) (0, 0, 0.00000000000000000000e+00) (0, 0, 0.00000000000000000000e+00) (0, 0, 0.00000000000000000000e+00) (0, 0, 0.00000000000000000000e+00) (0, 0, 0.00000000000000000000e+00) (0, 0, 0.00000000000000000000e+00) (0, 0, 0.00000000000000000000e+00) (0, 0, 0.00000000000000000000e+00) (0, 0, 0.00000000000000000000e+00) (0, 0, 0.00000000000000000000e+00) (0, 0, 0.00000000000000000000e+00) (0, 0, 0.00000000000000000000e+00) (0, 0, 0.00000000000000000000e+00) (0, 0, 0.00000000000000000000e+00) (0, 0, 0.00000000000000000000e+00) (0, 0, 0.00000000000000000000e+00) (0, 0, 0.00000000000000000000e+00) (0, 0, 0.00000000000000000000e+00) (0, 0, 0.00000000000000000000e+00) (0, 0, 0.00000000000000000000e+00) (0, 0, 0.00000000000000000000e+00) (0, 0, 0.00000000000000000000e+00) (0, 0, 0.00000000000000000000e+00) (0, 0, 0.00000000000000000000e+00) (0, 0, 0.00000000000000000000e+00) (0, 0, 0.00000000000000000000e+00) (0, 0, 0.00000000000000000000e+00) (0, 0, 0.00000000000000000000e+00) (0, 0, 0.00000000000000000000e+00) (0, 0, 0.00000000000000000000e+00) (0, 0, 0.00000000000000000000e+00) (0, 0, 0.00000000000000000000e+00) (0, 0, 0.00000000000000000000e+00) (0, 0, 0.00000000000000000000e+00) (0, 0, 0.00000000000000000000e+00) (0, 0, 0.00000000000000000000e+00) (0, 0, 0.00000000000000000000e+00) (0, 0, 0.00000000000000000000e+00) (0, 0, 0.00000000000000000000e+00) (0, 0, 0.00000000000000000000e+00) (0, 0, 0.00000000000000000000e+00) (0, 0, 0.00000000000000000000e+00) (0, 0, 0.00000000000000000000e+00) (0, 0, 0.00000000000000000000e+00) (0, 0, 0.00000000000000000000e+00) (0, 0, 0.00000000000000000000e+00) (0, 0, 0.00000000000000000000e+00) (0, 0, 0.00000000000000000000e+00) (0, 0, 0.00000000000000000000e+00) (0, 0, 0.00000000000000000000e+00) (0, 0, 0.00000000000000000000e+00) (0, 0, 0.00000000000000000000e+00) (0, 0, 0.00000000000000000000e+00) (0, 0, 0.00000000000000000000e+00) (0, 0, 0.00000000000000000000e+00) (0, 0, 0.00000000000000000000e+00) (0, 0, 0.00000000000000000000e+00) (0, 0, 0.00000000000000000000e+00) (0, 0, 0.00000000000000000000e+00) (0, 0, 0.00000000000000000000e+00) (0, 0, 0.00000000000000000000e+00) (0, 0, 0.00000000000000000000e+00) (0, 0, 0.00000000000000000000e+00) (0, 0, 0.00000000000000000000e+00) (0, 0, 0.00000000000000000000e+00) (0, 0, 0.00000000000000000000e+00) (0, 0, 0.00000000000000000000e+00) (0, 0, 0.00000000000000000000e+00) (0, 0, 0.00000000000000000000e+00) (0, 0, 0.00000000000000000000e+00) (0, 0, 0.00000000000000000000e+00) (0, 0, 0.00000000000000000000e+00) (0, 0, 0.00000000000000000000e+00) (0, 0, 0.00000000000000000000e+00) (0, 0, 0.00000000000000000000e+00) (0, 0, 0.00000000000000000000e+00) (0, 0, 0.00000000000000000000e+00) (0, 0, 0.00000000000000000000e+00) (0, 0, 0.00000000000000000000e+00) (0, 0, 0.00000000000000000000e+00) (0, 0, 0.00000000000000000000e+00) (0, 0, 0.00000000000000000000e+00) (0, 0, 0.00000000000000000000e+00) (0, 0, 0.00000000000000000000e+00) (0, 0, 0.00000000000000000000e+00) (0, 0, 0.00000000000000000000e+00) (0, 0, 0.00000000000000000000e+00) (0, 0, 0.00000000000000000000e+00) (0, 0, 0.00000000000000000000e+00) (0, 0, 0.00000000000000000000e+00) (0, 0, 0.00000000000000000000e+00) (0, 0, 0.00000000000000000000e+00) (0, 0, 0.00000000000000000000e+00) (0, 0, 0.00000000000000000000e+00) (0, 0, 0.00000000000000000000e+00) (0, 0, 0.00000000000000000000e+00) (0, 0, 0.00000000000000000000e+00) (0, 0, 0.00000000000000000000e+00) (0, 0, 0.00000000000000000000e+00) (0, 0, 0.00000000000000000000e+00) (0, 0, 0.00000000000000000000e+00) (0, 0, 0.00000000000000000000e+00) (0, 0, 0.00000000000000000000e+00) (0, 0, 0.00000000000000000000e+00) (0, 0, 0.00000000000000000000e+00) (0, 0, 0.00000000000000000000e+00) (0, 0, 0.00000000000000000000e+00) (0, 0, 0.00000000000000000000e+00) (0, 0, 0.00000000000000000000e+00) (0, 0, 0.00000000000000000000e+00) (0, 0, 0.00000000000000000000e+00) (0, 0, 0.00000000000000000000e+00) (0, 0, 0.00000000000000000000e+00) (0, 0, 0.00000000000000000000e+00) (0, 0, 0.00000000000000000000e+00) (0, 0, 0.00000000000000000000e+00) (0, 0, 0.00000000000000000000e+00) (0, 0, 0.00000000000000000000e+00) (0, 0, 0.00000000000000000000e+00) (0, 0, 0.00000000000000000000e+00) (0, 0, 0.00000000000000000000e+00) (0, 0, 0.00000000000000000000e+00) (0, 0, 0.00000000000000000000e+00) (0, 0, 0.00000000000000000000e+00) (0, 0, 0.00000000000000000000e+00) (0, 0, 0.00000000000000000000e+00) (0, 0, 0.00000000000000000000e+00) (0, 0, 0.00000000000000000000e+00) (0, 0, 0.00000000000000000000e+00) (0, 0, 0.00000000000000000000e+00) (0, 0, 0.00000000000000000000e+00) (0, 0, 0.00000000000000000000e+00) (0, 0, 0.00000000000000000000e+00) (0, 0, 0.00000000000000000000e+00) (0, 0, 0.00000000000000000000e+00) (0, 0, 0.00000000000000000000e+00) (0, 0, 0.00000000000000000000e+00) (0, 0, 0.00000000000000000000e+00) (0, 0, 0.00000000000000000000e+00) (0, 0, 0.00000000000000000000e+00) (0, 0, 0.00000000000000000000e+00) (0, 0, 0.00000000000000000000e+00) (0, 0, 0.00000000000000000000e+00) (0, 0, 0.00000000000000000000e+00) (0, 0, 0.00000000000000000000e+00) (0, 0, 0.00000000000000000000e+00) (0, 0, 0.00000000000000000000e+00) (0, 0, 0.00000000000000000000e+00) (0, 0, 0.00000000000000000000e+00) (0, 0, 0.00000000000000000000e+00) (0, 0, 0.00000000000000000000e+00) (0, 0, 0.00000000000000000000e+00) (0, 0, 0.00000000000000000000e+00) (0, 0, 0.00000000000000000000e+00) (0, 0, 0.00000000000000000000e+00) (0, 0, 0.00000000000000000000e+00) (0, 0, 0.00000000000000000000e+00) (0, 0, 0.00000000000000000000e+00) (0, 0, 0.00000000000000000000e+00) (0, 0, 0.00000000000000000000e+00) (0, 0, 0.00000000000000000000e+00) (0, 0, 0.00000000000000000000e+00) (0, 0, 0.00000000000000000000e+00) (0, 0, 0.00000000000000000000e+00) (0, 0, 0.00000000000000000000e+00) (0, 0, 0.00000000000000000000e+00) (0, 0, 0.00000000000000000000e+00) (0, 0, 0.00000000000000000000e+00) (0, 0, 0.00000000000000000000e+00) (0, 0, 0.00000000000000000000e+00) (0, 0, 0.00000000000000000000e+00) (0, 0, 0.00000000000000000000e+00) (0, 0, 0.00000000000000000000e+00) (0, 0, 0.00000000000000000000e+00) (0, 0, 0.00000000000000000000e+00) (0, 0, 0.00000000000000000000e+00) (0, 0, 0.00000000000000000000e+00) (0, 0, 0.00000000000000000000e+00) (0, 0, 0.00000000000000000000e+00) (0, 0, 0.00000000000000000000e+00) (0, 0, 0.00000000000000000000e+00) (0, 0, 0.00000000000000000000e+00) (0, 0, 0.00000000000000000000e+00) (0, 0, 0.00000000000000000000e+00) (0, 0, 0.00000000000000000000e+00) (0, 0, 0.00000000000000000000e+00) (0, 0, 0.00000000000000000000e+00) (0, 0, 0.00000000000000000000e+00) (0, 0, 0.00000000000000000000e+00) (0, 0, 0.00000000000000000000e+00) (0, 0, 0.00000000000000000000e+00) (0, 0, 0.00000000000000000000e+00) (0, 0, 0.00000000000000000000e+00) (0, 0, 0.00000000000000000000e+00) (0, 0, 0.00000000000000000000e+00) (0, 0, 0.00000000000000000000e+00) (0, 0, 0.00000000000000000000e+00) (0, 0, 0.00000000000000000000e+00) (0, 0, 0.00000000000000000000e+00) (0, 0, 0.00000000000000000000e+00) (0, 0, 0.00000000000000000000e+00) (0, 0, 0.00000000000000000000e+00) (0, 0, 0.00000000000000000000e+00) (0, 0, 0.00000000000000000000e+00) (0, 0, 0.00000000000000000000e+00) (0, 0, 0.00000000000000000000e+00) (0, 0, 0.00000000000000000000e+00) (0, 0, 0.00000000000000000000e+00) (0, 0, 0.00000000000000000000e+00) (0, 0, 0.00000000000000000000e+00) (0, 0, 0.00000000000000000000e+00) (0, 0, 0.00000000000000000000e+00) (0, 0, 0.00000000000000000000e+00) (0, 0, 0.00000000000000000000e+00) (0, 0, 0.00000000000000000000e+00) (0, 0, 0.00000000000000000000e+00) (0, 0, 0.00000000000000000000e+00) (0, 0, 0.00000000000000000000e+00) (0, 0, 0.00000000000000000000e+00) (0, 0, 0.00000000000000000000e+00) (0, 0, 0.00000000000000000000e+00) (0, 0, 0.00000000000000000000e+00) (0, 0, 0.00000000000000000000e+00) (0, 0, 0.00000000000000000000e+00) (0, 0, 0.00000000000000000000e+00) (0, 0, 0.00000000000000000000e+00) (0, 0, 0.00000000000000000000e+00) (0, 0, 0.00000000000000000000e+00) (0, 0, 0.00000000000000000000e+00) (0, 0, 0.00000000000000000000e+00) (0, 0, 0.00000000000000000000e+00) (0, 0, 0.00000000000000000000e+00) (0, 0, 0.00000000000000000000e+00) (0, 0, 0.00000000000000000000e+00) (0, 0, 0.00000000000000000000e+00) (0, 0, 0.00000000000000000000e+00) (0, 0, 0.00000000000000000000e+00) (0, 0, 0.00000000000000000000e+00) (0, 0, 0.00000000000000000000e+00) (0, 0, 0.00000000000000000000e+00) (0, 0, 0.00000000000000000000e+00) (0, 0, 0.00000000000000000000e+00) (0, 0, 0.00000000000000000000e+00) (0, 0, 0.00000000000000000000e+00) (0, 0, 0.00000000000000000000e+00) (0, 0, 0.00000000000000000000e+00) (0, 0, 0.00000000000000000000e+00) (0, 0, 0.00000000000000000000e+00) (0, 0, 0.00000000000000000000e+00) (0, 0, 0.00000000000000000000e+00) (0, 0, 0.00000000000000000000e+00) (0, 0, 0.00000000000000000000e+00) (0, 0, 0.00000000000000000000e+00) (0, 0, 0.00000000000000000000e+00) (0, 0, 0.00000000000000000000e+00) (0, 0, 0.00000000000000000000e+00) (0, 0, 0.00000000000000000000e+00) (0, 0, 0.00000000000000000000e+00) (0, 0, 0.00000000000000000000e+00) (0, 0, 0.00000000000000000000e+00) (0, 0, 0.00000000000000000000e+00) (0, 0, 0.00000000000000000000e+00) (0, 0, 0.00000000000000000000e+00) (0, 0, 0.00000000000000000000e+00) (0, 0, 0.00000000000000000000e+00) (0, 0, 0.00000000000000000000e+00) (0, 0, 0.00000000000000000000e+00) (0, 0, 0.00000000000000000000e+00) (0, 0, 0.00000000000000000000e+00) (0, 0, 0.00000000000000000000e+00) (0, 0, 0.00000000000000000000e+00) (0, 0, 0.00000000000000000000e+00) (0, 0, 0.00000000000000000000e+00) (0, 0, 0.00000000000000000000e+00) (0, 0, 0.00000000000000000000e+00) (0, 0, 0.00000000000000000000e+00) (0, 0, 0.00000000000000000000e+00) (0, 0, 0.00000000000000000000e+00) (0, 0, 0.00000000000000000000e+00) (0, 0, 0.00000000000000000000e+00) (0, 0, 0.00000000000000000000e+00) (0, 0, 0.00000000000000000000e+00) (0, 0, 0.00000000000000000000e+00) (0, 0, 0.00000000000000000000e+00) (0, 0, 0.00000000000000000000e+00) (0, 0, 0.00000000000000000000e+00) (0, 0, 0.00000000000000000000e+00) (0, 0, 0.00000000000000000000e+00) (0, 0, 0.00000000000000000000e+00) (0, 0, 0.00000000000000000000e+00) (0, 0, 0.00000000000000000000e+00) (0, 0, 0.00000000000000000000e+00) (0, 0, 0.00000000000000000000e+00) (0, 0, 0.00000000000000000000e+00) (0, 0, 0.00000000000000000000e+00) (0, 0, 0.00000000000000000000e+00) (0, 0, 0.00000000000000000000e+00) (0, 0, 0.00000000000000000000e+00) (0, 0, 0.00000000000000000000e+00) (0, 0, 0.00000000000000000000e+00) (0, 0, 0.00000000000000000000e+00) (0, 0, 0.00000000000000000000e+00) (0, 0, 0.00000000000000000000e+00) (0, 0, 0.00000000000000000000e+00) (0, 0, 0.00000000000000000000e+00) (0, 0, 0.00000000000000000000e+00) (0, 0, 0.00000000000000000000e+00) (0, 0, 0.00000000000000000000e+00) (0, 0, 0.00000000000000000000e+00) (0, 0, 0.00000000000000000000e+00) (0, 0, 0.00000000000000000000e+00) (0, 0, 0.00000000000000000000e+00) (0, 0, 0.00000000000000000000e+00) (0, 0, 0.00000000000000000000e+00) (0, 0, 0.00000000000000000000e+00) (0, 0, 0.00000000000000000000e+00) (0, 0, 0.00000000000000000000e+00) (0, 0, 0.00000000000000000000e+00) (0, 0, 0.00000000000000000000e+00) (0, 0, 0.00000000000000000000e+00) (0, 0, 0.00000000000000000000e+00) (0, 0, 0.00000000000000000000e+00) (0, 0, 0.00000000000000000000e+00) (0, 0, 0.00000000000000000000e+00) (0, 0, 0.00000000000000000000e+00) (0, 0, 0.00000000000000000000e+00) (0, 0, 0.00000000000000000000e+00) (0, 0, 0.00000000000000000000e+00) (0, 0, 0.00000000000000000000e+00) (0, 0, 0.00000000000000000000e+00) (0, 0, 0.00000000000000000000e+00) (0, 0, 0.00000000000000000000e+00) (0, 0, 0.00000000000000000000e+00) (0, 0, 0.00000000000000000000e+00) (0, 0, 0.00000000000000000000e+00) (0, 0, 0.00000000000000000000e+00) (0, 0, 0.00000000000000000000e+00) (0, 0, 0.00000000000000000000e+00) (0, 0, 0.00000000000000000000e+00) (0, 0, 0.00000000000000000000e+00) (0, 0, 0.00000000000000000000e+00) (0, 0, 0.00000000000000000000e+00) (0, 0, 0.00000000000000000000e+00) (0, 0, 0.00000000000000000000e+00) (0, 0, 0.00000000000000000000e+00) (0, 0, 0.00000000000000000000e+00) (0, 0, 0.00000000000000000000e+00) (0, 0, 0.00000000000000000000e+00) (0, 0, 0.00000000000000000000e+00) (0, 0, 0.00000000000000000000e+00) (0, 0, 0.00000000000000000000e+00) (0, 0, 0.00000000000000000000e+00) (0, 0, 0.00000000000000000000e+00) (0, 0, 0.00000000000000000000e+00) (0, 0, 0.00000000000000000000e+00) (0, 0, 0.00000000000000000000e+00) (0, 0, 0.00000000000000000000e+00) (0, 0, 0.00000000000000000000e+00) (0, 0, 0.00000000000000000000e+00) (0, 0, 0.00000000000000000000e+00) (0, 0, 0.00000000000000000000e+00) (0, 0, 0.00000000000000000000e+00) (0, 0, 0.00000000000000000000e+00) (0, 0, 0.00000000000000000000e+00) (0, 0, 0.00000000000000000000e+00) (0, 0, 0.00000000000000000000e+00) (0, 0, 0.00000000000000000000e+00) (0, 0, 0.00000000000000000000e+00) (0, 0, 0.00000000000000000000e+00) (0, 0, 0.00000000000000000000e+00) (0, 0, 0.00000000000000000000e+00) (0, 0, 0.00000000000000000000e+00) (0, 0, 0.00000000000000000000e+00) (0, 0, 0.00000000000000000000e+00) (0, 0, 0.00000000000000000000e+00) (0, 0, 0.00000000000000000000e+00) (0, 0, 0.00000000000000000000e+00) (0, 0, 0.00000000000000000000e+00) (0, 0, 0.00000000000000000000e+00) (0, 0, 0.00000000000000000000e+00) (0, 0, 0.00000000000000000000e+00) (0, 0, 0.00000000000000000000e+00) (0, 0, 0.00000000000000000000e+00) (0, 0, 0.00000000000000000000e+00) (0, 0, 0.00000000000000000000e+00) (0, 0, 0.00000000000000000000e+00) (0, 0, 0.00000000000000000000e+00) (0, 0, 0.00000000000000000000e+00) (0, 0, 0.00000000000000000000e+00) (0, 0, 0.00000000000000000000e+00) (0, 0, 0.00000000000000000000e+00) (0, 0, 0.00000000000000000000e+00) (0, 0, 0.00000000000000000000e+00) (0, 0, 0.00000000000000000000e+00) (0, 0, 0.00000000000000000000e+00) (0, 0, 0.00000000000000000000e+00) (0, 0, 0.00000000000000000000e+00) (0, 0, 0.00000000000000000000e+00) (0, 0, 0.00000000000000000000e+00) (0, 0, 0.00000000000000000000e+00) (0, 0, 0.00000000000000000000e+00) (0, 0, 0.00000000000000000000e+00) (0, 0, 0.00000000000000000000e+00) (0, 0, 0.00000000000000000000e+00) (0, 0, 0.00000000000000000000e+00) (0, 0, 0.00000000000000000000e+00) (0, 0, 0.00000000000000000000e+00) (0, 0, 0.00000000000000000000e+00) (0, 0, 0.00000000000000000000e+00) (0, 0, 0.00000000000000000000e+00) (0, 0, 0.00000000000000000000e+00) (0, 0, 0.00000000000000000000e+00) (0, 0, 0.00000000000000000000e+00) (0, 0, 0.00000000000000000000e+00) (0, 0, 0.00000000000000000000e+00) (0, 0, 0.00000000000000000000e+00) (0, 0, 0.00000000000000000000e+00) (0, 0, 0.00000000000000000000e+00) (0, 0, 0.00000000000000000000e+00) (0, 0, 0.00000000000000000000e+00) (0, 0, 0.00000000000000000000e+00) (0, 0, 0.00000000000000000000e+00) (0, 0, 0.00000000000000000000e+00) (0, 0, 0.00000000000000000000e+00) (0, 0, 0.00000000000000000000e+00) (0, 0, 0.00000000000000000000e+00) (0, 0, 0.00000000000000000000e+00) (0, 0, 0.00000000000000000000e+00) (0, 0, 0.00000000000000000000e+00) (0, 0, 0.00000000000000000000e+00) (0, 0, 0.00000000000000000000e+00) (0, 0, 0.00000000000000000000e+00) (0, 0, 0.00000000000000000000e+00) (0, 0, 0.00000000000000000000e+00) (0, 0, 0.00000000000000000000e+00) (0, 0, 0.00000000000000000000e+00) (0, 0, 0.00000000000000000000e+00) (0, 0, 0.00000000000000000000e+00) (0, 0, 0.00000000000000000000e+00) (0, 0, 0.00000000000000000000e+00) (0, 0, 0.00000000000000000000e+00) (0, 0, 0.00000000000000000000e+00) (0, 0, 0.00000000000000000000e+00) (0, 0, 0.00000000000000000000e+00) (0, 0, 0.00000000000000000000e+00) (0, 0, 0.00000000000000000000e+00) (0, 0, 0.00000000000000000000e+00) (0, 0, 0.00000000000000000000e+00) (0, 0, 0.00000000000000000000e+00) (0, 0, 0.00000000000000000000e+00) (0, 0, 0.00000000000000000000e+00) (0, 0, 0.00000000000000000000e+00) (0, 0, 0.00000000000000000000e+00) (0, 0, 0.00000000000000000000e+00) (0, 0, 0.00000000000000000000e+00) (0, 0, 0.00000000000000000000e+00) (0, 0, 0.00000000000000000000e+00) (0, 0, 0.00000000000000000000e+00) (0, 0, 0.00000000000000000000e+00) (0, 0, 0.00000000000000000000e+00) (0, 0, 0.00000000000000000000e+00) (1025, 5, 5.00000000000000000000e-01) (1025, 5, 5.00000000000000000000e-01) (1025, 5, 5.00000000000000000000e-01) (1025, 5, 5.00000000000000000000e-01) (1025, 5, 5.00000000000000000000e-01) (1025, 5, 5.00000000000000000000e-01) (1025, 5, 5.00000000000000000000e-01) (1025, 5, 5.00000000000000000000e-01) (1025, 5, 5.00000000000000000000e-01) (1025, 5, 5.00000000000000000000e-01) (1025, 5, 5.00000000000000000000e-01) (1025, 5, 5.00000000000000000000e-01) (1025, 5, 5.00000000000000000000e-01) (1025, 5, 5.00000000000000000000e-01) (1025, 5, 5.00000000000000000000e-01) (1025, 5, 5.00000000000000000000e-01) (1025, 5, 5.00000000000000000000e-01) (1025, 5, 5.00000000000000000000e-01) (1025, 5, 5.00000000000000000000e-01) (1025, 5, 5.00000000000000000000e-01) (1025, 5, 5.00000000000000000000e-01) (1025, 5, 5.00000000000000000000e-01) (1025, 5, 5.00000000000000000000e-01) (1025, 5, 5.00000000000000000000e-01) (1025, 5, 5.00000000000000000000e-01) (0, 5, 0.00000000000000000000e+00) (26, 5, 5.00000000000000000000e-01) (26, 5, 5.00000000000000000000e-01) (26, 5, 5.00000000000000000000e-01) (0, 5, 0.00000000000000000000e+00) 
connections (connected_to_neuron, weight)=(0, 3.13311547040939331055e-01) (1, 3.77929061651229858398e-01) (2, 4.11108464002609252930e-01) (3, 3.74026864767074584961e-01) (4, 2.21845775842666625977e-01) (5, 2.36466974020004272461e-01) (6, 3.36285859346389770508e-01) (7, 2.45805710554122924805e-01) (8, 3.37271004915237426758e-01) (9, 2.90332734584808349609e-01) (10, 4.48409855365753173828e-01) (11, 3.66005808115005493164e-01) (12, 4.24980103969573974609e-01) (13, 4.29958462715148925781e-01) (14, 3.52731704711914062500e-01) (15, 5.09407341480255126953e-01) (16, 4.08859640359878540039e-01) (17, 4.53948974609375000000e-01) (18, 3.59399825334548950195e-01) (19, 4.89845067262649536133e-01) (20, 4.85283941030502319336e-01) (21, 4.49686497449874877930e-01) (22, 4.77111995220184326172e-01) (23, 4.05829042196273803711e-01) (24, 3.27860444784164428711e-01) (25, 3.94645124673843383789e-01) (26, 3.25173377990722656250e-01) (27, 3.18907201290130615234e-01) (28, 3.38013082742691040039e-01) (29, 3.72341990470886230469e-01) (30, 3.86392265558242797852e-01) (31, 3.58960658311843872070e-01) (32, 4.55052196979522705078e-01) (33, 2.62553781270980834961e-01) (34, 2.34224557876586914062e-01) (35, 4.01813507080078125000e-01) (36, 3.72671991586685180664e-01) (37, 2.91106730699539184570e-01) (38, 3.66484493017196655273e-01) (39, 3.41681241989135742188e-01) (40, 3.56108784675598144531e-01) (41, 3.30054581165313720703e-01) (42, 3.03744852542877197266e-01) (43, 2.97003626823425292969e-01) (44, 4.83614891767501831055e-01) (45, 3.41183513402938842773e-01) (46, 4.87583905458450317383e-01) (47, 3.74843209981918334961e-01) (48, 4.91679459810256958008e-01) (49, 3.46432954072952270508e-01) (50, 3.38441461324691772461e-01) (51, 4.53422069549560546875e-01) (52, 4.76956039667129516602e-01) (53, 5.14317095279693603516e-01) (54, 3.73850792646408081055e-01) (55, 3.08146774768829345703e-01) (56, 3.89204502105712890625e-01) (57, 3.60450953245162963867e-01) (58, 3.26636701822280883789e-01) (59, 4.30311650037765502930e-01) (60, 4.35505032539367675781e-01) (61, 4.11910533905029296875e-01) (62, 4.86929357051849365234e-01) (63, 4.14058566093444824219e-01) (64, 4.59850609302520751953e-01) (65, 3.04908484220504760742e-01) (66, 3.84429991245269775391e-01) (67, 4.34906333684921264648e-01) (68, 3.33913445472717285156e-01) (69, 2.98590660095214843750e-01) (70, 3.07132184505462646484e-01) (71, 4.14303928613662719727e-01) (72, 3.53781878948211669922e-01) (73, 3.28035652637481689453e-01) (74, 4.34284031391143798828e-01) (75, 3.48982602357864379883e-01) (76, 3.76605391502380371094e-01) (77, 4.24508601427078247070e-01) (78, 4.31167542934417724609e-01) (79, 3.81174832582473754883e-01) (80, 4.75955814123153686523e-01) (81, 4.68194723129272460938e-01) (82, 3.33149045705795288086e-01) (83, 4.52822089195251464844e-01) (84, 4.61596816778182983398e-01) (85, 3.67495626211166381836e-01) (86, 4.64611411094665527344e-01) (87, 3.56212139129638671875e-01) (88, 4.35586094856262207031e-01) (89, 4.86874341964721679688e-01) (90, 5.19573211669921875000e-01) (91, 3.71861070394515991211e-01) (92, 4.00089651346206665039e-01) (93, 4.72715467214584350586e-01) (94, 5.12834370136260986328e-01) (95, 4.09925252199172973633e-01) (96, 4.74615424871444702148e-01) (97, 3.84524255990982055664e-01) (98, 3.18108916282653808594e-01) (99, 3.27785253524780273438e-01) (100, 3.98655325174331665039e-01) (101, 3.52212280035018920898e-01) (102, 4.58863645792007446289e-01) (103, 4.65073049068450927734e-01) (104, 3.85543048381805419922e-01) (105, 3.95645797252655029297e-01) (106, 3.10125589370727539062e-01) (107, 4.66768950223922729492e-01) (108, 3.34772884845733642578e-01) (109, 4.58772718906402587891e-01) (110, 3.57373356819152832031e-01) (111, 3.24498444795608520508e-01) (112, 4.25085753202438354492e-01) (113, 3.86078864336013793945e-01) (114, 4.68749910593032836914e-01) (115, 3.89300674200057983398e-01) (116, 4.57990288734436035156e-01) (117, 4.29845094680786132812e-01) (118, 4.42231029272079467773e-01) (119, 3.91481816768646240234e-01) (120, 4.15242493152618408203e-01) (121, 4.27793800830841064453e-01) (122, 4.66152250766754150391e-01) (123, 3.19379150867462158203e-01) (124, 4.05690222978591918945e-01) (125, 4.53389078378677368164e-01) (126, 4.36051964759826660156e-01) (127, 4.30582642555236816406e-01) (128, 3.32787185907363891602e-01) (129, 4.18026268482208251953e-01) (130, 4.32147085666656494141e-01) (131, 4.60211336612701416016e-01) (132, 4.86254602670669555664e-01) (133, 3.98835688829421997070e-01) (134, 4.35987979173660278320e-01) (135, 3.77102702856063842773e-01) (136, 2.99468070268630981445e-01) (137, 4.69122678041458129883e-01) (138, 3.47614943981170654297e-01) (139, 3.47846984863281250000e-01) (140, 4.28569793701171875000e-01) (141, 4.28552538156509399414e-01) (142, 3.94637942314147949219e-01) (143, 3.93239051103591918945e-01) (144, 5.03507494926452636719e-01) (145, 3.22153002023696899414e-01) (146, 4.36756998300552368164e-01) (147, 4.50546652078628540039e-01) (148, 4.53663438558578491211e-01) (149, 3.80948841571807861328e-01) (150, 3.43459248542785644531e-01) (151, 3.70875686407089233398e-01) (152, 3.06118100881576538086e-01) (153, 3.06329697370529174805e-01) (154, 3.87671738862991333008e-01) (155, 4.06392723321914672852e-01) (156, 4.58825081586837768555e-01) (157, 5.28350949287414550781e-01) (158, 5.43930709362030029297e-01) (159, 3.56038391590118408203e-01) (160, 4.18531209230422973633e-01) (161, 4.29331362247467041016e-01) (162, 4.69460904598236083984e-01) (163, 4.09385770559310913086e-01) (164, 3.85481148958206176758e-01) (165, 4.54247355461120605469e-01) (166, 4.92113441228866577148e-01) (167, 3.41225385665893554688e-01) (168, 3.97172600030899047852e-01) (169, 3.68626207113265991211e-01) (170, 3.92210990190505981445e-01) (171, 2.82617449760437011719e-01) (172, 4.63778495788574218750e-01) (173, 4.45614099502563476562e-01) (174, 3.73068660497665405273e-01) (175, 4.93076205253601074219e-01) (176, 5.19825339317321777344e-01) (177, 4.98701721429824829102e-01) (178, 3.98890227079391479492e-01) (179, 4.14701372385025024414e-01) (180, 3.68169456720352172852e-01) (181, 4.43081557750701904297e-01) (182, 4.87007856369018554688e-01) (183, 3.75307708978652954102e-01) (184, 4.50673371553421020508e-01) (185, 3.74416023492813110352e-01) (186, 5.01334369182586669922e-01) (187, 4.08563584089279174805e-01) (188, 3.62506568431854248047e-01) (189, 4.77586150169372558594e-01) (190, 4.50222492218017578125e-01) (191, 5.37330031394958496094e-01) (192, 4.15662139654159545898e-01) (193, 3.94723713397979736328e-01) (194, 4.05846238136291503906e-01) (195, 4.98574137687683105469e-01) (196, 3.49056959152221679688e-01) (197, 4.36686128377914428711e-01) (198, 5.14903306961059570312e-01) (199, 3.86032283306121826172e-01) (200, 4.48296844959259033203e-01) (201, 4.00587528944015502930e-01) (202, 4.23995345830917358398e-01) (203, 4.05396223068237304688e-01) (204, 3.24757039546966552734e-01) (205, 4.48451399803161621094e-01) (206, 3.64491045475006103516e-01) (207, 5.08007347583770751953e-01) (208, 4.86998140811920166016e-01) (209, 4.62935358285903930664e-01) (210, 3.93035084009170532227e-01) (211, 4.96380239725112915039e-01) (212, 3.99733662605285644531e-01) (213, 3.80076318979263305664e-01) (214, 3.72132003307342529297e-01) (215, 3.51669102907180786133e-01) (216, 4.57978814840316772461e-01) (217, 3.51979315280914306641e-01) (218, 4.83544915914535522461e-01) (219, 3.49998027086257934570e-01) (220, 3.59840631484985351562e-01) (221, 4.00233268737792968750e-01) (222, 3.26065421104431152344e-01) (223, 4.57336604595184326172e-01) (224, 4.77432578802108764648e-01) (225, 4.25411492586135864258e-01) (226, 4.03887271881103515625e-01) (227, 5.30165135860443115234e-01) (228, 9.03417646884918212891e-01) (229, 9.33838367462158203125e-01) (230, 3.87061268091201782227e-01) (231, 4.66835469007492065430e-01) (232, 4.65693265199661254883e-01) (233, 4.81910139322280883789e-01) (234, 3.99846285581588745117e-01) (235, 4.87047284841537475586e-01) (236, 3.82134765386581420898e-01) (237, 4.22006696462631225586e-01) (238, 4.75902915000915527344e-01) (239, 3.56878787279129028320e-01) (240, 4.43579107522964477539e-01) (241, 3.67962092161178588867e-01) (242, 3.24036478996276855469e-01) (243, 4.97881442308425903320e-01) (244, 4.42285150289535522461e-01) (245, 3.99777501821517944336e-01) (246, 3.51806879043579101562e-01) (247, 4.02224719524383544922e-01) (248, 4.77199077606201171875e-01) (249, 3.35534960031509399414e-01) (250, 4.49829250574111938477e-01) (251, 5.13058960437774658203e-01) (252, 4.22916054725646972656e-01) (253, 4.73239839076995849609e-01) (254, 4.58374589681625366211e-01) (255, 3.80730956792831420898e-01) (256, 3.72835576534271240234e-01) (257, 3.42859387397766113281e-01) (258, 3.96464109420776367188e-01) (259, 9.97172296047210693359e-01) (260, 1.01592314243316650391e+00) (261, 9.28959846496582031250e-01) (262, 3.89970660209655761719e-01) (263, 3.93918335437774658203e-01) (264, 3.76056432723999023438e-01) (265, 4.60176020860671997070e-01) (266, 3.55652630329132080078e-01) (267, 7.54940629005432128906e-01) (268, 3.80154460668563842773e-01) (269, 3.47789108753204345703e-01) (270, 3.28541934490203857422e-01) (271, 5.25534212589263916016e-01) (272, 4.55287754535675048828e-01) (273, 3.46171647310256958008e-01) (274, 5.20728290081024169922e-01) (275, 4.25984829664230346680e-01) (276, 5.05459606647491455078e-01) (277, 3.81978809833526611328e-01) (278, 4.77884918451309204102e-01) (279, 4.08001750707626342773e-01) (280, 3.87246310710906982422e-01) (281, 4.27311271429061889648e-01) (282, 4.22496318817138671875e-01) (283, 4.89804238080978393555e-01) (284, 3.84025365114212036133e-01) (285, 3.76302540302276611328e-01) (286, 3.70552420616149902344e-01) (287, 4.53801304101943969727e-01) (288, 3.89686107635498046875e-01) (289, 4.02396380901336669922e-01) (290, 3.68292331695556640625e-01) (291, 9.27055001258850097656e-01) (292, 9.15055692195892333984e-01) (293, 9.28706824779510498047e-01) (294, 4.57519233226776123047e-01) (295, 4.06891793012619018555e-01) (296, 3.47609490156173706055e-01) (297, 3.43439579010009765625e-01) (298, 4.31611627340316772461e-01) (299, 8.95829916000366210938e-01) (300, 4.10787701606750488281e-01) (301, 4.36689853668212890625e-01) (302, 4.66770052909851074219e-01) (303, 3.56849104166030883789e-01) (304, 4.95836615562438964844e-01) (305, 4.81676727533340454102e-01) (306, 4.31280583143234252930e-01) (307, 4.87206518650054931641e-01) (308, 3.84906589984893798828e-01) (309, 4.22401547431945800781e-01) (310, 3.36420804262161254883e-01) (311, 3.78697633743286132812e-01) (312, 4.92852121591567993164e-01) (313, 4.62890565395355224609e-01) (314, 3.75219404697418212891e-01) (315, 3.80284786224365234375e-01) (316, 5.12520849704742431641e-01) (317, 4.26576405763626098633e-01) (318, 5.18120646476745605469e-01) (319, 4.01797801256179809570e-01) (320, 4.99112844467163085938e-01) (321, 3.11325103044509887695e-01) (322, 4.42941457033157348633e-01) (323, 9.14638936519622802734e-01) (324, 1.01959002017974853516e+00) (325, 9.13586735725402832031e-01) (326, 1.00146114826202392578e+00) (327, 4.70274478197097778320e-01) (328, 3.66501033306121826172e-01) (329, 3.74568074941635131836e-01) (330, 4.53578263521194458008e-01) (331, 4.85876977443695068359e-01) (332, 4.98533070087432861328e-01) (333, 4.05590713024139404297e-01) (334, 3.34636121988296508789e-01) (335, 4.79772180318832397461e-01) (336, 3.48635166883468627930e-01) (337, 4.14228171110153198242e-01) (338, 4.19785320758819580078e-01) (339, 4.26098972558975219727e-01) (340, 3.05070787668228149414e-01) (341, 4.26730304956436157227e-01) (342, 4.47551518678665161133e-01) (343, 3.01825702190399169922e-01) (344, 3.78472894430160522461e-01) (345, 4.98987346887588500977e-01) (346, 3.82842570543289184570e-01) (347, 3.76567572355270385742e-01) (348, 4.26296949386596679688e-01) (349, 3.77180695533752441406e-01) (350, 4.57202136516571044922e-01) (351, 4.20186847448348999023e-01) (352, 3.64910542964935302734e-01) (353, 3.28771322965621948242e-01) (354, 9.87295269966125488281e-01) (355, 1.06959974765777587891e+00) (356, 9.74892735481262207031e-01) (357, 9.90322113037109375000e-01) (358, 1.03279817104339599609e+00) (359, 4.68419164419174194336e-01) (360, 4.22495335340499877930e-01) (361, 4.00708287954330444336e-01) (362, 4.22714859247207641602e-01) (363, 4.28715109825134277344e-01) (364, 5.30820429325103759766e-01) (365, 4.68486785888671875000e-01) (366, 3.75038444995880126953e-01) (367, 3.52429807186126708984e-01) (368, 3.55752110481262207031e-01) (369, 4.62032705545425415039e-01) (370, 4.22618329524993896484e-01) (371, 3.60856890678405761719e-01) (372, 3.89495104551315307617e-01) (373, 3.70901972055435180664e-01) (374, 3.64642798900604248047e-01) (375, 4.62635725736618041992e-01) (376, 5.57259798049926757812e-01) (377, 5.22346854209899902344e-01) (378, 3.09005528688430786133e-01) (379, 4.91923719644546508789e-01) (380, 5.01615524291992187500e-01) (381, 4.74202036857604980469e-01) (382, 3.88858020305633544922e-01) (383, 3.61414611339569091797e-01) (384, 4.73497480154037475586e-01) (385, 4.83600050210952758789e-01) (386, 3.53461027145385742188e-01) (387, 9.39745843410491943359e-01) (388, 9.62532758712768554688e-01) (389, 1.14558959007263183594e+00) (390, 3.38592499494552612305e-01) (391, 5.17970263957977294922e-01) (392, 4.10500347614288330078e-01) (393, 4.28492099046707153320e-01) (394, 3.97099137306213378906e-01) (395, 3.81547242403030395508e-01) (396, 4.10868018865585327148e-01) (397, 4.68779325485229492188e-01) (398, 4.37989294528961181641e-01) (399, 4.23278123140335083008e-01) (400, 4.33547407388687133789e-01) (401, 3.65995228290557861328e-01) (402, 4.84867095947265625000e-01) (403, 3.21327298879623413086e-01) (404, 4.58693414926528930664e-01) (405, 3.81678044795989990234e-01) (406, 4.80545938014984130859e-01) (407, 3.06331664323806762695e-01) (408, 5.08639633655548095703e-01) (409, 5.27417004108428955078e-01) (410, 4.71797645092010498047e-01) (411, 4.74161207675933837891e-01) (412, 4.80521827936172485352e-01) (413, 3.88787239789962768555e-01) (414, 5.32226204872131347656e-01) (415, 4.39320474863052368164e-01) (416, 3.23419541120529174805e-01) (417, 3.00626426935195922852e-01) (418, 4.68079715967178344727e-01) (419, 9.77307975292205810547e-01) (420, 1.03530466556549072266e+00) (421, 1.04697656631469726562e+00) (422, 4.37758475542068481445e-01) (423, 4.33397471904754638672e-01) (424, 4.41863417625427246094e-01) (425, 5.08657217025756835938e-01) (426, 4.89922761917114257812e-01) (427, 5.02494156360626220703e-01) (428, 4.76080417633056640625e-01) (429, 3.98750424385070800781e-01) (430, 3.94607335329055786133e-01) (431, 4.12871390581130981445e-01) (432, 4.64514642953872680664e-01) (433, 3.81434649229049682617e-01) (434, 4.04426693916320800781e-01) (435, 3.98601710796356201172e-01) (436, 4.34417545795440673828e-01) (437, 4.12566930055618286133e-01) (438, 4.31802272796630859375e-01) (439, 4.11963075399398803711e-01) (440, 3.79612416028976440430e-01) (441, 3.87820363044738769531e-01) (442, 3.60739976167678833008e-01) (443, 3.86331081390380859375e-01) (444, 4.58261996507644653320e-01) (445, 3.77390384674072265625e-01) (446, 4.73835289478302001953e-01) (447, 4.69828665256500244141e-01) (448, 3.48012059926986694336e-01) (449, 4.15228515863418579102e-01) (450, 3.38501781225204467773e-01) (451, 3.40369790792465209961e-01) (452, 9.43028926849365234375e-01) (453, 9.70626533031463623047e-01) (454, 4.50236886739730834961e-01) (455, 3.29776138067245483398e-01) (456, 4.33248013257980346680e-01) (457, 4.06592249870300292969e-01) (458, 5.23722827434539794922e-01) (459, 3.99200856685638427734e-01) (460, 5.27112066745758056641e-01) (461, 4.18310642242431640625e-01) (462, 4.98231291770935058594e-01) (463, 5.02621471881866455078e-01) (464, 5.04607200622558593750e-01) (465, 3.43870580196380615234e-01) (466, 3.43526601791381835938e-01) (467, 3.98988753557205200195e-01) (468, 4.45550948381423950195e-01) (469, 4.81986284255981445312e-01) (470, 3.30830216407775878906e-01) (471, 3.26357483863830566406e-01) (472, 3.37439984083175659180e-01) (473, 3.73080939054489135742e-01) (474, 3.55129271745681762695e-01) (475, 5.21727204322814941406e-01) (476, 4.62218075990676879883e-01) (477, 3.17983627319335937500e-01) (478, 9.17848110198974609375e-01) (479, 4.84857797622680664062e-01) (480, 4.18614655733108520508e-01) (481, 4.53906744718551635742e-01) (482, 3.15173983573913574219e-01) (483, 3.26832175254821777344e-01) (484, 4.24485504627227783203e-01) (485, 4.57521170377731323242e-01) (486, 3.49218755960464477539e-01) (487, 5.03317534923553466797e-01) (488, 3.31934124231338500977e-01) (489, 8.52434277534484863281e-01) (490, 8.90386104583740234375e-01) (491, 1.04381215572357177734e+00) (492, 9.19736862182617187500e-01) (493, 1.02269434928894042969e+00) (494, 9.49302256107330322266e-01) (495, 3.45323443412780761719e-01) (496, 3.61542910337448120117e-01) (497, 5.29701650142669677734e-01) (498, 4.27159070968627929688e-01) (499, 4.71633523702621459961e-01) (500, 4.63420838117599487305e-01) (501, 4.64646697044372558594e-01) (502, 3.24465841054916381836e-01) (503, 4.88377720117568969727e-01) (504, 3.03309500217437744141e-01) (505, 3.43168497085571289062e-01) (506, 4.54488247632980346680e-01) (507, 4.24792230129241943359e-01) (508, 3.93815100193023681641e-01) (509, 3.50813657045364379883e-01) (510, 8.29657316207885742188e-01) (511, 4.99485969543457031250e-01) (512, 3.24908047914505004883e-01) (513, 4.08737778663635253906e-01) (514, 3.07745218276977539062e-01) (515, 4.16005074977874755859e-01) (516, 3.48734557628631591797e-01) (517, 3.39439630508422851562e-01) (518, 4.08871442079544067383e-01) (519, 3.54499191045761108398e-01) (520, 3.53495478630065917969e-01) (521, 4.55246150493621826172e-01) (522, 3.69528919458389282227e-01) (523, 4.00443702936172485352e-01) (524, 4.10121887922286987305e-01) (525, 2.89115041494369506836e-01) (526, 4.38305884599685668945e-01) (527, 4.41572815179824829102e-01) (528, 3.17022770643234252930e-01) (529, 4.21738356351852416992e-01) (530, 4.28575038909912109375e-01) (531, 4.55118268728256225586e-01) (532, 3.29238504171371459961e-01) (533, 4.64285314083099365234e-01) (534, 4.68775957822799682617e-01) (535, 3.33465903997421264648e-01) (536, 4.83352243900299072266e-01) (537, 4.01827454566955566406e-01) (538, 4.59019094705581665039e-01) (539, 3.52389752864837646484e-01) (540, 5.06046414375305175781e-01) (541, 8.32201957702636718750e-01) (542, 7.57404446601867675781e-01) (543, 7.43002057075500488281e-01) (544, 4.64125871658325195312e-01) (545, 3.43918740749359130859e-01) (546, 4.23297643661499023438e-01) (547, 3.12408894300460815430e-01) (548, 3.78580003976821899414e-01) (549, 3.30671042203903198242e-01) (550, 3.79674106836318969727e-01) (551, 4.27670687437057495117e-01) (552, 4.87353831529617309570e-01) (553, 4.33310449123382568359e-01) (554, 3.36340904235839843750e-01) (555, 3.89198452234268188477e-01) (556, 4.22229677438735961914e-01) (557, 2.79087066650390625000e-01) (558, 3.46517562866210937500e-01) (559, 4.27349776029586791992e-01) (560, 3.81315737962722778320e-01) (561, 3.03173691034317016602e-01) (562, 4.01258856058120727539e-01) (563, 4.17991906404495239258e-01) (564, 4.41464334726333618164e-01) (565, 4.14921760559082031250e-01) (566, 4.79061394929885864258e-01) (567, 4.25033360719680786133e-01) (568, 4.53814446926116943359e-01) (569, 4.17578965425491333008e-01) (570, 4.77096527814865112305e-01) (571, 4.38320994377136230469e-01) (572, 4.99236017465591430664e-01) (573, 8.58405590057373046875e-01) (574, 8.65739822387695312500e-01) (575, 8.76078128814697265625e-01) (576, 3.53737533092498779297e-01) (577, 3.67422401905059814453e-01) (578, 4.53699469566345214844e-01) (579, 4.42987352609634399414e-01) (580, 3.95717769861221313477e-01) (581, 3.27064901590347290039e-01) (582, 3.73272716999053955078e-01) (583, 3.83334636688232421875e-01) (584, 4.75939333438873291016e-01) (585, 4.21656757593154907227e-01) (586, 4.78970795869827270508e-01) (587, 3.98449778556823730469e-01) (588, 4.02286410331726074219e-01) (589, 3.43942344188690185547e-01) (590, 3.42364817857742309570e-01) (591, 4.88647013902664184570e-01) (592, 3.41151386499404907227e-01) (593, 4.56680357456207275391e-01) (594, 4.11183476448059082031e-01) (595, 4.79911893606185913086e-01) (596, 3.54328542947769165039e-01) (597, 4.09164488315582275391e-01) (598, 4.31404978036880493164e-01) (599, 4.69458043575286865234e-01) (600, 4.88360792398452758789e-01) (601, 3.89871239662170410156e-01) (602, 4.16384249925613403320e-01) (603, 4.71359699964523315430e-01) (604, 4.28977429866790771484e-01) (605, 9.57602262496948242188e-01) (606, 1.03379762172698974609e+00) (607, 4.75909531116485595703e-01) (608, 4.15383756160736083984e-01) (609, 3.55675756931304931641e-01) (610, 4.11435604095458984375e-01) (611, 3.21066528558731079102e-01) (612, 4.17322784662246704102e-01) (613, 5.10780811309814453125e-01) (614, 4.26626592874526977539e-01) (615, 3.39748203754425048828e-01) (616, 3.76374691724777221680e-01) (617, 3.62622320652008056641e-01) (618, 4.35298234224319458008e-01) (619, 4.76741015911102294922e-01) (620, 4.11724120378494262695e-01) (621, 4.96214389801025390625e-01) (622, 4.72284436225891113281e-01) (623, 4.60362970829010009766e-01) (624, 4.45989727973937988281e-01) (625, 3.90013664960861206055e-01) (626, 4.41762655973434448242e-01) (627, 4.60556387901306152344e-01) (628, 5.06378889083862304688e-01) (629, 3.67945671081542968750e-01) (630, 4.47411954402923583984e-01) (631, 4.60061252117156982422e-01) (632, 4.46788907051086425781e-01) (633, 3.46363514661788940430e-01) (634, 4.39463049173355102539e-01) (635, 3.59492301940917968750e-01) (636, 4.19800847768783569336e-01) (637, 3.67445051670074462891e-01) (638, 3.46424996852874755859e-01) (639, 3.26301097869873046875e-01) (640, 4.02114659547805786133e-01) (641, 4.31710511445999145508e-01) (642, 3.39906364679336547852e-01) (643, 4.97615814208984375000e-01) (644, 4.49118673801422119141e-01) (645, 4.60270196199417114258e-01) (646, 3.76200348138809204102e-01) (647, 4.83196109533309936523e-01) (648, 4.92669194936752319336e-01) (649, 4.77502018213272094727e-01) (650, 4.56548154354095458984e-01) (651, 4.03488457202911376953e-01) (652, 4.76930826902389526367e-01) (653, 4.60363596677780151367e-01) (654, 3.96121352910995483398e-01) (655, 4.39838141202926635742e-01) (656, 3.26045393943786621094e-01) (657, 3.13213437795639038086e-01) (658, 3.93124341964721679688e-01) (659, 5.12697696685791015625e-01) (660, 4.03931319713592529297e-01) (661, 3.14330041408538818359e-01) (662, 4.72317188978195190430e-01) (663, 3.29788297414779663086e-01) (664, 3.42921197414398193359e-01) (665, 4.31885719299316406250e-01) (666, 4.00115102529525756836e-01) (667, 4.71278816461563110352e-01) (668, 4.56685513257980346680e-01) (669, 4.43742960691452026367e-01) (670, 4.80221092700958251953e-01) (671, 3.60215783119201660156e-01) (672, 3.57367783784866333008e-01) (673, 2.93977320194244384766e-01) (674, 3.37793678045272827148e-01) (675, 4.77068781852722167969e-01) (676, 4.61202085018157958984e-01) (677, 4.04553592205047607422e-01) (678, 5.04238307476043701172e-01) (679, 4.42272722721099853516e-01) (680, 3.51311028003692626953e-01) (681, 4.16439622640609741211e-01) (682, 3.34662705659866333008e-01) (683, 3.24029564857482910156e-01) (684, 3.71905654668807983398e-01) (685, 4.15419995784759521484e-01) (686, 4.56908971071243286133e-01) (687, 4.08642977476119995117e-01) (688, 4.51405614614486694336e-01) (689, 3.24931085109710693359e-01) (690, 4.23993557691574096680e-01) (691, 3.49988430738449096680e-01) (692, 3.52763265371322631836e-01) (693, 3.52438718080520629883e-01) (694, 3.57122510671615600586e-01) (695, 3.66212248802185058594e-01) (696, 4.22018378973007202148e-01) (697, 4.62066501379013061523e-01) (698, 3.24151068925857543945e-01) (699, 3.96142005920410156250e-01) (700, 3.90526264905929565430e-01) (701, 5.10065555572509765625e-01) (702, 4.44934666156768798828e-01) (703, 4.25015926361083984375e-01) (704, 4.64978188276290893555e-01) (705, 4.53451484441757202148e-01) (706, 3.95985931158065795898e-01) (707, 4.14998710155487060547e-01) (708, 3.41371387243270874023e-01) (709, 3.92700284719467163086e-01) (710, 3.58089834451675415039e-01) (711, 4.06976282596588134766e-01) (712, 4.72338706254959106445e-01) (713, 3.65707218647003173828e-01) (714, 4.38238531351089477539e-01) (715, 3.58993321657180786133e-01) (716, 4.59228873252868652344e-01) (717, 3.76929581165313720703e-01) (718, 4.35517102479934692383e-01) (719, 4.32587146759033203125e-01) (720, 4.04644668102264404297e-01) (721, 3.25883924961090087891e-01) (722, 4.24614459276199340820e-01) (723, 4.13096696138381958008e-01) (724, 3.50171953439712524414e-01) (725, 4.64848548173904418945e-01) (726, 4.97108429670333862305e-01) (727, 4.65991228818893432617e-01) (728, 3.88307154178619384766e-01) (729, 5.35299777984619140625e-01) (730, 3.64071995019912719727e-01) (731, 4.87653583288192749023e-01) (732, 5.04924356937408447266e-01) (733, 4.54055190086364746094e-01) (734, 3.84836316108703613281e-01) (735, 4.57200407981872558594e-01) (736, 3.98035079240798950195e-01) (737, 4.80554431676864624023e-01) (738, 3.64763528108596801758e-01) (739, 4.56433892250061035156e-01) (740, 3.48339349031448364258e-01) (741, 4.59943473339080810547e-01) (742, 3.69029670953750610352e-01) (743, 3.31400990486145019531e-01) (744, 4.72128599882125854492e-01) (745, 4.75333631038665771484e-01) (746, 3.77058655023574829102e-01) (747, 4.76105958223342895508e-01) (748, 3.09303969144821166992e-01) (749, 4.87137407064437866211e-01) (750, 3.91718596220016479492e-01) (751, 4.34311568737030029297e-01) (752, 4.80815052986145019531e-01) (753, 4.78966087102890014648e-01) (754, 3.22306066751480102539e-01) (755, 3.28364461660385131836e-01) (756, 4.48552697896957397461e-01) (757, 4.95015263557434082031e-01) (758, 5.20877420902252197266e-01) (759, 3.91347676515579223633e-01) (760, 5.16598939895629882812e-01) (761, 3.50646227598190307617e-01) (762, 5.26910066604614257812e-01) (763, 4.59578752517700195312e-01) (764, 4.81833100318908691406e-01) (765, 3.82456541061401367188e-01) (766, 4.18815553188323974609e-01) (767, 3.88769209384918212891e-01) (768, 3.51903796195983886719e-01) (769, 4.85239475965499877930e-01) (770, 3.42669516801834106445e-01) (771, 4.17270541191101074219e-01) (772, 4.01179254055023193359e-01) (773, 4.07340615987777709961e-01) (774, 4.33712631464004516602e-01) (775, 3.67162883281707763672e-01) (776, 3.90652388334274291992e-01) (777, 4.88830715417861938477e-01) (778, 3.36352944374084472656e-01) (779, 4.01711493730545043945e-01) (780, 4.55405831336975097656e-01) (781, 4.07790005207061767578e-01) (782, 3.28149855136871337891e-01) (783, 4.54890608787536621094e-01) (784, 3.87602537870407104492e-01) (785, 3.20823192596435546875e-01) (786, 4.85451638698577880859e-01) (787, 3.31836044788360595703e-01) (788, 3.15227597951889038086e-01) (789, 4.72584038972854614258e-01) (790, 3.58201354742050170898e-01) (791, 5.22847533226013183594e-01) (792, 5.12600183486938476562e-01) (793, 3.83943915367126464844e-01) (794, 4.52992051839828491211e-01) (795, 4.70629960298538208008e-01) (796, 4.29634094238281250000e-01) (797, 3.65970760583877563477e-01) (798, 3.58848422765731811523e-01) (799, 2.97109484672546386719e-01) (800, 3.47635239362716674805e-01) (801, 3.97567003965377807617e-01) (802, 4.12290543317794799805e-01) (803, 4.58918452262878417969e-01) (804, 3.13787877559661865234e-01) (805, 3.59970241785049438477e-01) (806, 3.38195145130157470703e-01) (807, 3.72085094451904296875e-01) (808, 3.83988052606582641602e-01) (809, 3.89792799949645996094e-01) (810, 4.45793300867080688477e-01) (811, 3.34306061267852783203e-01) (812, 4.82901155948638916016e-01) (813, 4.75246548652648925781e-01) (814, 4.80516880750656127930e-01) (815, 3.61717224121093750000e-01) (816, 4.94336277246475219727e-01) (817, 4.64905291795730590820e-01) (818, 3.97070497274398803711e-01) (819, 5.06028115749359130859e-01) (820, 4.32066679000854492188e-01) (821, 4.47412848472595214844e-01) (822, 4.87664312124252319336e-01) (823, 4.42911833524703979492e-01) (824, 4.99470889568328857422e-01) (825, 4.38771069049835205078e-01) (826, 3.71864914894104003906e-01) (827, 4.18723493814468383789e-01) (828, 2.96651870012283325195e-01) (829, 4.37651723623275756836e-01) (830, 4.21961873769760131836e-01) (831, 3.58177006244659423828e-01) (832, 3.46198409795761108398e-01) (833, 3.34837257862091064453e-01) (834, 3.27526926994323730469e-01) (835, 3.69158983230590820312e-01) (836, 4.02354538440704345703e-01) (837, 3.68895471096038818359e-01) (838, 4.42709177732467651367e-01) (839, 4.50104683637619018555e-01) (840, 4.47370916604995727539e-01) (841, 4.26049500703811645508e-01) (842, 4.90753620862960815430e-01) (843, 4.33152675628662109375e-01) (844, 3.86614382266998291016e-01) (845, 4.56458836793899536133e-01) (846, 4.76610571146011352539e-01) (847, 3.67761582136154174805e-01) (848, 4.36466813087463378906e-01) (849, 3.69870275259017944336e-01) (850, 3.68036419153213500977e-01) (851, 3.86793047189712524414e-01) (852, 5.07382094860076904297e-01) (853, 3.38715016841888427734e-01) (854, 4.67046946287155151367e-01) (855, 4.81960296630859375000e-01) (856, 4.49852257966995239258e-01) (857, 3.30444961786270141602e-01) (858, 4.04751986265182495117e-01) (859, 4.55125957727432250977e-01) (860, 4.79423016309738159180e-01) (861, 3.36356788873672485352e-01) (862, 3.21262508630752563477e-01) (863, 3.56561839580535888672e-01) (864, 3.50371688604354858398e-01) (865, 3.19127857685089111328e-01) (866, 4.05290722846984863281e-01) (867, 2.88364827632904052734e-01) (868, 4.36010539531707763672e-01) (869, 3.63646388053894042969e-01) (870, 4.52875703573226928711e-01) (871, 3.72978925704956054688e-01) (872, 4.72040385007858276367e-01) (873, 4.33711647987365722656e-01) (874, 3.16655397415161132812e-01) (875, 3.71690779924392700195e-01) (876, 3.97257119417190551758e-01) (877, 4.79102373123168945312e-01) (878, 4.24367457628250122070e-01) (879, 3.43628734350204467773e-01) (880, 3.51009041070938110352e-01) (881, 4.80688601732254028320e-01) (882, 4.18940782546997070312e-01) (883, 3.75070661306381225586e-01) (884, 5.37663340568542480469e-01) (885, 3.47780168056488037109e-01) (886, 3.19512605667114257812e-01) (887, 4.52885508537292480469e-01) (888, 3.73491734266281127930e-01) (889, 4.32630658149719238281e-01) (890, 4.16520953178405761719e-01) (891, 3.67158174514770507812e-01) (892, 5.02777099609375000000e-01) (893, 4.66451376676559448242e-01) (894, 4.29131895303726196289e-01) (895, 3.85093390941619873047e-01) (896, 2.38396108150482177734e-01) (897, 2.69028902053833007812e-01) (898, 3.17559778690338134766e-01) (899, 4.02383893728256225586e-01) (900, 3.68194550275802612305e-01) (901, 3.39727491140365600586e-01) (902, 3.25905472040176391602e-01) (903, 3.75792205333709716797e-01) (904, 4.75040256977081298828e-01) (905, 3.13873529434204101562e-01) (906, 4.28589731454849243164e-01) (907, 3.83455783128738403320e-01) (908, 3.14815372228622436523e-01) (909, 3.62378537654876708984e-01) (910, 4.27540898323059082031e-01) (911, 3.61987739801406860352e-01) (912, 3.36610823869705200195e-01) (913, 5.14785289764404296875e-01) (914, 4.03782039880752563477e-01) (915, 3.34632486104965209961e-01) (916, 3.33556115627288818359e-01) (917, 4.07384723424911499023e-01) (918, 4.83950048685073852539e-01) (919, 4.16067093610763549805e-01) (920, 3.49564552307128906250e-01) (921, 4.05082345008850097656e-01) (922, 5.16936004161834716797e-01) (923, 3.43540161848068237305e-01) (924, 3.64317059516906738281e-01) (925, 4.07266885042190551758e-01) (926, 4.18391346931457519531e-01) (927, 4.15479779243469238281e-01) (928, 3.58493417501449584961e-01) (929, 4.18203353881835937500e-01) (930, 2.48646661639213562012e-01) (931, 2.51619547605514526367e-01) (932, 2.32279509305953979492e-01) (933, 2.73959904909133911133e-01) (934, 4.00851696729660034180e-01) (935, 3.00575882196426391602e-01) (936, 3.68628412485122680664e-01) (937, 3.44940602779388427734e-01) (938, 3.86579155921936035156e-01) (939, 3.87436926364898681641e-01) (940, 4.11366075277328491211e-01) (941, 3.04885774850845336914e-01) (942, 4.31832522153854370117e-01) (943, 4.25754576921463012695e-01) (944, 3.13686579465866088867e-01) (945, 3.18780601024627685547e-01) (946, 4.49918329715728759766e-01) (947, 3.48504781723022460938e-01) (948, 4.31971281766891479492e-01) (949, 4.35130447149276733398e-01) (950, 4.54670935869216918945e-01) (951, 4.77724105119705200195e-01) (952, 3.30867141485214233398e-01) (953, 4.36985433101654052734e-01) (954, 2.92097687721252441406e-01) (955, 3.26940327882766723633e-01) (956, 3.10906201601028442383e-01) (957, 3.99923950433731079102e-01) (958, 4.80507671833038330078e-01) (959, 4.86599832773208618164e-01) (960, 3.85143965482711791992e-01) (961, 4.29405540227890014648e-01) (962, 4.74321812391281127930e-01) (963, 2.77919411659240722656e-01) (964, 9.13017839193344116211e-02) (965, 2.25178897380828857422e-01) (966, 4.01772409677505493164e-01) (967, 3.69632810354232788086e-01) (968, 3.93340796232223510742e-01) (969, 2.74075865745544433594e-01) (970, 4.27724272012710571289e-01) (971, 2.97161936759948730469e-01) (972, 2.80922472476959228516e-01) (973, 3.58123004436492919922e-01) (974, 4.65251952409744262695e-01) (975, 3.26244324445724487305e-01) (976, 4.18541103601455688477e-01) (977, 4.14634644985198974609e-01) (978, 3.68231147527694702148e-01) (979, 3.53346019983291625977e-01) (980, 3.54710847139358520508e-01) (981, 3.20781111717224121094e-01) (982, 3.63307595252990722656e-01) (983, 4.27502453327178955078e-01) (984, 4.67999339103698730469e-01) (985, 3.16604226827621459961e-01) (986, 4.59504693746566772461e-01) (987, 4.94928807020187377930e-01) (988, 4.65738505125045776367e-01) (989, 4.50818270444869995117e-01) (990, 4.20275568962097167969e-01) (991, 3.41363638639450073242e-01) (992, 4.35114681720733642578e-01) (993, 4.06942814588546752930e-01) (994, 4.61255371570587158203e-01) (995, 4.07399833202362060547e-01) (996, 3.38871985673904418945e-01) (997, 2.52002596855163574219e-01) (998, 3.74309778213500976562e-01) (999, 1.08332765102386474609e+00) (1000, 6.64670467376708984375e-01) (1001, 8.25310945510864257812e-01) (1002, 6.64289474487304687500e-01) (1003, 2.97858387231826782227e-01) (1004, 3.12211990356445312500e-01) (1005, 3.94847035408020019531e-01) (1006, 4.17586505413055419922e-01) (1007, 4.64693427085876464844e-01) (1008, 3.59811991453170776367e-01) (1009, 3.29081296920776367188e-01) (1010, 3.31743836402893066406e-01) (1011, 4.14423257112503051758e-01) (1012, 3.50584179162979125977e-01) (1013, 3.94320666790008544922e-01) (1014, 5.32758951187133789062e-01) (1015, 5.34508645534515380859e-01) (1016, 4.15308564901351928711e-01) (1017, 4.98611241579055786133e-01) (1018, 4.91295963525772094727e-01) (1019, 3.45309615135192871094e-01) (1020, 3.85384351015090942383e-01) (1021, 3.80757451057434082031e-01) (1022, 3.55892121791839599609e-01) (1023, 4.81501370668411254883e-01) (1024, 4.82034772634506225586e-01) (0, 4.24853754043579101562e+00) (1, 1.49156513214111328125e+01) (2, 6.02344274520874023438e+00) (3, 3.52084636688232421875e+00) (4, 2.27941727638244628906e+00) (5, 1.29339802265167236328e+00) (6, 2.22614502906799316406e+00) (7, 2.37008452415466308594e+00) (8, 1.78518924713134765625e+01) (9, 2.42083549499511718750e+01) (10, 2.18478126525878906250e+01) (11, 1.95416946411132812500e+01) (12, 8.02761173248291015625e+00) (13, 1.96854293346405029297e+00) (14, 1.12110710144042968750e+01) (15, 2.08075942993164062500e+01) (16, 3.69148206710815429688e+00) (17, 2.66928315162658691406e-01) (18, -1.72844201326370239258e-01) (19, -4.51597750186920166016e-01) (20, -6.31528258323669433594e-01) (21, -6.24367952346801757812e-01) (22, -4.91919428110122680664e-01) (23, -1.13096639513969421387e-01) (24, -1.25315293669700622559e-01) (25, -2.07411035895347595215e-01) (26, -1.96209251880645751953e-01) (27, -2.38935872912406921387e-01) (28, -5.12164056301116943359e-01) (29, -4.38808798789978027344e-01) (30, -9.77987945079803466797e-02) (31, -1.90939411520957946777e-01) (32, 3.46722632646560668945e-01) (33, 1.35794746875762939453e+00) (34, 2.22421002388000488281e+00) (35, 8.19640064239501953125e+00) (36, 1.27618198394775390625e+01) (37, 4.63527536392211914062e+00) (38, 7.71017837524414062500e+00) (39, 3.71456265449523925781e+00) (40, 4.12857484817504882812e+00) (41, 4.47991704940795898438e+00) (42, 1.48309016227722167969e+00) (43, 1.43103313446044921875e+00) (44, 1.30580580234527587891e+00) (45, 4.50276702642440795898e-01) (46, 1.38447189331054687500e+00) (47, 2.18262004852294921875e+00) (48, 3.63079100847244262695e-01) (49, 3.91088128089904785156e-01) (50, 3.12662273645401000977e-01) (51, 2.18512043356895446777e-01) (52, 2.25026249885559082031e-01) (53, -2.98151969909667968750e-01) (54, 4.36287149786949157715e-02) (55, 7.91970919817686080933e-03) (56, -6.84026256203651428223e-02) (57, -1.12561263144016265869e-01) (58, -2.67295464873313903809e-02) (59, -8.51026624441146850586e-02) (60, -1.45103037357330322266e-01) (61, 6.13741993904113769531e-01) (62, 6.55166208744049072266e-01) (63, -6.90623104572296142578e-01) (64, 6.28680437803268432617e-02) (65, 1.18074476718902587891e+00) (66, 7.74800014495849609375e+00) (67, 1.50910091400146484375e+00) (68, 1.37966895103454589844e+00) (69, 2.46885150671005249023e-01) (70, 2.57941037416458129883e-01) (71, 2.61754572391510009766e-01) (72, 2.64040201902389526367e-01) (73, 1.68446004390716552734e-01) (74, 1.46524056792259216309e-01) (75, 8.12164098024368286133e-02) (76, 1.37262776494026184082e-01) (77, 2.57748186588287353516e-01) (78, 3.58001679182052612305e-01) (79, 3.44203531742095947266e-01) (80, 2.66169190406799316406e-01) (81, 3.28795641660690307617e-01) (82, 3.32141727209091186523e-01) (83, 2.77807205915451049805e-01) (84, 2.65194654464721679688e-01) (85, 3.70582371950149536133e-01) (86, 3.79740476608276367188e-01) (87, 1.55417442321777343750e-01) (88, 8.14553722739219665527e-02) (89, -7.46697634458541870117e-02) (90, 1.33202597498893737793e-01) (91, 4.05112802982330322266e-01) (92, 2.65694737434387207031e-01) (93, 7.99505770206451416016e-01) (94, -5.89642524719238281250e-01) (95, -5.95330953598022460938e-01) (96, 7.74292945861816406250e-01) (97, 1.50212311744689941406e+00) (98, 1.56694924831390380859e+00) (99, 7.14640855789184570312e-01) (100, 3.72244954109191894531e-01) (101, -1.40544518828392028809e-01) (102, -4.47680093348026275635e-02) (103, 1.71173408627510070801e-01) (104, 2.02049106359481811523e-01) (105, 1.20479337871074676514e-01) (106, -2.67232358455657958984e-01) (107, -3.05025219917297363281e-01) (108, 3.88894863426685333252e-02) (109, 2.01418131589889526367e-01) (110, 2.20887318253517150879e-01) (111, 2.27619931101799011230e-01) (112, 4.06489223241806030273e-01) (113, 9.42837536334991455078e-01) (114, 8.90788793563842773438e-01) (115, 8.25759470462799072266e-01) (116, 8.89765143394470214844e-01) (117, 2.06546425819396972656e+00) (118, 1.50729048252105712891e+00) (119, 1.61051356792449951172e+00) (120, 1.57231247425079345703e+00) (121, 1.07952272891998291016e+00) (122, 5.18068850040435791016e-01) (123, 2.11012870073318481445e-01) (124, 6.39705955982208251953e-01) (125, 1.18710041046142578125e+00) (126, 3.68189543485641479492e-01) (127, 8.17587852478027343750e-01) (128, 1.27537620067596435547e+00) (129, 1.46291768550872802734e+00) (130, 6.07531428337097167969e-01) (131, 3.71835201978683471680e-01) (132, 1.90954715013504028320e-01) (133, -1.46950796246528625488e-01) (134, 2.51448720693588256836e-01) (135, 6.63872361183166503906e-01) (136, 2.65751004219055175781e-01) (137, 2.76154838502407073975e-02) (138, -8.70514392852783203125e-01) (139, -1.67975711822509765625e+00) (140, -1.22641050815582275391e+00) (141, -1.63743659853935241699e-01) (142, 1.30569666624069213867e-01) (143, 2.62929856777191162109e-01) (144, 3.39470416307449340820e-01) (145, 3.61685216426849365234e-01) (146, 5.82876801490783691406e-01) (147, 2.09713268280029296875e+00) (148, 2.23573017120361328125e+00) (149, 2.65014815330505371094e+00) (150, 2.17979574203491210938e+00) (151, 6.07443273067474365234e-01) (152, 6.78839087486267089844e-01) (153, 7.39717364311218261719e-01) (154, 1.58236443996429443359e+00) (155, 1.00477540493011474609e+00) (156, 1.32444649934768676758e-01) (157, 2.85156279802322387695e-01) (158, 3.35117518901824951172e-01) (159, 5.24723649024963378906e-01) (160, 5.84558188915252685547e-01) (161, 7.32817709445953369141e-01) (162, 1.69702634215354919434e-01) (163, 2.54300981760025024414e-01) (164, -1.48749947547912597656e-01) (165, -9.23627093434333801270e-02) (166, 3.11732977628707885742e-01) (167, 4.62166935205459594727e-01) (168, 1.92233577370643615723e-01) (169, 2.05461099743843078613e-01) (170, -3.42398077249526977539e-01) (171, -1.69589996337890625000e+00) (172, -1.16187477111816406250e+00) (173, -8.09855222702026367188e-01) (174, -1.62260130047798156738e-01) (175, 5.73159428313374519348e-03) (176, 3.61153066158294677734e-01) (177, 4.15925353765487670898e-01) (178, 4.17928487062454223633e-01) (179, 9.49124813079833984375e-01) (180, 2.10882663726806640625e+00) (181, 2.17776083946228027344e+00) (182, 2.18973422050476074219e+00) (183, 2.17463946342468261719e+00) (184, 2.15203261375427246094e+00) (185, 2.85398572683334350586e-01) (186, 3.54132324457168579102e-01) (187, 3.91095995903015136719e-01) (188, 1.46795904636383056641e+00) (189, 1.31446039676666259766e+00) (190, 1.46209672093391418457e-01) (191, 3.58332246541976928711e-01) (192, 2.01467305421829223633e-01) (193, 1.20722629129886627197e-01) (194, 1.34237378835678100586e-01) (195, -8.77074524760246276855e-02) (196, -2.02751487493515014648e-01) (197, -1.04714082553982734680e-02) (198, 6.14936240017414093018e-02) (199, 4.07405644655227661133e-01) (200, 2.28266477584838867188e-01) (201, 2.86586403846740722656e-01) (202, 2.25960820913314819336e-01) (203, -3.29127639532089233398e-01) (204, -7.55033850669860839844e-01) (205, -1.08930778503417968750e+00) (206, -7.51059055328369140625e-01) (207, -1.62461385130882263184e-01) (208, -3.94253507256507873535e-02) (209, 1.76842436194419860840e-01) (210, 3.77021282911300659180e-01) (211, 3.93887579441070556641e-01) (212, 1.51349771022796630859e+00) (213, 2.15058445930480957031e+00) (214, 2.13332033157348632812e+00) (215, 4.39817619323730468750e+00) (216, 2.20421767234802246094e+00) (217, 1.96360063552856445312e+00) (218, 4.09451574087142944336e-01) (219, 3.17766159772872924805e-01) (220, 4.53253954648971557617e-01) (221, 3.67651551961898803711e-01) (222, 1.96373686194419860840e-01) (223, 3.11072826385498046875e-01) (224, 2.26852864027023315430e-01) (225, 6.58925697207450866699e-02) (226, -2.03354448080062866211e-01) (227, -1.29591211676597595215e-01) (228, -1.61481276154518127441e-01) (229, -2.08873435854911804199e-01) (230, 1.21756248176097869873e-01) (231, 1.95954605937004089355e-01) (232, 1.83158859610557556152e-01) (233, 2.88902491331100463867e-01) (234, -9.55636382102966308594e-01) (235, -1.11125297546386718750e+01) (236, -1.14720463752746582031e+00) (237, -1.20729315280914306641e+00) (238, -1.08184432983398437500e+00) (239, -4.70672190189361572266e-01) (240, -9.84259694814682006836e-02) (241, 1.93504929542541503906e-01) (242, 2.58266836404800415039e-01) (243, 3.47123593091964721680e-01) (244, 2.47837960720062255859e-01) (245, 1.55147612094879150391e+00) (246, 4.34674787521362304688e+00) (247, 4.14223098754882812500e+00) (248, 8.36221098899841308594e-01) (249, 2.52856224775314331055e-01) (250, 2.51927345991134643555e-01) (251, 2.78962731361389160156e-01) (252, 4.19613659381866455078e-01) (253, 4.94642794132232666016e-01) (254, -1.78936980664730072021e-02) (255, -1.21369294822216033936e-01) (256, 6.53273537755012512207e-02) (257, -2.53977477550506591797e-01) (258, -1.85783460736274719238e-01) (259, -8.77147912979125976562e-02) (260, -7.33449697494506835938e-01) (261, -2.61065936088562011719e+00) (262, 6.35743420571088790894e-03) (263, -2.26531788706779479980e-01) (264, 2.45668098330497741699e-01) (265, -5.54288208484649658203e-01) (266, -1.85753154754638671875e+01) (267, -6.17431221008300781250e+01) (268, -2.13490796089172363281e+00) (269, -1.63289427757263183594e+00) (270, -1.03876674175262451172e+00) (271, -6.50560498237609863281e-01) (272, -1.71425625681877136230e-01) (273, -1.27854585647583007812e-01) (274, 2.27281838655471801758e-01) (275, 2.00662925839424133301e-01) (276, 2.70636796951293945312e-01) (277, 2.17860198020935058594e+00) (278, 6.15023708343505859375e+00) (279, 1.36687307357788085938e+01) (280, 6.49410247802734375000e-01) (281, 1.79017603397369384766e-01) (282, 1.67791515588760375977e-01) (283, 1.49826571345329284668e-01) (284, 1.56873703002929687500e-01) (285, 1.07014727592468261719e+00) (286, 9.21144008636474609375e-01) (287, 3.36900651454925537109e-01) (288, -3.19907128810882568359e-01) (289, -3.98169487714767456055e-01) (290, -1.45354852080345153809e-01) (291, -2.24410206079483032227e-01) (292, -1.03498470783233642578e+00) (293, -2.78777670860290527344e+00) (294, 1.44244711846113204956e-02) (295, 1.92619770765304565430e-01) (296, 2.61794745922088623047e-01) (297, -1.46290510892868041992e-01) (298, -6.84036731719970703125e-01) (299, -4.68505287170410156250e+00) (300, -1.07974135875701904297e+00) (301, -1.22474741935729980469e+00) (302, -7.86321401596069335938e-01) (303, -7.10794329643249511719e-01) (304, -1.87635585665702819824e-01) (305, -3.91054213047027587891e-01) (306, -4.08258475363254547119e-02) (307, 2.27976292371749877930e-01) (308, 4.28256243467330932617e-01) (309, 9.76132154464721679688e-01) (310, 1.36767435073852539062e+01) (311, 1.05127058029174804688e+01) (312, 4.12132501602172851562e+00) (313, 9.26767826080322265625e-01) (314, 3.34285385906696319580e-02) (315, 5.57476393878459930420e-02) (316, 4.55606430768966674805e-01) (317, 1.20603024959564208984e+00) (318, 1.04740977287292480469e+00) (319, 8.84310781955718994141e-01) (320, -2.86170810461044311523e-01) (321, -2.66105026006698608398e-01) (322, -2.69106358289718627930e-01) (323, -5.32619237899780273438e-01) (324, -1.12763631343841552734e+00) (325, -1.76719295978546142578e+00) (326, -1.67179498821496963501e-02) (327, 7.06910550594329833984e-01) (328, 6.10872983932495117188e-01) (329, 2.97697871923446655273e-01) (330, -7.86097198724746704102e-02) (331, -6.13447129726409912109e-01) (332, -4.06793504953384399414e-01) (333, -3.64078789949417114258e-01) (334, -5.18227577209472656250e-01) (335, -2.64767765998840332031e-01) (336, -1.87369480729103088379e-01) (337, -6.22856207191944122314e-02) (338, 3.11264157295227050781e-01) (339, 2.36350476741790771484e-01) (340, 4.37030583620071411133e-01) (341, 9.06131446361541748047e-01) (342, 1.36190271377563476562e+01) (343, 1.05942058563232421875e+01) (344, 1.29861526489257812500e+01) (345, 3.56387443542480468750e+01) (346, 6.47748112678527832031e-02) (347, 7.50524774193763732910e-02) (348, 3.96848678588867187500e-01) (349, 1.12901222705841064453e+00) (350, 5.49498379230499267578e-01) (351, 1.92578271031379699707e-01) (352, -2.31124296784400939941e-01) (353, -3.45144659280776977539e-01) (354, -3.33849310874938964844e-01) (355, -7.10612237453460693359e-01) (356, -1.03633487224578857422e+00) (357, -1.00564944744110107422e+00) (358, 1.04424379765987396240e-01) (359, 7.54762411117553710938e-01) (360, 7.60407328605651855469e-01) (361, 1.14815163612365722656e+00) (362, 3.45594376325607299805e-01) (363, -1.80310279130935668945e-01) (364, -7.93332010507583618164e-02) (365, -5.48102743923664093018e-02) (366, -8.69250595569610595703e-02) (367, 1.89161047339439392090e-01) (368, 3.20290148258209228516e-01) (369, 4.18320983648300170898e-01) (370, 4.70604330301284790039e-01) (371, 3.14685612916946411133e-01) (372, 2.70814597606658935547e-01) (373, 8.71632039546966552734e-01) (374, 1.35442876815795898438e+01) (375, 1.35964822769165039062e+01) (376, 3.54707946777343750000e+01) (377, 3.55953521728515625000e+01) (378, 1.07980094850063323975e-01) (379, 1.44247279968112707138e-03) (380, 4.76438343524932861328e-01) (381, 4.26427215337753295898e-01) (382, 3.74455183744430541992e-01) (383, 1.41643509268760681152e-01) (384, -3.56582313776016235352e-01) (385, -3.05086523294448852539e-01) (386, -2.57869750261306762695e-01) (387, -3.14240604639053344727e-01) (388, -4.77121144533157348633e-01) (389, -1.68061494827270507812e-01) (390, 3.95000368356704711914e-01) (391, 1.26993429660797119141e+00) (392, 1.08404815196990966797e+00) (393, 6.04771518707275390625e+00) (394, 9.38104450702667236328e-01) (395, 4.31562103331089019775e-02) (396, -3.44064123928546905518e-02) (397, 7.88534525781869888306e-03) (398, 2.41562351584434509277e-01) (399, 3.75304847955703735352e-01) (400, 2.94757694005966186523e-01) (401, 6.15351200103759765625e-01) (402, 2.11206030845642089844e+00) (403, 3.85606825351715087891e-01) (404, 3.91986161470413208008e-01) (405, 7.65366554260253906250e-01) (406, 4.89333057403564453125e+00) (407, 1.37078332901000976562e+01) (408, 1.36465940475463867188e+01) (409, 3.55418167114257812500e+01) (410, 1.51329129934310913086e-01) (411, 3.14917787909507751465e-02) (412, 3.14676105976104736328e-01) (413, 4.39794152975082397461e-01) (414, 1.79977063089609146118e-02) (415, -8.59286636114120483398e-03) (416, -3.86428564786911010742e-01) (417, -2.94592738151550292969e-01) (418, -3.22135239839553833008e-01) (419, -1.97713285684585571289e-01) (420, -1.17880262434482574463e-01) (421, -1.42444804310798645020e-01) (422, 4.12369072437286376953e-01) (423, 7.32785582542419433594e-01) (424, 1.20270550251007080078e+00) (425, 1.74960568547248840332e-01) (426, 4.35538738965988159180e-01) (427, 1.85207843780517578125e-01) (428, -4.81181629002094268799e-02) (429, 8.36527496576309204102e-02) (430, 5.38082756102085113525e-02) (431, 2.97515958547592163086e-01) (432, 4.62237745523452758789e-01) (433, 3.94125133752822875977e-01) (434, 3.07581871747970581055e-01) (435, 1.02588307857513427734e+00) (436, 4.24680650234222412109e-01) (437, 3.59983503818511962891e-01) (438, 1.85542941093444824219e+00) (439, 5.23635673522949218750e+00) (440, 4.81723690032958984375e+00) (441, 5.06361198425292968750e+00) (442, 3.33497375249862670898e-01) (443, 2.12647095322608947754e-01) (444, 3.43503654003143310547e-01) (445, 9.77564305067062377930e-02) (446, -8.81393179297447204590e-02) (447, -5.49392588436603546143e-02) (448, -3.22642415761947631836e-01) (449, -3.63933712244033813477e-01) (450, -4.21170681715011596680e-01) (451, -2.35765844583511352539e-01) (452, -2.00585871934890747070e-01) (453, -2.50371526926755905151e-02) (454, 4.63115535676479339600e-02) (455, -3.12433093786239624023e-02) (456, 4.84928339719772338867e-02) (457, -5.75601086020469665527e-02) (458, 1.62762980908155441284e-02) (459, -5.24685643613338470459e-02) (460, -1.52619585394859313965e-01) (461, -8.56116712093353271484e-02) (462, -1.94844573736190795898e-01) (463, -1.97587609291076660156e-02) (464, -1.44043058156967163086e-01) (465, -3.16291563212871551514e-02) (466, 6.83186575770378112793e-02) (467, 1.20817101001739501953e+00) (468, 5.47764921188354492188e+00) (469, 1.07253623008728027344e+00) (470, 7.99455463886260986328e-01) (471, 4.88877964019775390625e+00) (472, 8.96549344062805175781e-01) (473, 1.07556235790252685547e+00) (474, 3.86052340269088745117e-01) (475, 3.19858849048614501953e-01) (476, 3.20991396903991699219e-01) (477, -1.55420750379562377930e-01) (478, -5.75847029685974121094e-02) (479, -3.65080870687961578369e-02) (480, -2.91945159435272216797e-01) (481, -2.86261081695556640625e-01) (482, -4.11577194929122924805e-01) (483, -2.83204436302185058594e-01) (484, -2.24266171455383300781e-01) (485, -2.33622029423713684082e-01) (486, -2.14484378695487976074e-01) (487, -4.55814987421035766602e-01) (488, -4.02291506528854370117e-01) (489, -2.97360599040985107422e-01) (490, -3.29971104860305786133e-01) (491, -4.65444713830947875977e-01) (492, -7.77706503868103027344e-01) (493, -8.32711100578308105469e-01) (494, -8.28897118568420410156e-01) (495, -7.41609454154968261719e-01) (496, -3.39645802974700927734e-01) (497, -8.70511084794998168945e-02) (498, 5.26761375367641448975e-02) (499, 2.65728741884231567383e-01) (500, 1.17763745784759521484e+00) (501, 1.71738103032112121582e-01) (502, 1.70554742217063903809e-01) (503, 3.33765864372253417969e+00) (504, 6.98514819145202636719e-01) (505, 9.03070509433746337891e-01) (506, 2.35001325607299804688e-01) (507, 2.28455781936645507812e-01) (508, 2.84503283910453319550e-03) (509, -5.30653595924377441406e-02) (510, -2.48666763305664062500e-01) (511, -1.62158399820327758789e-01) (512, -4.55169975757598876953e-02) (513, -1.58926919102668762207e-01) (514, -2.64874994754791259766e-01) (515, -3.15283149480819702148e-01) (516, -4.20770257711410522461e-01) (517, -3.21206361055374145508e-01) (518, -1.61373004317283630371e-01) (519, -4.76290017366409301758e-01) (520, -3.38388770818710327148e-01) (521, -1.03250515460968017578e+00) (522, -1.11138713359832763672e+00) (523, -1.10205996036529541016e+00) (524, -2.20524430274963378906e+00) (525, -2.08031272888183593750e+00) (526, -1.19691371917724609375e+00) (527, -1.16185140609741210938e+00) (528, -1.20128726959228515625e+00) (529, -3.30706149339675903320e-01) (530, -1.96052417159080505371e-01) (531, 1.12079553306102752686e-01) (532, 6.07644319534301757812e-01) (533, 5.37099301815032958984e-01) (534, 4.46077466011047363281e-01) (535, 1.74716937541961669922e+00) (536, 1.65608420968055725098e-01) (537, 3.94768923521041870117e-01) (538, 3.27059268951416015625e-01) (539, 1.70961350202560424805e-01) (540, -1.84076558798551559448e-02) (541, -1.58431813120841979980e-01) (542, -9.92688417434692382812e-01) (543, -1.48618996143341064453e-01) (544, -1.85674130916595458984e-02) (545, -4.59733679890632629395e-02) (546, -3.94069999456405639648e-01) (547, -4.32606011629104614258e-01) (548, -3.95363062620162963867e-01) (549, -3.97290140390396118164e-01) (550, 1.45478248596191406250e-01) (551, 1.47921586036682128906e+00) (552, 1.53061079978942871094e+00) (553, 1.87899351119995117188e-01) (554, -3.94884496927261352539e-01) (555, -9.14663970470428466797e-01) (556, -8.50558757781982421875e-01) (557, -9.02878701686859130859e-01) (558, -8.47539961338043212891e-01) (559, -8.22870731353759765625e-01) (560, -1.07847654819488525391e+00) (561, -2.64998704195022583008e-01) (562, 2.87332180887460708618e-02) (563, 2.92328089475631713867e-01) (564, 2.94421881437301635742e-01) (565, 2.65275299549102783203e-01) (566, 7.25654423236846923828e-01) (567, 1.79980075359344482422e+00) (568, 4.36064928770065307617e-01) (569, 8.95917713642120361328e-01) (570, 2.19760999083518981934e-01) (571, 2.43486255407333374023e-01) (572, -5.57168535888195037842e-02) (573, -9.90339070558547973633e-02) (574, -3.58650416135787963867e-01) (575, -1.08637504279613494873e-01) (576, -1.12706273794174194336e-01) (577, -2.86702327430248260498e-02) (578, -3.79051342606544494629e-02) (579, -3.01337718963623046875e-01) (580, -2.54143714904785156250e-01) (581, -2.45323121547698974609e-01) (582, 1.25659048557281494141e-01) (583, 2.83052825927734375000e+00) (584, 3.92867622375488281250e+01) (585, 7.01650428771972656250e+00) (586, 1.10641074180603027344e+00) (587, 8.98010283708572387695e-02) (588, -9.67418476939201354980e-02) (589, 1.38604298233985900879e-01) (590, -1.24846863746643066406e+00) (591, -1.19422423839569091797e+00) (592, -1.44711419939994812012e-01) (593, 1.26397535204887390137e-01) (594, 9.35686051845550537109e-01) (595, 5.28428077697753906250e-01) (596, 2.73495674133300781250e-01) (597, 2.67376065254211425781e-01) (598, 8.17294895648956298828e-01) (599, 7.42726707458496093750e+00) (600, 1.18898737430572509766e+00) (601, 1.98184072971343994141e+00) (602, 1.39963781833648681641e+00) (603, -1.05347391217947006226e-03) (604, -4.48731668293476104736e-02) (605, -2.09193006157875061035e-02) (606, -8.94504413008689880371e-02) (607, -1.77298009395599365234e-01) (608, -6.46928548812866210938e-02) (609, -1.42458885908126831055e-01) (610, -1.97412669658660888672e-02) (611, -3.47019881010055541992e-01) (612, -3.81050318479537963867e-01) (613, -3.96500766277313232422e-01) (614, 2.40880981087684631348e-01) (615, 1.82056653499603271484e+00) (616, 1.65208187103271484375e+01) (617, 1.33855104446411132812e+00) (618, -2.13885344564914703369e-02) (619, -2.48508200049400329590e-01) (620, -5.78976511955261230469e-01) (621, 1.39205649495124816895e-01) (622, 9.85032021999359130859e-02) (623, 2.00363978743553161621e-01) (624, 1.51868969202041625977e-01) (625, -4.74500171840190887451e-02) (626, 2.13344588875770568848e-01) (627, 2.84854173660278320312e-01) (628, 3.23728978633880615234e-01) (629, 3.05124491453170776367e-01) (630, 2.25995644927024841309e-01) (631, 7.25397539138793945312e+00) (632, 6.86078405380249023438e+00) (633, 1.12554330825805664062e+01) (634, 1.46887969970703125000e+00) (635, -5.00419199466705322266e-01) (636, -7.91544094681739807129e-02) (637, -8.25942233204841613770e-02) (638, -9.73614826798439025879e-02) (639, -1.58683806657791137695e-01) (640, -1.42220025882124900818e-02) (641, -8.96933898329734802246e-02) (642, 8.85364338755607604980e-02) (643, -2.25264113396406173706e-02) (644, -2.61636406183242797852e-01) (645, -2.69347697496414184570e-01) (646, 2.82765150070190429688e-01) (647, 1.89767348766326904297e+00) (648, 2.99902629852294921875e+00) (649, 1.24252235889434814453e+00) (650, -2.08504885435104370117e-01) (651, -3.19781482219696044922e-01) (652, -8.48864436149597167969e-01) (653, -4.43969964981079101562e-01) (654, -1.82572096586227416992e-01) (655, -5.66269457340240478516e-02) (656, 1.64520684629678726196e-02) (657, -2.18849316239356994629e-01) (658, -3.75269025564193725586e-01) (659, -4.18613292276859283447e-02) (660, 3.08522079139947891235e-02) (661, 1.79964154958724975586e-01) (662, 3.85654240846633911133e-01) (663, 6.84114313125610351562e+00) (664, 6.91361761093139648438e+00) (665, 1.65667114257812500000e+01) (666, 1.46536409854888916016e+00) (667, 1.63981169462203979492e-01) (668, 1.98571383953094482422e-01) (669, 1.69713646173477172852e-02) (670, 2.25885622203350067139e-02) (671, 1.89230471849441528320e-01) (672, -1.75500199198722839355e-01) (673, -3.97994816303253173828e-02) (674, 3.05542014539241790771e-02) (675, 4.79635410010814666748e-02) (676, -3.28865736722946166992e-01) (677, -5.65662384033203125000e-01) (678, 2.19285294413566589355e-01) (679, 1.86266887187957763672e+00) (680, 3.94947528839111328125e+00) (681, 1.10861825942993164062e+00) (682, 3.79395857453346252441e-02) (683, -7.40540176630020141602e-02) (684, -7.75678038597106933594e-01) (685, -1.11879372596740722656e+00) (686, -6.50996446609497070312e-01) (687, -6.51726961135864257812e-01) (688, -1.72229167073965072632e-02) (689, -7.50078484416007995605e-02) (690, 2.22575873136520385742e-01) (691, 3.16340506076812744141e-01) (692, 2.39252597093582153320e-01) (693, 2.63104498386383056641e-01) (694, 6.43128037452697753906e-01) (695, 3.17628884315490722656e+00) (696, 1.58332550525665283203e+00) (697, 2.77218246459960937500e+00) (698, 1.44542992115020751953e+00) (699, 2.10334375500679016113e-01) (700, 2.72119581699371337891e-01) (701, 2.91398972272872924805e-01) (702, 3.04636746644973754883e-01) (703, 1.39814591407775878906e+00) (704, 2.77942329645156860352e-01) (705, -3.46039921045303344727e-01) (706, 9.15040001273155212402e-02) (707, 2.22457870841026306152e-02) (708, -5.93860805034637451172e-01) (709, -2.92318463325500488281e-01) (710, 2.69253939390182495117e-01) (711, 3.55633229017257690430e-01) (712, 1.59534382820129394531e+00) (713, 1.74620404839515686035e-01) (714, -6.31031751632690429688e-01) (715, -6.40565991401672363281e-01) (716, -1.22650694847106933594e+00) (717, -1.16619181632995605469e+00) (718, -5.68605720996856689453e-01) (719, -6.89693450927734375000e-01) (720, -1.83732777833938598633e-01) (721, 9.92534905672073364258e-02) (722, 2.34972566366195678711e-01) (723, 3.33528399467468261719e-01) (724, 1.49002397060394287109e+00) (725, 1.48782837390899658203e+00) (726, 1.90043699741363525391e+00) (727, 4.73155593872070312500e+00) (728, 1.72720181941986083984e+00) (729, 7.37128615379333496094e-01) (730, 2.51838564872741699219e-01) (731, 2.27759420871734619141e-01) (732, 2.46375337243080139160e-01) (733, 4.84708994626998901367e-01) (734, 1.31570935249328613281e+00) (735, 1.36506772041320800781e+00) (736, 5.86710155010223388672e-01) (737, 5.45400619506835937500e-01) (738, 3.69867563247680664062e-01) (739, -7.62350857257843017578e-02) (740, -5.85317611694335937500e-02) (741, 2.92491465806961059570e-01) (742, 2.07011938095092773438e+00) (743, 4.62047964334487915039e-01) (744, 1.64918690919876098633e-01) (745, -1.11228787899017333984e+00) (746, -6.02572727203369140625e+00) (747, -1.60393118858337402344e+00) (748, -1.04950439929962158203e+00) (749, -1.12272226810455322266e+00) (750, -7.02614605426788330078e-01) (751, -9.54882502555847167969e-02) (752, -6.28915876150131225586e-02) (753, 5.18090091645717620850e-02) (754, 5.91918230056762695312e-01) (755, 1.49218976497650146484e+00) (756, 1.54778730869293212891e+00) (757, 1.50354290008544921875e+00) (758, 1.29912590980529785156e+00) (759, 1.01904702186584472656e+00) (760, 3.72615545988082885742e-01) (761, 2.67301350831985473633e-01) (762, 2.90378928184509277344e-01) (763, 1.44674515724182128906e+00) (764, 1.36570477485656738281e+00) (765, 1.44569683074951171875e+00) (766, 1.38239789009094238281e+00) (767, 1.36772704124450683594e+00) (768, 7.33353376388549804688e-01) (769, 5.94087600708007812500e-01) (770, 2.37246990203857421875e-01) (771, -1.80302873253822326660e-01) (772, -1.73112884163856506348e-01) (773, 1.63694787025451660156e+00) (774, 2.35237503051757812500e+00) (775, 1.02847063541412353516e+00) (776, 2.11430460214614868164e-01) (777, -1.51391911506652832031e+00) (778, -9.16565704345703125000e+00) (779, -4.60195064544677734375e+00) (780, -1.12500107288360595703e+00) (781, -1.17896795272827148438e+00) (782, -2.15331479907035827637e-01) (783, 4.10826466977596282959e-02) (784, 2.55824238061904907227e-01) (785, 7.89825767278671264648e-02) (786, 1.62573325634002685547e+00) (787, 1.53413641452789306641e+00) (788, 